-2.590543776750564575e-02 4.828806594014167786e-02 -3.942637145519256592e-02 -7.787229865789413452e-02 3.712028637528419495e-02 1.163832098245620728e-02 2.103043347597122192e-02 7.563997060060501099e-02 2.515920437872409821e-02 -5.237883422523736954e-03 1.605864427983760834e-02 6.637275684624910355e-03 2.348996140062808990e-02 1.299840398132801056e-02 7.435984164476394653e-02 1.041345372796058655e-01 -5.607674270868301392e-02 -7.682562340050935745e-03 -1.327527593821287155e-02 -2.041230536997318268e-02 8.791340515017509460e-03 1.290880143642425537e-02 -3.561603277921676636e-02 -5.520946346223354340e-03 -1.809133216738700867e-02 -3.569453954696655273e-02 -3.692473843693733215e-02 9.622427634894847870e-03 3.424102813005447388e-02 7.564494013786315918e-02 5.954274907708168030e-02 4.744206368923187256e-02 0.000000000000000000e+00 0.000000000000000000e+00 0.000000000000000000e+00 0.000000000000000000e+00 -0.000000000000000000e+00 -0.000000000000000000e+00 0.000000000000000000e+00 0.000000000000000000e+00 -0.000000000000000000e+00 -0.000000000000000000e+00 -0.000000000000000000e+00 0.000000000000000000e+00 -0.000000000000000000e+00 -0.000000000000000000e+00 -0.000000000000000000e+00 0.000000000000000000e+00 0.000000000000000000e+00 0.000000000000000000e+00 -0.000000000000000000e+00 0.000000000000000000e+00 -0.000000000000000000e+00 -0.000000000000000000e+00 -0.000000000000000000e+00 -0.000000000000000000e+00 -0.000000000000000000e+00 -0.000000000000000000e+00 0.000000000000000000e+00 -0.000000000000000000e+00 0.000000000000000000e+00 0.000000000000000000e+00 -0.000000000000000000e+00 0.000000000000000000e+00 1.985619589686393738e-02 2.308292500674724579e-02 3.214303776621818542e-02 3.216931596398353577e-02 -2.038185950368642807e-03 3.488389030098915100e-02 2.843699976801872253e-02 1.516698393970727921e-02 -3.921168390661478043e-03 2.066185884177684784e-02 3.742386028170585632e-02 8.270918391644954681e-03 7.824354805052280426e-03 -2.469107741490006447e-03 9.988824836909770966e-03 5.921404063701629639e-02 0.000000000000000000e+00 0.000000000000000000e+00 -0.000000000000000000e+00 0.000000000000000000e+00 0.000000000000000000e+00 -0.000000000000000000e+00 -0.000000000000000000e+00 0.000000000000000000e+00 0.000000000000000000e+00 0.000000000000000000e+00 0.000000000000000000e+00 0.000000000000000000e+00 -0.000000000000000000e+00 -0.000000000000000000e+00 -0.000000000000000000e+00 0.000000000000000000e+00 -3.172206133604049683e-02 2.754958905279636383e-02 7.618501782417297363e-03 -4.430585540831089020e-03 -3.285046666860580444e-02 -4.467272665351629257e-03 -3.215160593390464783e-02 4.609030485153198242e-02 -1.220063492655754089e-02 -1.305095944553613663e-02 -1.404476817697286606e-02 6.779331713914871216e-03 -8.865799009799957275e-02 -4.417160525918006897e-02 -4.153672605752944946e-02 -6.956314202398061752e-03 -1.621478050947189331e-02 -3.893968835473060608e-02 -1.056492477655410767e-01 -5.612003430724143982e-02 1.407435256987810135e-02 -1.026358082890510559e-02 -9.232902526855468750e-02 -2.587121911346912384e-02 3.195516765117645264e-03 -4.424520581960678101e-02 -5.717585608363151550e-02 -8.693899959325790405e-03 1.069602090865373611e-02 -7.205532491207122803e-02 -5.054287612438201904e-02 -4.644265770912170410e-02 -1.384893804788589478e-01 5.633031949400901794e-02 -7.373480498790740967e-02 -8.668402582406997681e-02 -2.153962105512619019e-01 2.546600624918937683e-02 -6.913566589355468750e-02 -1.705313101410865784e-02 -1.341166198253631592e-01 -1.410045940428972244e-02 4.205233976244926453e-02 9.383341297507286072e-03 -1.596411690115928650e-02 -3.266131132841110229e-02 -2.472480759024620056e-03 -2.783054485917091370e-02 -1.459123846143484116e-02 3.163600340485572815e-02 -3.759504109621047974e-02 1.191769912838935852e-02 -1.073268149048089981e-02 3.170102834701538086e-02 6.255312263965606689e-02 2.697859704494476318e-02 -1.163251139223575592e-02 -2.043122611939907074e-02 -2.695501782000064850e-02 -4.145200178027153015e-02 -7.064768671989440918e-02 -2.172774821519851685e-02 1.343974657356739044e-02 -9.645310044288635254e-02 7.859787903726100922e-03 -1.246420200914144516e-02 -3.210794553160667419e-02 -1.883604750037193298e-02 -1.680039428174495697e-02 -7.131129503250122070e-03 0.000000000000000000e+00 0.000000000000000000e+00 1.664929464459419250e-02 -0.000000000000000000e+00 -1.638735644519329071e-02 0.000000000000000000e+00 -0.000000000000000000e+00 -0.000000000000000000e+00 -0.000000000000000000e+00 -1.960859866812825203e-03 4.326832666993141174e-02 -2.514552697539329529e-02 4.252682253718376160e-02 3.914637118577957153e-02 2.965381741523742676e-02 8.349234238266944885e-03 -6.800694391131401062e-03 2.065688930451869965e-02 -4.308106005191802979e-02 -6.007936969399452209e-02 -5.374678224325180054e-02 -7.199450582265853882e-02 -2.125218696892261505e-02 -1.131851002573966980e-01 1.214827597141265869e-02 -8.339595049619674683e-02 7.322293519973754883e-02 9.989178180694580078e-02 1.255337446928024292e-01 -6.375567615032196045e-02 3.135721087455749512e-01 -1.357278414070606232e-02 -1.227686007041484118e-04 -4.399646818637847900e-02 3.547407686710357666e-02 -1.627701073884963989e-01 -5.496045947074890137e-02 -2.385632693767547607e-02 -3.160608932375907898e-03 -3.209374845027923584e-02 2.349828183650970459e-02 1.277787685394287109e-01 4.911075159907341003e-02 1.929938793182373047e-02 -1.478251814842224121e-02 -7.228332106024026871e-03 1.088168472051620483e-02 5.669574439525604248e-02 6.879144906997680664e-02 9.643895179033279419e-02 -8.556890487670898438e-02 -6.423501670360565186e-02 -3.483285009860992432e-02 3.008659370243549347e-02 -4.072210937738418579e-02 -7.375500351190567017e-02 1.098928041756153107e-02 2.941528521478176117e-02 0.000000000000000000e+00 -0.000000000000000000e+00 -0.000000000000000000e+00 -0.000000000000000000e+00 -0.000000000000000000e+00 -0.000000000000000000e+00 0.000000000000000000e+00 0.000000000000000000e+00 -0.000000000000000000e+00 0.000000000000000000e+00 0.000000000000000000e+00 0.000000000000000000e+00 -0.000000000000000000e+00 -0.000000000000000000e+00 0.000000000000000000e+00 -0.000000000000000000e+00 1.136824674904346466e-02 3.678551688790321350e-02 2.855857647955417633e-02 3.072281740605831146e-02 -2.498551504686474800e-03 2.715556137263774872e-02 1.867199316620826721e-02 4.671734943985939026e-02 1.927168667316436768e-02 1.263611111789941788e-02 1.942600682377815247e-02 2.245248295366764069e-02 1.458977162837982178e-02 3.089729230850934982e-03 9.677574969828128815e-03 6.290432065725326538e-02 -7.512845844030380249e-02 -4.164249822497367859e-02 3.850339353084564209e-02 4.319392889738082886e-02 -1.402371376752853394e-01 -1.299529224634170532e-01 -9.263214468955993652e-02 2.641504630446434021e-02 1.013011857867240906e-02 -4.250508174300193787e-02 -1.321000456809997559e-01 1.945532113313674927e-02 2.104407548904418945e-02 -2.125277742743492126e-02 1.495187450200319290e-02 -1.201037093997001648e-01 -2.855980210006237030e-02 -2.560267597436904907e-02 -2.832510322332382202e-02 -2.108798734843730927e-02 -2.273992449045181274e-02 -2.037723176181316376e-02 -1.900460571050643921e-02 -1.110091898590326309e-02 -2.343669906258583069e-02 -2.135514654219150543e-02 -1.895760372281074524e-02 -1.609027944505214691e-02 -2.157226391136646271e-02 -1.803727447986602783e-02 -1.268876530230045319e-02 -1.190854329615831375e-02 -0.000000000000000000e+00 0.000000000000000000e+00 0.000000000000000000e+00 0.000000000000000000e+00 -0.000000000000000000e+00 -0.000000000000000000e+00 -0.000000000000000000e+00 0.000000000000000000e+00 -0.000000000000000000e+00 0.000000000000000000e+00 0.000000000000000000e+00 0.000000000000000000e+00 -0.000000000000000000e+00 0.000000000000000000e+00 0.000000000000000000e+00 -0.000000000000000000e+00 -0.000000000000000000e+00 -0.000000000000000000e+00 0.000000000000000000e+00 -0.000000000000000000e+00 -0.000000000000000000e+00 0.000000000000000000e+00 0.000000000000000000e+00 -0.000000000000000000e+00 0.000000000000000000e+00 0.000000000000000000e+00 0.000000000000000000e+00 0.000000000000000000e+00 0.000000000000000000e+00 0.000000000000000000e+00 -0.000000000000000000e+00 0.000000000000000000e+00 2.120122499763965607e-02 -3.228817135095596313e-02 5.575424060225486755e-02 1.256955042481422424e-02 2.342857979238033295e-02 -1.215378716588020325e-01 1.357670035213232040e-02 -2.151716267690062523e-03 8.468911983072757721e-03 -8.537817746400833130e-02 -1.247223988175392151e-01 -7.825899869203567505e-03 2.714060805737972260e-02 -3.600864857435226440e-02 -7.885363698005676270e-02 1.761712948791682720e-03 4.799400269985198975e-02 -2.148769050836563110e-02 2.099890634417533875e-02 4.104380309581756592e-02 2.770292572677135468e-02 1.456905156373977661e-02 5.579275637865066528e-02 5.307029187679290771e-02 -2.796510048210620880e-02 -1.721150986850261688e-02 -2.324599772691726685e-01 4.224372096359729767e-03 1.054780781269073486e-01 6.331312656402587891e-02 -8.206123113632202148e-02 -1.611490361392498016e-02 0.000000000000000000e+00 -0.000000000000000000e+00 0.000000000000000000e+00 0.000000000000000000e+00 0.000000000000000000e+00 -0.000000000000000000e+00 0.000000000000000000e+00 0.000000000000000000e+00 -0.000000000000000000e+00 0.000000000000000000e+00 0.000000000000000000e+00 0.000000000000000000e+00 -0.000000000000000000e+00 -0.000000000000000000e+00 0.000000000000000000e+00 -0.000000000000000000e+00 0.000000000000000000e+00 0.000000000000000000e+00 -0.000000000000000000e+00 0.000000000000000000e+00 -0.000000000000000000e+00 0.000000000000000000e+00 -0.000000000000000000e+00 -0.000000000000000000e+00 -0.000000000000000000e+00 -0.000000000000000000e+00 -0.000000000000000000e+00 0.000000000000000000e+00 -0.000000000000000000e+00 -0.000000000000000000e+00 -0.000000000000000000e+00 -0.000000000000000000e+00 9.529597125947475433e-03 1.738777384161949158e-02 4.175713658332824707e-02 4.204665496945381165e-02 3.131696954369544983e-02 3.370160609483718872e-02 3.666211664676666260e-02 2.287824079394340515e-02 6.010364741086959839e-02 2.581882849335670471e-02 8.248975127935409546e-02 1.285257004201412201e-02 4.797488078474998474e-02 2.490457147359848022e-02 2.150219306349754333e-02 -1.162870693951845169e-02 -0.000000000000000000e+00 0.000000000000000000e+00 -0.000000000000000000e+00 -0.000000000000000000e+00 -0.000000000000000000e+00 0.000000000000000000e+00 0.000000000000000000e+00 0.000000000000000000e+00 0.000000000000000000e+00 0.000000000000000000e+00 0.000000000000000000e+00 0.000000000000000000e+00 0.000000000000000000e+00 0.000000000000000000e+00 0.000000000000000000e+00 0.000000000000000000e+00 -9.646737575531005859e-02 -6.740452349185943604e-02 -6.805604323744773865e-03 -2.684292942285537720e-02 -1.785546913743019104e-02 1.089103892445564270e-02 -4.093406349420547485e-02 -5.579321831464767456e-02 -2.629733085632324219e-02 -6.264784187078475952e-02 -2.688892781734466553e-01 -4.542413726449012756e-02 2.423477731645107269e-02 5.225525237619876862e-03 9.110560640692710876e-03 -1.030501350760459900e-02 -0.000000000000000000e+00 0.000000000000000000e+00 -0.000000000000000000e+00 -0.000000000000000000e+00 0.000000000000000000e+00 -0.000000000000000000e+00 -0.000000000000000000e+00 0.000000000000000000e+00 -0.000000000000000000e+00 -0.000000000000000000e+00 0.000000000000000000e+00 -0.000000000000000000e+00 0.000000000000000000e+00 0.000000000000000000e+00 -0.000000000000000000e+00 0.000000000000000000e+00 2.607760205864906311e-02 4.590163007378578186e-02 1.247883425094187260e-03 -4.476998001337051392e-03 -1.234511379152536392e-02 4.562009498476982117e-02 -2.345888130366802216e-02 -1.725920289754867554e-02 3.296119347214698792e-02 6.440918147563934326e-02 -4.092104267328977585e-03 -3.755198419094085693e-02 1.927403360605239868e-02 5.346984788775444031e-02 1.430899556726217270e-02 -1.221681460738182068e-01 2.726716734468936920e-02 -1.438971050083637238e-02 1.788636110723018646e-02 3.425514325499534607e-02 -9.419778361916542053e-03 -2.857941016554832458e-02 5.151090677827596664e-03 -1.064710319042205811e-02 -2.301833033561706543e-02 -2.840852364897727966e-02 -4.405497573316097260e-03 -6.309841293841600418e-03 6.678196601569652557e-03 4.236557334661483765e-02 2.286871336400508881e-02 5.180103238672018051e-03 -0.000000000000000000e+00 -0.000000000000000000e+00 -0.000000000000000000e+00 0.000000000000000000e+00 0.000000000000000000e+00 0.000000000000000000e+00 -0.000000000000000000e+00 -0.000000000000000000e+00 0.000000000000000000e+00 0.000000000000000000e+00 0.000000000000000000e+00 0.000000000000000000e+00 0.000000000000000000e+00 0.000000000000000000e+00 -0.000000000000000000e+00 -0.000000000000000000e+00 -0.000000000000000000e+00 -0.000000000000000000e+00 -0.000000000000000000e+00 -0.000000000000000000e+00 -0.000000000000000000e+00 -0.000000000000000000e+00 -0.000000000000000000e+00 -0.000000000000000000e+00 0.000000000000000000e+00 0.000000000000000000e+00 0.000000000000000000e+00 0.000000000000000000e+00 -0.000000000000000000e+00 -0.000000000000000000e+00 0.000000000000000000e+00 0.000000000000000000e+00 1.929250545799732208e-02 -5.655556172132492065e-02 -1.617844700813293457e-01 -7.424210757017135620e-02 2.933447249233722687e-02 -4.882844910025596619e-02 -3.174396753311157227e-01 -8.389636129140853882e-02 6.505930423736572266e-02 -5.530651658773422241e-02 -1.085495296865701675e-02 -4.133404418826103210e-02 1.416898611932992935e-02 -5.269407480955123901e-02 -5.859131738543510437e-02 -5.030328035354614258e-02 -1.927073672413825989e-02 -3.480887040495872498e-02 -3.993345052003860474e-02 -4.306228458881378174e-02 1.839023642241954803e-02 9.313293732702732086e-03 -8.384583517909049988e-03 -3.461449965834617615e-02 -2.677744254469871521e-02 1.331977691734209657e-04 -3.350040689110755920e-02 -3.265570849180221558e-02 -5.860278848558664322e-03 1.677167788147926331e-02 -5.786178261041641235e-02 -3.519335761666297913e-02 1.865669898688793182e-02 -1.458723749965429306e-02 -3.739531710743904114e-02 -7.830891013145446777e-02 -1.709594391286373138e-02 4.674703255295753479e-02 1.663883775472640991e-02 -4.527995735406875610e-02 -3.864188119769096375e-02 -1.606181822717189789e-02 -4.135777801275253296e-02 -1.096602082252502441e-01 1.115647051483392715e-02 -5.263217259198427200e-03 -9.138562716543674469e-03 -2.958925627171993256e-02 -3.378552198410034180e-02 7.714160531759262085e-02 4.764084517955780029e-02 7.652598898857831955e-03 6.908675283193588257e-02 -4.602520540356636047e-02 -3.937198594212532043e-02 -8.085313439369201660e-02 -2.620385028421878815e-02 -4.435339570045471191e-02 -7.374301552772521973e-03 -5.485772341489791870e-02 -2.143036015331745148e-02 -4.518900439143180847e-02 3.490324318408966064e-02 -2.523429132997989655e-02 1.761809177696704865e-02 -7.080854382365942001e-03 4.809622652828693390e-03 5.964552401565015316e-04 -1.320077851414680481e-02 -7.912900298833847046e-03 -6.486356258392333984e-02 -1.038212552666664124e-01 4.938106983900070190e-02 -3.372469544410705566e-02 -6.575021147727966309e-02 -9.985473006963729858e-02 -1.408089417964220047e-02 6.425230205059051514e-02 -1.108472421765327454e-02 2.182588353753089905e-02 6.306436378508806229e-03 1.488081552088260651e-02 5.446698516607284546e-02 3.087829612195491791e-02 -5.968483164906501770e-02 -3.041948366444557905e-04 8.014336973428726196e-02 3.458376601338386536e-02 -8.112921565771102905e-02 -1.834804937243461609e-02 7.884837687015533447e-02 7.632030546665191650e-02 -2.192370593547821045e-02 -3.293705359101295471e-02 -2.016904391348361969e-02 2.702553197741508484e-02 -0.000000000000000000e+00 -0.000000000000000000e+00 0.000000000000000000e+00 0.000000000000000000e+00 -0.000000000000000000e+00 -0.000000000000000000e+00 0.000000000000000000e+00 0.000000000000000000e+00 0.000000000000000000e+00 0.000000000000000000e+00 0.000000000000000000e+00 0.000000000000000000e+00 0.000000000000000000e+00 -0.000000000000000000e+00 -0.000000000000000000e+00 0.000000000000000000e+00 -3.724440932273864746e-02 -2.781565673649311066e-02 -8.392402529716491699e-02 -9.736157208681106567e-02 -2.778088115155696869e-02 -1.366792898625135422e-02 2.766599133610725403e-02 -7.491009682416915894e-02 1.200787071138620377e-02 8.766151033341884613e-03 6.851976364850997925e-02 -3.625424113124608994e-03 3.105859830975532532e-02 1.844100281596183777e-02 -1.348478533327579498e-02 -3.099814988672733307e-02 2.644386142492294312e-03 -7.168982923030853271e-02 -7.187895476818084717e-02 -6.817897409200668335e-02 2.805498056113719940e-02 -4.473420558497309685e-04 2.750834077596664429e-02 1.194704696536064148e-02 -4.740189760923385620e-03 6.230684742331504822e-02 2.200684137642383575e-02 -1.797300949692726135e-02 3.219726309180259705e-02 9.471546858549118042e-03 -2.376572415232658386e-02 6.407349836081266403e-03 0.000000000000000000e+00 -0.000000000000000000e+00 0.000000000000000000e+00 -0.000000000000000000e+00 -0.000000000000000000e+00 0.000000000000000000e+00 0.000000000000000000e+00 -0.000000000000000000e+00 0.000000000000000000e+00 -0.000000000000000000e+00 -0.000000000000000000e+00 0.000000000000000000e+00 -0.000000000000000000e+00 0.000000000000000000e+00 -0.000000000000000000e+00 0.000000000000000000e+00 -4.162559285759925842e-02 -2.764057181775569916e-02 -1.342191640287637711e-02 6.621534004807472229e-03 1.125421971082687378e-01 -1.489429455250501633e-02 -2.221755916252732277e-03 2.074769511818885803e-02 6.835749000310897827e-02 -1.217342354357242584e-02 -3.050043713301420212e-03 -7.271382212638854980e-02 -5.354099348187446594e-02 5.896038189530372620e-02 -9.226889908313751221e-02 7.984257303178310394e-03 -0.000000000000000000e+00 -0.000000000000000000e+00 -0.000000000000000000e+00 -0.000000000000000000e+00 -0.000000000000000000e+00 -0.000000000000000000e+00 -0.000000000000000000e+00 -0.000000000000000000e+00 0.000000000000000000e+00 0.000000000000000000e+00 -0.000000000000000000e+00 -0.000000000000000000e+00 0.000000000000000000e+00 -0.000000000000000000e+00 -0.000000000000000000e+00 -0.000000000000000000e+00 -0.000000000000000000e+00 -0.000000000000000000e+00 -0.000000000000000000e+00 -0.000000000000000000e+00 -0.000000000000000000e+00 -0.000000000000000000e+00 -0.000000000000000000e+00 -0.000000000000000000e+00 -0.000000000000000000e+00 -0.000000000000000000e+00 -0.000000000000000000e+00 -0.000000000000000000e+00 -0.000000000000000000e+00 -0.000000000000000000e+00 -0.000000000000000000e+00 -0.000000000000000000e+00 -3.615954518318176270e-02 -6.249420344829559326e-02 -5.214386060833930969e-02 -5.508604645729064941e-02 -2.678415551781654358e-02 -5.001764371991157532e-02 -6.694583594799041748e-02 3.612456202972680330e-04 -4.113752767443656921e-02 -7.752640545368194580e-02 -3.531470149755477905e-02 9.536015801131725311e-03 5.884182639420032501e-03 -3.157502785325050354e-02 -1.137783750891685486e-02 -6.949627771973609924e-03 4.092311952263116837e-03 -1.342683006078004837e-02 1.253268774598836899e-02 3.878117352724075317e-02 2.033044956624507904e-02 8.839509682729840279e-04 6.653695832937955856e-03 2.109464257955551147e-02 4.380217194557189941e-02 4.080946370959281921e-02 1.455692015588283539e-02 -8.863273542374372482e-04 8.848609402775764465e-03 -1.689505018293857574e-02 -2.625748328864574432e-02 -2.455942705273628235e-02 1.577228121459484100e-02 2.307564951479434967e-02 -7.241653278470039368e-03 2.372237620875239372e-03 3.031815215945243835e-02 1.644599065184593201e-02 4.613559693098068237e-02 2.883176878094673157e-02 8.826434612274169922e-02 2.273425227031111717e-03 -4.316613543778657913e-03 9.368006722070276737e-04 1.816988177597522736e-02 -2.241243142634630203e-03 -3.126114839687943459e-03 5.342742428183555603e-03 -5.619299784302711487e-02 2.578239887952804565e-02 -6.065114587545394897e-02 -1.252314299345016479e-01 -6.213905662298202515e-02 1.213963050395250320e-02 -5.796317383646965027e-02 6.185141205787658691e-02 -2.837019041180610657e-02 -2.291153557598590851e-02 5.763175431638956070e-03 3.904001787304878235e-02 -6.253273785114288330e-02 -1.164217367768287659e-01 4.258569329977035522e-02 -1.921574212610721588e-02 -0.000000000000000000e+00 -0.000000000000000000e+00 -0.000000000000000000e+00 7.527369074523448944e-03 -1.706689037382602692e-02 -0.000000000000000000e+00 -0.000000000000000000e+00 -0.000000000000000000e+00 -0.000000000000000000e+00 -0.000000000000000000e+00 -0.000000000000000000e+00 0.000000000000000000e+00 -1.242264267057180405e-02 -0.000000000000000000e+00 -0.000000000000000000e+00 -1.589227654039859772e-02 -7.416980713605880737e-02 -5.441125482320785522e-02 1.715225726366043091e-02 4.245783761143684387e-02 -9.685629606246948242e-02 1.875790767371654510e-02 1.234118267893791199e-02 7.143171131610870361e-02 -8.767381310462951660e-02 3.052819706499576569e-02 2.100658416748046875e-02 -3.240133449435234070e-02 7.205487042665481567e-02 2.567863836884498596e-02 -6.624872330576181412e-03 -3.632413968443870544e-02 -0.000000000000000000e+00 0.000000000000000000e+00 -0.000000000000000000e+00 -0.000000000000000000e+00 -0.000000000000000000e+00 -0.000000000000000000e+00 -0.000000000000000000e+00 -0.000000000000000000e+00 0.000000000000000000e+00 -0.000000000000000000e+00 -0.000000000000000000e+00 -0.000000000000000000e+00 0.000000000000000000e+00 -0.000000000000000000e+00 0.000000000000000000e+00 0.000000000000000000e+00 -1.931460574269294739e-02 -1.841155588626861572e-01 -7.963227480649948120e-02 -2.010524086654186249e-02 -1.199083402752876282e-01 -2.060782135231420398e-04 -4.003046452999114990e-02 4.323966056108474731e-02 -1.853724755346775055e-02 -6.344255059957504272e-02 -5.511780036613345146e-04 5.767090478911995888e-04 4.557360708713531494e-02 5.222879815846681595e-03 -3.458254784345626831e-02 -2.827777899801731110e-02 0.000000000000000000e+00 -0.000000000000000000e+00 -0.000000000000000000e+00 0.000000000000000000e+00 0.000000000000000000e+00 0.000000000000000000e+00 0.000000000000000000e+00 0.000000000000000000e+00 0.000000000000000000e+00 -0.000000000000000000e+00 0.000000000000000000e+00 0.000000000000000000e+00 0.000000000000000000e+00 0.000000000000000000e+00 -0.000000000000000000e+00 0.000000000000000000e+00 0.000000000000000000e+00 0.000000000000000000e+00 0.000000000000000000e+00 -0.000000000000000000e+00 0.000000000000000000e+00 0.000000000000000000e+00 0.000000000000000000e+00 -0.000000000000000000e+00 0.000000000000000000e+00 0.000000000000000000e+00 0.000000000000000000e+00 0.000000000000000000e+00 0.000000000000000000e+00 0.000000000000000000e+00 0.000000000000000000e+00 0.000000000000000000e+00 0.000000000000000000e+00 -0.000000000000000000e+00 -0.000000000000000000e+00 0.000000000000000000e+00 -0.000000000000000000e+00 0.000000000000000000e+00 -0.000000000000000000e+00 0.000000000000000000e+00 -0.000000000000000000e+00 -0.000000000000000000e+00 -0.000000000000000000e+00 -0.000000000000000000e+00 0.000000000000000000e+00 0.000000000000000000e+00 -0.000000000000000000e+00 -0.000000000000000000e+00 -7.311508059501647949e-03 -4.296862334012985229e-02 -2.658750116825103760e-02 -6.029821932315826416e-03 9.281272999942302704e-03 -4.429834336042404175e-02 -1.990071833133697510e-01 3.365359455347061157e-02 1.435043755918741226e-02 -4.565410781651735306e-03 -1.103371940553188324e-02 -1.886197482235729694e-03 -3.956045955419540405e-03 7.550608366727828979e-02 4.926622658967971802e-02 5.565583333373069763e-02 0.000000000000000000e+00 -0.000000000000000000e+00 -0.000000000000000000e+00 -5.163548979908227921e-03 -0.000000000000000000e+00 -0.000000000000000000e+00 0.000000000000000000e+00 -1.576224714517593384e-02 -0.000000000000000000e+00 0.000000000000000000e+00 -0.000000000000000000e+00 -1.380108948796987534e-02 -1.536667067557573318e-02 -0.000000000000000000e+00 -0.000000000000000000e+00 -1.472859084606170654e-02 -1.150122960098087788e-03 4.351733718067407608e-03 -1.710067735984921455e-03 1.677116146311163902e-03 1.760967192240059376e-03 7.253028452396392822e-02 2.790076099336147308e-02 -3.913915529847145081e-02 2.930390834808349609e-02 6.514273118227720261e-03 -7.352184504270553589e-02 -6.671483814716339111e-02 2.514745108783245087e-02 1.863509789109230042e-02 6.073095370084047318e-03 -4.771974869072437286e-03 -3.611832484602928162e-02 -1.271194666624069214e-01 -2.573869824409484863e-01 -1.230101287364959717e-01 7.775539904832839966e-02 -8.582081645727157593e-02 4.987408965826034546e-02 -9.154383838176727295e-02 -8.898774534463882446e-02 4.773960262537002563e-02 2.288130484521389008e-02 4.199025779962539673e-02 6.100577488541603088e-02 -1.578809320926666260e-02 -1.332809180021286011e-01 -1.779996454715728760e-01 1.401243731379508972e-02 8.819223381578922272e-03 -2.935926429927349091e-02 -7.304568774998188019e-03 2.420013956725597382e-02 3.290242329239845276e-02 4.989331588149070740e-02 -1.823331229388713837e-02 8.844473958015441895e-02 3.669913485646247864e-02 -2.057022228837013245e-02 -4.403856024146080017e-02 -2.298364788293838501e-02 -4.083214327692985535e-02 1.616501621901988983e-02 -2.764816582202911377e-02 0.000000000000000000e+00 -0.000000000000000000e+00 -0.000000000000000000e+00 -0.000000000000000000e+00 -0.000000000000000000e+00 0.000000000000000000e+00 -0.000000000000000000e+00 -0.000000000000000000e+00 -0.000000000000000000e+00 -0.000000000000000000e+00 -0.000000000000000000e+00 -0.000000000000000000e+00 0.000000000000000000e+00 -0.000000000000000000e+00 -0.000000000000000000e+00 -0.000000000000000000e+00 -1.428846120834350586e-01 -4.447132721543312073e-02 -2.389590628445148468e-02 2.077870303764939308e-03 -8.502278476953506470e-02 5.759170744568109512e-03 4.647822678089141846e-02 7.562664151191711426e-02 -9.596577286720275879e-02 -4.267902299761772156e-02 2.924608439207077026e-02 -1.854791864752769470e-02 -4.727182164788246155e-02 -7.886231690645217896e-02 -3.115659207105636597e-02 -5.410999059677124023e-02 -2.544651329517364502e-01 -2.897413633763790131e-02 3.163563786074519157e-03 6.927257403731346130e-03 7.841552048921585083e-02 -4.776261001825332642e-02 -4.819226264953613281e-02 2.736523933708667755e-02 7.813521474599838257e-02 5.000542849302291870e-02 -4.082899913191795349e-02 1.132533978670835495e-02 -5.919631198048591614e-02 -1.190453581511974335e-02 -5.150059703737497330e-03 2.276457101106643677e-02 0.000000000000000000e+00 0.000000000000000000e+00 0.000000000000000000e+00 0.000000000000000000e+00 0.000000000000000000e+00 0.000000000000000000e+00 0.000000000000000000e+00 0.000000000000000000e+00 0.000000000000000000e+00 0.000000000000000000e+00 0.000000000000000000e+00 -0.000000000000000000e+00 -0.000000000000000000e+00 0.000000000000000000e+00 0.000000000000000000e+00 -0.000000000000000000e+00 -0.000000000000000000e+00 -0.000000000000000000e+00 0.000000000000000000e+00 1.477060168981552124e-01 0.000000000000000000e+00 0.000000000000000000e+00 -0.000000000000000000e+00 -0.000000000000000000e+00 0.000000000000000000e+00 0.000000000000000000e+00 0.000000000000000000e+00 0.000000000000000000e+00 0.000000000000000000e+00 -0.000000000000000000e+00 0.000000000000000000e+00 0.000000000000000000e+00 -4.470470920205116272e-02 -5.935671553015708923e-02 -4.675600677728652954e-03 2.145890146493911743e-01 -5.069134756922721863e-02 -6.172890216112136841e-02 -8.265548199415206909e-02 1.742467842996120453e-02 -2.792317792773246765e-02 -1.070312857627868652e-01 1.641923561692237854e-03 -6.173687800765037537e-02 6.419294979423284531e-03 6.047550123184919357e-03 2.848379872739315033e-02 4.598226398229598999e-02 -0.000000000000000000e+00 -0.000000000000000000e+00 -0.000000000000000000e+00 -0.000000000000000000e+00 -0.000000000000000000e+00 -0.000000000000000000e+00 -0.000000000000000000e+00 -0.000000000000000000e+00 0.000000000000000000e+00 -0.000000000000000000e+00 -0.000000000000000000e+00 -0.000000000000000000e+00 -0.000000000000000000e+00 0.000000000000000000e+00 0.000000000000000000e+00 0.000000000000000000e+00 -0.000000000000000000e+00 -0.000000000000000000e+00 -0.000000000000000000e+00 -0.000000000000000000e+00 -0.000000000000000000e+00 -0.000000000000000000e+00 -0.000000000000000000e+00 -0.000000000000000000e+00 -0.000000000000000000e+00 -0.000000000000000000e+00 -0.000000000000000000e+00 -0.000000000000000000e+00 -0.000000000000000000e+00 -0.000000000000000000e+00 -0.000000000000000000e+00 -0.000000000000000000e+00 -0.000000000000000000e+00 -0.000000000000000000e+00 -0.000000000000000000e+00 -0.000000000000000000e+00 -0.000000000000000000e+00 -0.000000000000000000e+00 -0.000000000000000000e+00 -0.000000000000000000e+00 0.000000000000000000e+00 0.000000000000000000e+00 0.000000000000000000e+00 0.000000000000000000e+00 0.000000000000000000e+00 0.000000000000000000e+00 -0.000000000000000000e+00 -0.000000000000000000e+00 -0.000000000000000000e+00 -0.000000000000000000e+00 -0.000000000000000000e+00 -0.000000000000000000e+00 -0.000000000000000000e+00 -0.000000000000000000e+00 -0.000000000000000000e+00 -0.000000000000000000e+00 0.000000000000000000e+00 -0.000000000000000000e+00 -0.000000000000000000e+00 -0.000000000000000000e+00 -0.000000000000000000e+00 0.000000000000000000e+00 -0.000000000000000000e+00 -0.000000000000000000e+00 0.000000000000000000e+00 0.000000000000000000e+00 0.000000000000000000e+00 0.000000000000000000e+00 0.000000000000000000e+00 -0.000000000000000000e+00 -0.000000000000000000e+00 -0.000000000000000000e+00 0.000000000000000000e+00 -0.000000000000000000e+00 -0.000000000000000000e+00 -0.000000000000000000e+00 -0.000000000000000000e+00 -0.000000000000000000e+00 0.000000000000000000e+00 -0.000000000000000000e+00 -0.000000000000000000e+00 0.000000000000000000e+00 -0.000000000000000000e+00 -0.000000000000000000e+00 0.000000000000000000e+00 -0.000000000000000000e+00 0.000000000000000000e+00 0.000000000000000000e+00 0.000000000000000000e+00 0.000000000000000000e+00 0.000000000000000000e+00 0.000000000000000000e+00 0.000000000000000000e+00 0.000000000000000000e+00 0.000000000000000000e+00 0.000000000000000000e+00 -0.000000000000000000e+00 -0.000000000000000000e+00 -0.000000000000000000e+00 -0.000000000000000000e+00 -0.000000000000000000e+00 -0.000000000000000000e+00 -0.000000000000000000e+00 -0.000000000000000000e+00 -0.000000000000000000e+00 -0.000000000000000000e+00 -0.000000000000000000e+00 -0.000000000000000000e+00 0.000000000000000000e+00 0.000000000000000000e+00 -0.000000000000000000e+00 -0.000000000000000000e+00 -0.000000000000000000e+00 -0.000000000000000000e+00 -0.000000000000000000e+00 -0.000000000000000000e+00 0.000000000000000000e+00 -0.000000000000000000e+00 -0.000000000000000000e+00 -0.000000000000000000e+00 -0.000000000000000000e+00 -0.000000000000000000e+00 0.000000000000000000e+00 -0.000000000000000000e+00 0.000000000000000000e+00 -0.000000000000000000e+00 0.000000000000000000e+00 -0.000000000000000000e+00 4.081507772207260132e-02 -1.093190908432006836e-02 -3.830175474286079407e-02 1.612147875130176544e-02 1.812477409839630127e-02 5.368393287062644958e-02 -1.683182828128337860e-02 3.852298855781555176e-02 6.021586805582046509e-02 7.697250694036483765e-02 4.028763249516487122e-02 1.300116628408432007e-02 -1.129024289548397064e-02 -1.701077260076999664e-02 -4.650798439979553223e-02 -4.640713334083557129e-02 0.000000000000000000e+00 -0.000000000000000000e+00 -0.000000000000000000e+00 0.000000000000000000e+00 0.000000000000000000e+00 0.000000000000000000e+00 -0.000000000000000000e+00 -0.000000000000000000e+00 0.000000000000000000e+00 0.000000000000000000e+00 0.000000000000000000e+00 -0.000000000000000000e+00 0.000000000000000000e+00 -0.000000000000000000e+00 0.000000000000000000e+00 0.000000000000000000e+00 -6.429017055779695511e-03 -2.868852345272898674e-03 -3.262080624699592590e-02 -2.726172842085361481e-02 2.889312617480754852e-02 -6.214274559170007706e-03 -6.429811567068099976e-02 -3.178279101848602295e-02 -1.816298626363277435e-02 -3.721976652741432190e-02 -6.508032232522964478e-02 -2.978520654141902924e-02 -5.459883809089660645e-02 -9.753248840570449829e-02 -3.988242521882057190e-02 -4.851562529802322388e-02 1.889318786561489105e-02 -2.490182640030980110e-03 1.554539054632186890e-02 -1.987516134977340698e-02 -5.385449901223182678e-02 6.889564543962478638e-02 -2.088980562984943390e-02 -3.050547093152999878e-02 2.647648751735687256e-02 5.491787940263748169e-02 4.183509852737188339e-03 -3.019135259091854095e-02 3.941374272108078003e-02 3.489488735795021057e-02 -5.331103503704071045e-02 -1.990621536970138550e-02 8.552109822630882263e-03 -1.253910455852746964e-02 3.312053903937339783e-02 -8.449421264231204987e-03 -1.935905218124389648e-02 3.639102354645729065e-02 5.848151631653308868e-03 7.877300493419170380e-03 -5.654612183570861816e-02 1.473708171397447586e-02 -4.870735108852386475e-02 -1.527861878275871277e-02 6.916207820177078247e-02 4.420182108879089355e-02 2.889941632747650146e-02 1.718428544700145721e-02 1.272294763475656509e-02 -6.372979283332824707e-02 -4.218321293592453003e-02 -3.177587315440177917e-02 3.327492624521255493e-02 2.376683987677097321e-02 1.211263518780469894e-02 3.139564767479896545e-02 4.801422357559204102e-02 5.412313342094421387e-02 6.832917779684066772e-02 6.602778285741806030e-02 1.970872469246387482e-02 -6.436723284423351288e-03 4.388457164168357849e-02 -1.101041398942470551e-02 -9.875821322202682495e-02 -8.458483219146728516e-02 -1.090852469205856323e-01 -6.943728029727935791e-02 -1.674390435218811035e-01 -1.483714394271373749e-02 -3.882948309183120728e-02 -3.339379280805587769e-02 -1.627166382968425751e-02 -1.798628270626068115e-02 -8.946390822529792786e-03 -1.258469279855489731e-02 -3.877745196223258972e-02 -3.086167015135288239e-02 -2.368135005235671997e-02 -3.354196995496749878e-02 6.406934116967022419e-04 2.208958379924297333e-03 2.226090990006923676e-03 8.009084849618375301e-04 1.282091950997710228e-03 8.487838204018771648e-04 8.487838204018771648e-04 1.270201872102916241e-03 1.057145069353282452e-03 8.487838204018771648e-04 8.475810172967612743e-04 8.069308241829276085e-04 2.234189450973644853e-04 1.145121525041759014e-03 1.097014173865318298e-03 4.951471346430480480e-04 -0.000000000000000000e+00 -0.000000000000000000e+00 0.000000000000000000e+00 -0.000000000000000000e+00 0.000000000000000000e+00 -0.000000000000000000e+00 -0.000000000000000000e+00 0.000000000000000000e+00 0.000000000000000000e+00 -0.000000000000000000e+00 -0.000000000000000000e+00 -0.000000000000000000e+00 0.000000000000000000e+00 -0.000000000000000000e+00 0.000000000000000000e+00 0.000000000000000000e+00 -1.130490330979228020e-03 -4.598447680473327637e-02 2.803291566669940948e-02 -4.739331081509590149e-02 5.676240473985671997e-02 -2.006412716582417488e-03 -2.831371128559112549e-02 2.283007279038429260e-02 1.089004576206207275e-01 5.956756416708230972e-03 4.460872337222099304e-02 2.849875204265117645e-02 -6.196215748786926270e-03 -1.689585298299789429e-02 -3.711509751155972481e-03 7.154275476932525635e-02 -7.742983289062976837e-03 1.737527363002300262e-02 2.910398412495851517e-03 -1.510685961693525314e-02 1.942681521177291870e-02 1.739685982465744019e-02 1.607252471148967743e-02 1.727256178855895996e-02 -1.997081190347671509e-02 -8.102101273834705353e-03 0.000000000000000000e+00 0.000000000000000000e+00 -1.739305257797241211e-02 0.000000000000000000e+00 -1.739930734038352966e-02 0.000000000000000000e+00 -2.719545178115367889e-02 -2.048399858176708221e-02 -4.783815890550613403e-02 -7.021579146385192871e-02 -9.683302603662014008e-03 2.093182411044836044e-03 -2.905071526765823364e-02 -7.363642100244760513e-03 4.460190609097480774e-02 2.243253588676452637e-02 -4.622748866677284241e-02 -2.554314443841576576e-03 5.247062072157859802e-03 -8.327025920152664185e-03 4.009385593235492706e-03 2.433085441589355469e-02 -0.000000000000000000e+00 -0.000000000000000000e+00 -0.000000000000000000e+00 -0.000000000000000000e+00 -0.000000000000000000e+00 -0.000000000000000000e+00 -0.000000000000000000e+00 -0.000000000000000000e+00 -0.000000000000000000e+00 -0.000000000000000000e+00 -0.000000000000000000e+00 -0.000000000000000000e+00 -0.000000000000000000e+00 -0.000000000000000000e+00 -0.000000000000000000e+00 -0.000000000000000000e+00 0.000000000000000000e+00 -0.000000000000000000e+00 -0.000000000000000000e+00 -0.000000000000000000e+00 0.000000000000000000e+00 -0.000000000000000000e+00 -0.000000000000000000e+00 0.000000000000000000e+00 0.000000000000000000e+00 0.000000000000000000e+00 -0.000000000000000000e+00 0.000000000000000000e+00 -0.000000000000000000e+00 -0.000000000000000000e+00 -0.000000000000000000e+00 -0.000000000000000000e+00 0.000000000000000000e+00 -0.000000000000000000e+00 -0.000000000000000000e+00 0.000000000000000000e+00 0.000000000000000000e+00 -0.000000000000000000e+00 -0.000000000000000000e+00 0.000000000000000000e+00 -0.000000000000000000e+00 0.000000000000000000e+00 -0.000000000000000000e+00 -0.000000000000000000e+00 -0.000000000000000000e+00 0.000000000000000000e+00 0.000000000000000000e+00 -0.000000000000000000e+00 -1.631455682218074799e-02 -5.226654186844825745e-02 2.305505424737930298e-02 -3.771456331014633179e-02 -4.543969035148620605e-02 -1.819175854325294495e-02 -2.515613436698913574e-01 -1.728452444076538086e-01 -5.232883989810943604e-02 -4.565824568271636963e-02 -4.201383888721466064e-02 -3.162522315979003906e-01 -6.350754201412200928e-02 4.259908571839332581e-02 5.824399366974830627e-02 -3.859268501400947571e-02 -0.000000000000000000e+00 -0.000000000000000000e+00 0.000000000000000000e+00 0.000000000000000000e+00 0.000000000000000000e+00 0.000000000000000000e+00 -0.000000000000000000e+00 0.000000000000000000e+00 0.000000000000000000e+00 -0.000000000000000000e+00 -0.000000000000000000e+00 -0.000000000000000000e+00 0.000000000000000000e+00 -0.000000000000000000e+00 -0.000000000000000000e+00 0.000000000000000000e+00 0.000000000000000000e+00 0.000000000000000000e+00 -0.000000000000000000e+00 0.000000000000000000e+00 -0.000000000000000000e+00 -0.000000000000000000e+00 0.000000000000000000e+00 -0.000000000000000000e+00 0.000000000000000000e+00 -0.000000000000000000e+00 0.000000000000000000e+00 0.000000000000000000e+00 0.000000000000000000e+00 -0.000000000000000000e+00 -0.000000000000000000e+00 -0.000000000000000000e+00 -0.000000000000000000e+00 -0.000000000000000000e+00 0.000000000000000000e+00 -0.000000000000000000e+00 0.000000000000000000e+00 0.000000000000000000e+00 -0.000000000000000000e+00 -0.000000000000000000e+00 0.000000000000000000e+00 0.000000000000000000e+00 -0.000000000000000000e+00 0.000000000000000000e+00 0.000000000000000000e+00 0.000000000000000000e+00 0.000000000000000000e+00 -0.000000000000000000e+00 -1.585418134927749634e-01 -1.007468253374099731e-01 -3.555560111999511719e-02 -1.221961155533790588e-01 -4.686655849218368530e-02 -5.802731215953826904e-02 3.594921529293060303e-02 -5.211794748902320862e-02 1.095965877175331116e-02 -6.372386962175369263e-02 9.839680790901184082e-02 1.174102909862995148e-02 -2.252122201025485992e-02 -3.260553255677223206e-02 8.029407262802124023e-02 4.814464598894119263e-02 0.000000000000000000e+00 -0.000000000000000000e+00 -0.000000000000000000e+00 -0.000000000000000000e+00 -0.000000000000000000e+00 0.000000000000000000e+00 -0.000000000000000000e+00 -0.000000000000000000e+00 0.000000000000000000e+00 0.000000000000000000e+00 -0.000000000000000000e+00 -0.000000000000000000e+00 -0.000000000000000000e+00 -0.000000000000000000e+00 -0.000000000000000000e+00 -0.000000000000000000e+00 -0.000000000000000000e+00 0.000000000000000000e+00 0.000000000000000000e+00 0.000000000000000000e+00 0.000000000000000000e+00 -0.000000000000000000e+00 -0.000000000000000000e+00 -0.000000000000000000e+00 -0.000000000000000000e+00 -0.000000000000000000e+00 0.000000000000000000e+00 -0.000000000000000000e+00 -0.000000000000000000e+00 -0.000000000000000000e+00 -0.000000000000000000e+00 0.000000000000000000e+00 1.634865626692771912e-02 2.833788655698299408e-02 3.735814988613128662e-02 -7.124582305550575256e-03 4.250589385628700256e-02 3.010266274213790894e-02 1.145861297845840454e-02 -2.784029208123683929e-02 5.964493751525878906e-02 -2.731334045529365540e-02 -2.379074841737747192e-01 3.462935239076614380e-02 -1.201359461992979050e-02 1.662142574787139893e-02 -1.548906601965427399e-02 -2.220144867897033691e-02 -0.000000000000000000e+00 -0.000000000000000000e+00 -0.000000000000000000e+00 -0.000000000000000000e+00 -0.000000000000000000e+00 -0.000000000000000000e+00 -0.000000000000000000e+00 0.000000000000000000e+00 0.000000000000000000e+00 -0.000000000000000000e+00 -0.000000000000000000e+00 0.000000000000000000e+00 0.000000000000000000e+00 -0.000000000000000000e+00 0.000000000000000000e+00 0.000000000000000000e+00 6.286988407373428345e-02 8.729750290513038635e-03 -2.313642390072345734e-02 1.685597002506256104e-02 2.392682619392871857e-02 -3.114291466772556305e-02 2.314006350934505463e-02 6.953735649585723877e-02 -1.515707839280366898e-02 -1.197755336761474609e-01 -1.354519627057015896e-04 1.494066510349512100e-02 -3.260990232229232788e-02 -1.131290122866630554e-01 -2.598861157894134521e-01 -3.488418459892272949e-02 -1.861299574375152588e-01 1.920672832056879997e-03 -1.674437336623668671e-02 -1.128271594643592834e-02 -5.389349535107612610e-02 -4.493230022490024567e-03 1.973058097064495087e-02 -5.165847833268344402e-04 -7.245109230279922485e-02 3.158724308013916016e-02 -2.279208414256572723e-02 -4.208679124712944031e-02 -1.303507480770349503e-02 -4.388690739870071411e-02 -4.976597055792808533e-02 -3.678467869758605957e-02 2.140101231634616852e-02 1.456710603088140488e-02 1.512527465820312500e-02 2.568586170673370361e-02 8.358160965144634247e-03 4.532854259014129639e-02 3.584090620279312134e-02 3.465249389410018921e-02 6.186289247125387192e-03 3.131665661931037903e-02 2.408774010837078094e-02 2.217840030789375305e-02 2.236747927963733673e-02 7.857244461774826050e-03 1.800715737044811249e-02 2.363977767527103424e-02 1.536428835242986679e-02 -2.598302438855171204e-03 1.425223425030708313e-02 4.209679365158081055e-02 1.575881429016590118e-02 4.302211850881576538e-02 5.286232754588127136e-02 4.586809882312081754e-05 -1.161481440067291260e-02 -2.312898635864257812e-02 4.489439353346824646e-02 3.906634822487831116e-02 6.113151460886001587e-02 4.048873856663703918e-02 5.362908169627189636e-02 8.253919333219528198e-02 0.000000000000000000e+00 -0.000000000000000000e+00 0.000000000000000000e+00 -0.000000000000000000e+00 -0.000000000000000000e+00 0.000000000000000000e+00 0.000000000000000000e+00 -0.000000000000000000e+00 0.000000000000000000e+00 0.000000000000000000e+00 -0.000000000000000000e+00 -0.000000000000000000e+00 0.000000000000000000e+00 0.000000000000000000e+00 0.000000000000000000e+00 0.000000000000000000e+00 2.710020868107676506e-03 -7.375601213425397873e-03 -1.552161388099193573e-02 -1.867103017866611481e-02 6.628328468650579453e-03 4.309561569243669510e-03 4.317070171236991882e-02 -5.467403680086135864e-03 2.157221548259258270e-03 4.834526684135198593e-03 -5.194238387048244476e-03 -1.249936595559120178e-02 3.511687740683555603e-02 -1.549170259386301041e-02 -2.903573587536811829e-02 -4.583837464451789856e-02 -9.044482372701168060e-03 1.019421406090259552e-02 1.104673277586698532e-02 -2.709239907562732697e-02 -1.022516656666994095e-02 2.126095630228519440e-02 2.285129763185977936e-02 -3.952518571168184280e-03 -3.833286464214324951e-02 -6.443526595830917358e-02 -8.414907380938529968e-03 -3.001087531447410583e-02 4.625236988067626953e-02 5.755776911973953247e-02 1.874527893960475922e-02 -2.671703137457370758e-02 -1.404386293143033981e-02 -7.957368344068527222e-02 -4.433945566415786743e-02 3.215420618653297424e-02 -5.955775827169418335e-02 3.681956231594085693e-02 3.850704059004783630e-02 4.067120701074600220e-02 -3.204030217602849007e-03 7.461012899875640869e-02 9.640075266361236572e-02 3.419085219502449036e-02 6.852053105831146240e-02 4.358272254467010498e-02 8.502906560897827148e-02 6.746435165405273438e-02 -0.000000000000000000e+00 0.000000000000000000e+00 0.000000000000000000e+00 -0.000000000000000000e+00 0.000000000000000000e+00 0.000000000000000000e+00 -0.000000000000000000e+00 0.000000000000000000e+00 0.000000000000000000e+00 -0.000000000000000000e+00 0.000000000000000000e+00 -0.000000000000000000e+00 0.000000000000000000e+00 0.000000000000000000e+00 -0.000000000000000000e+00 -0.000000000000000000e+00 -0.000000000000000000e+00 -0.000000000000000000e+00 -0.000000000000000000e+00 -0.000000000000000000e+00 -0.000000000000000000e+00 -0.000000000000000000e+00 -0.000000000000000000e+00 -0.000000000000000000e+00 -0.000000000000000000e+00 -0.000000000000000000e+00 -0.000000000000000000e+00 -0.000000000000000000e+00 -0.000000000000000000e+00 -0.000000000000000000e+00 -0.000000000000000000e+00 -0.000000000000000000e+00 -0.000000000000000000e+00 -0.000000000000000000e+00 0.000000000000000000e+00 0.000000000000000000e+00 -0.000000000000000000e+00 -0.000000000000000000e+00 0.000000000000000000e+00 0.000000000000000000e+00 -0.000000000000000000e+00 -0.000000000000000000e+00 0.000000000000000000e+00 -0.000000000000000000e+00 0.000000000000000000e+00 0.000000000000000000e+00 0.000000000000000000e+00 -0.000000000000000000e+00 -0.000000000000000000e+00 -0.000000000000000000e+00 0.000000000000000000e+00 0.000000000000000000e+00 -0.000000000000000000e+00 -0.000000000000000000e+00 0.000000000000000000e+00 -0.000000000000000000e+00 0.000000000000000000e+00 0.000000000000000000e+00 0.000000000000000000e+00 0.000000000000000000e+00 -0.000000000000000000e+00 0.000000000000000000e+00 0.000000000000000000e+00 -0.000000000000000000e+00 0.000000000000000000e+00 -0.000000000000000000e+00 -0.000000000000000000e+00 0.000000000000000000e+00 -0.000000000000000000e+00 0.000000000000000000e+00 -0.000000000000000000e+00 0.000000000000000000e+00 -0.000000000000000000e+00 0.000000000000000000e+00 0.000000000000000000e+00 -0.000000000000000000e+00 0.000000000000000000e+00 0.000000000000000000e+00 0.000000000000000000e+00 0.000000000000000000e+00 3.604042902588844299e-02 3.253336250782012939e-02 -2.593868225812911987e-02 -7.624565064907073975e-02 5.677319690585136414e-02 -1.204116418957710266e-01 -8.491281419992446899e-02 3.010028041899204254e-02 7.554189860820770264e-02 -6.786779314279556274e-02 3.564412146806716919e-02 -1.209732294082641602e-01 -1.133951619267463684e-01 -6.740904599428176880e-02 -6.766872853040695190e-02 -4.798061773180961609e-02 -2.607396803796291351e-02 -7.154729217290878296e-02 1.173066813498735428e-02 -2.533053047955036163e-02 -1.779916137456893921e-01 7.486291974782943726e-02 -4.974592849612236023e-02 1.248419377952814102e-02 -2.247305214405059814e-01 5.110584199428558350e-02 -7.401115447282791138e-02 -4.120231047272682190e-02 -1.257149036973714828e-03 2.897032164037227631e-02 5.694493278861045837e-02 6.481598597019910812e-03 0.000000000000000000e+00 0.000000000000000000e+00 0.000000000000000000e+00 0.000000000000000000e+00 0.000000000000000000e+00 0.000000000000000000e+00 0.000000000000000000e+00 -0.000000000000000000e+00 0.000000000000000000e+00 0.000000000000000000e+00 -0.000000000000000000e+00 0.000000000000000000e+00 0.000000000000000000e+00 0.000000000000000000e+00 0.000000000000000000e+00 0.000000000000000000e+00 2.315548248589038849e-02 -1.417676638811826706e-02 3.640600247308611870e-03 2.829955890774726868e-02 5.882971361279487610e-02 2.391311898827552795e-02 4.461646825075149536e-02 4.132429510354995728e-02 3.148342669010162354e-02 -1.100358925759792328e-02 -4.647163301706314087e-02 3.601309657096862793e-02 2.049419842660427094e-02 -5.214396491646766663e-02 -7.837234437465667725e-02 -3.165375068783760071e-02 -9.096621721982955933e-02 -5.638684332370758057e-02 1.308252196758985519e-02 -9.144691750407218933e-03 -1.595493778586387634e-02 -9.457800537347793579e-03 -7.633544504642486572e-02 4.858222231268882751e-02 2.930597029626369476e-02 -8.115084841847419739e-03 -6.038010492920875549e-02 7.404322735965251923e-03 -1.071494538336992264e-02 2.315809717401862144e-03 -1.826330088078975677e-02 -8.581021800637245178e-03 0.000000000000000000e+00 -0.000000000000000000e+00 -0.000000000000000000e+00 -0.000000000000000000e+00 -0.000000000000000000e+00 -0.000000000000000000e+00 -0.000000000000000000e+00 -0.000000000000000000e+00 -0.000000000000000000e+00 0.000000000000000000e+00 0.000000000000000000e+00 0.000000000000000000e+00 0.000000000000000000e+00 -0.000000000000000000e+00 -0.000000000000000000e+00 -0.000000000000000000e+00 -1.583145931363105774e-02 -7.737193722277879715e-03 -1.179856900125741959e-02 -7.213678676635026932e-03 -1.014528330415487289e-02 2.286878786981105804e-02 -7.163274567574262619e-03 4.042925685644149780e-02 1.214939448982477188e-02 2.819196879863739014e-02 4.261986911296844482e-02 4.660582914948463440e-02 1.003699190914630890e-02 7.359378039836883545e-02 6.085848808288574219e-02 3.115686215460300446e-02 -9.822835214436054230e-03 1.656620018184185028e-02 -1.236287318170070648e-02 2.699304930865764618e-02 -2.317502535879611969e-02 1.385021861642599106e-02 1.007571592926979065e-01 2.442734502255916595e-02 7.067058235406875610e-02 7.337692193686962128e-03 8.648950606584548950e-02 1.874967478215694427e-02 9.141555987298488617e-03 2.282488718628883362e-02 7.511948700994253159e-03 1.982902362942695618e-02 5.533374100923538208e-02 -4.515139013528823853e-02 -5.372798070311546326e-02 -1.434977864846587181e-03 3.869132325053215027e-02 1.646176911890506744e-03 -1.882582530379295349e-02 2.646009065210819244e-02 -1.840660348534584045e-02 -6.007247604429721832e-03 -5.852608941495418549e-03 -3.052289970219135284e-02 -5.620018765330314636e-02 -2.215369604527950287e-03 -9.333330392837524414e-02 -2.463020011782646179e-02 -0.000000000000000000e+00 0.000000000000000000e+00 -0.000000000000000000e+00 0.000000000000000000e+00 0.000000000000000000e+00 0.000000000000000000e+00 0.000000000000000000e+00 0.000000000000000000e+00 -0.000000000000000000e+00 -0.000000000000000000e+00 -0.000000000000000000e+00 -0.000000000000000000e+00 0.000000000000000000e+00 0.000000000000000000e+00 0.000000000000000000e+00 -0.000000000000000000e+00 -1.074645817279815674e-01 -2.561269141733646393e-02 -5.136312916874885559e-02 -9.409435838460922241e-02 1.908369921147823334e-02 3.753622248768806458e-02 -5.367590859532356262e-02 -7.951092720031738281e-02 -3.226016461849212646e-02 -5.772658158093690872e-03 -4.144209623336791992e-02 -1.069679204374551773e-02 -2.827663160860538483e-02 -3.887658193707466125e-02 -6.066038459539413452e-02 5.233092978596687317e-02 4.987300559878349304e-02 -5.022310465574264526e-02 -2.568964660167694092e-02 -2.906504319980740547e-03 -4.100337252020835876e-02 1.492193341255187988e-02 -2.922846749424934387e-02 -3.220569342374801636e-02 2.968406118452548981e-02 1.354859303683042526e-02 2.931340038776397705e-02 1.812505535781383514e-02 -4.686003550887107849e-02 -8.908776566386222839e-03 1.511747483164072037e-02 -1.175381243228912354e-02 -3.241868689656257629e-02 -4.105990007519721985e-02 -5.033221840858459473e-02 2.749696839600801468e-03 -2.340781688690185547e-02 6.481581926345825195e-02 8.495237678289413452e-02 8.400559425354003906e-02 2.169400453567504883e-02 2.345213433727622032e-03 9.798990795388817787e-04 4.120862483978271484e-02 -1.668915338814258575e-02 -2.016576938331127167e-03 4.128725454211235046e-02 3.982091788202524185e-03 -0.000000000000000000e+00 0.000000000000000000e+00 0.000000000000000000e+00 0.000000000000000000e+00 -0.000000000000000000e+00 -0.000000000000000000e+00 -0.000000000000000000e+00 0.000000000000000000e+00 -0.000000000000000000e+00 -0.000000000000000000e+00 -0.000000000000000000e+00 -0.000000000000000000e+00 -0.000000000000000000e+00 -0.000000000000000000e+00 -0.000000000000000000e+00 -0.000000000000000000e+00 0.000000000000000000e+00 -0.000000000000000000e+00 -0.000000000000000000e+00 -0.000000000000000000e+00 -0.000000000000000000e+00 -0.000000000000000000e+00 -0.000000000000000000e+00 -0.000000000000000000e+00 -0.000000000000000000e+00 0.000000000000000000e+00 0.000000000000000000e+00 -0.000000000000000000e+00 0.000000000000000000e+00 -0.000000000000000000e+00 0.000000000000000000e+00 0.000000000000000000e+00 -4.314870387315750122e-02 -3.513695672154426575e-02 -1.353946514427661896e-02 1.699609123170375824e-02 -1.077922433614730835e-02 -1.256655436009168625e-02 -2.089318633079528809e-02 1.079476624727249146e-02 -4.481955990195274353e-02 1.347974967211484909e-02 1.986316218972206116e-02 -5.715286824852228165e-03 1.815394684672355652e-02 -3.900006040930747986e-02 -3.843921050429344177e-02 2.299562096595764160e-02 1.020352821797132492e-03 -1.342278206720948219e-03 -1.323055708780884743e-03 -1.304411515593528748e-02 8.994125528261065483e-04 2.235908526927232742e-03 6.467577535659074783e-03 4.127075895667076111e-03 2.822168462444096804e-04 1.938463392434641719e-04 4.571960307657718658e-03 -1.103556598536670208e-03 1.001294353045523167e-03 4.024344496428966522e-03 3.121646819636225700e-03 -1.459931768476963043e-02 2.844609133899211884e-02 -4.439337551593780518e-02 -5.477480217814445496e-02 -5.131086707115173340e-02 3.597055375576019287e-02 -4.579792171716690063e-02 -3.372126445174217224e-02 9.698103182017803192e-03 -6.020337343215942383e-02 -5.145579576492309570e-02 8.896198123693466187e-04 3.506784141063690186e-02 -1.858972385525703430e-02 -8.484453894197940826e-03 1.872606202960014343e-02 4.341842234134674072e-02 -0.000000000000000000e+00 -0.000000000000000000e+00 0.000000000000000000e+00 0.000000000000000000e+00 -0.000000000000000000e+00 -0.000000000000000000e+00 0.000000000000000000e+00 -0.000000000000000000e+00 -0.000000000000000000e+00 -0.000000000000000000e+00 -0.000000000000000000e+00 0.000000000000000000e+00 -0.000000000000000000e+00 -0.000000000000000000e+00 -0.000000000000000000e+00 -0.000000000000000000e+00 0.000000000000000000e+00 0.000000000000000000e+00 -0.000000000000000000e+00 0.000000000000000000e+00 -0.000000000000000000e+00 0.000000000000000000e+00 -0.000000000000000000e+00 -0.000000000000000000e+00 -0.000000000000000000e+00 -0.000000000000000000e+00 -0.000000000000000000e+00 -0.000000000000000000e+00 -0.000000000000000000e+00 -0.000000000000000000e+00 -0.000000000000000000e+00 -0.000000000000000000e+00 -0.000000000000000000e+00 0.000000000000000000e+00 0.000000000000000000e+00 -0.000000000000000000e+00 0.000000000000000000e+00 0.000000000000000000e+00 -0.000000000000000000e+00 0.000000000000000000e+00 0.000000000000000000e+00 0.000000000000000000e+00 -0.000000000000000000e+00 0.000000000000000000e+00 -0.000000000000000000e+00 0.000000000000000000e+00 -0.000000000000000000e+00 0.000000000000000000e+00 0.000000000000000000e+00 0.000000000000000000e+00 0.000000000000000000e+00 -0.000000000000000000e+00 0.000000000000000000e+00 -0.000000000000000000e+00 0.000000000000000000e+00 0.000000000000000000e+00 0.000000000000000000e+00 0.000000000000000000e+00 -0.000000000000000000e+00 -0.000000000000000000e+00 0.000000000000000000e+00 0.000000000000000000e+00 0.000000000000000000e+00 -0.000000000000000000e+00 3.755624964833259583e-02 1.659169420599937439e-02 9.027603082358837128e-03 -7.523828744888305664e-02 -3.686358220875263214e-03 -1.945620053447782993e-03 -3.142231842502951622e-03 -1.071246042847633362e-01 -1.495291106402873993e-02 -5.132532492280006409e-02 -4.677024483680725098e-02 -2.163182199001312256e-02 -7.049629837274551392e-02 -8.787707984447479248e-02 -3.587514162063598633e-02 -3.398042917251586914e-02 -5.931143648922443390e-03 -0.000000000000000000e+00 0.000000000000000000e+00 -2.743890136480331421e-02 0.000000000000000000e+00 -5.956875625997781754e-03 -5.936658009886741638e-03 -1.817465201020240784e-02 -0.000000000000000000e+00 -5.912226159125566483e-03 -0.000000000000000000e+00 -3.898125886917114258e-02 0.000000000000000000e+00 0.000000000000000000e+00 0.000000000000000000e+00 -0.000000000000000000e+00 1.980832777917385101e-02 -1.582125388085842133e-02 -1.472933031618595123e-02 1.459187129512429237e-03 9.490779484622180462e-04 -1.954069128260016441e-03 -2.597084268927574158e-02 1.194869633764028549e-02 2.345052734017372131e-02 -8.996516466140747070e-03 -2.296377159655094147e-02 8.629496395587921143e-02 -2.160240709781646729e-02 -2.248147316277027130e-02 -5.984526500105857849e-02 1.778107695281505585e-02 -5.427818745374679565e-03 -5.437287688255310059e-02 -5.157070606946945190e-02 -1.734028384089469910e-02 9.704030305147171021e-02 7.758404593914747238e-03 1.437592227011919022e-02 7.185254245996475220e-02 6.188126653432846069e-02 1.544949878007173538e-02 4.298418015241622925e-02 -1.681566797196865082e-02 -1.671139150857925415e-02 -6.810157001018524170e-02 -6.554050743579864502e-02 -4.125369712710380554e-02 1.465345732867717743e-02 3.608088567852973938e-02 1.895930245518684387e-02 3.978522121906280518e-02 -8.108454756438732147e-03 -2.135158888995647430e-02 -6.276607047766447067e-03 2.630599774420261383e-02 2.859665639698505402e-02 -5.450148135423660278e-02 3.951840847730636597e-02 7.231442630290985107e-02 -4.658800363540649414e-02 -7.422916591167449951e-02 -1.852774876169860363e-03 4.031449183821678162e-02 0.000000000000000000e+00 -0.000000000000000000e+00 -0.000000000000000000e+00 -0.000000000000000000e+00 -0.000000000000000000e+00 -0.000000000000000000e+00 -0.000000000000000000e+00 0.000000000000000000e+00 -0.000000000000000000e+00 -0.000000000000000000e+00 -0.000000000000000000e+00 0.000000000000000000e+00 -0.000000000000000000e+00 -0.000000000000000000e+00 -0.000000000000000000e+00 -0.000000000000000000e+00 3.590033203363418579e-02 2.283726036548614502e-01 2.163203619420528412e-02 5.595852620899677277e-03 -1.207082811743021011e-02 -7.348543405532836914e-02 -4.829087480902671814e-02 -1.711882464587688446e-02 -3.792431950569152832e-02 -1.564426422119140625e-01 -5.679993331432342529e-02 -2.543999627232551575e-02 -2.295928001403808594e-01 8.838984183967113495e-03 -7.812292128801345825e-02 3.362986259162425995e-03 0.000000000000000000e+00 -0.000000000000000000e+00 0.000000000000000000e+00 0.000000000000000000e+00 -0.000000000000000000e+00 -0.000000000000000000e+00 -0.000000000000000000e+00 0.000000000000000000e+00 0.000000000000000000e+00 -0.000000000000000000e+00 -0.000000000000000000e+00 0.000000000000000000e+00 0.000000000000000000e+00 -0.000000000000000000e+00 -0.000000000000000000e+00 0.000000000000000000e+00 1.461905427277088165e-02 -6.676462292671203613e-02 1.493127923458814621e-02 6.383856292814016342e-03 1.664921292103827000e-03 6.844111531972885132e-02 9.810502827167510986e-02 7.764509320259094238e-02 -6.382519006729125977e-02 1.893150620162487030e-02 8.699847012758255005e-02 4.741393029689788818e-02 -8.697333745658397675e-03 -3.008155617862939835e-03 3.393944352865219116e-02 -6.412493437528610229e-02 0.000000000000000000e+00 -0.000000000000000000e+00 -0.000000000000000000e+00 -0.000000000000000000e+00 -0.000000000000000000e+00 0.000000000000000000e+00 -0.000000000000000000e+00 0.000000000000000000e+00 0.000000000000000000e+00 -0.000000000000000000e+00 -0.000000000000000000e+00 -0.000000000000000000e+00 0.000000000000000000e+00 0.000000000000000000e+00 0.000000000000000000e+00 -0.000000000000000000e+00 2.075205370783805847e-02 9.420081973075866699e-03 1.474765688180923462e-02 1.571454107761383057e-02 3.855300322175025940e-02 1.265282928943634033e-02 4.787395149469375610e-02 2.920131199061870575e-02 -5.928754340857267380e-03 1.747847348451614380e-02 -2.025389112532138824e-02 2.252524718642234802e-03 3.081846982240676880e-02 -1.054074033163487911e-03 -1.763970777392387390e-02 3.487959504127502441e-02 3.129033371806144714e-02 5.845268815755844116e-02 8.711725473403930664e-02 3.501324355602264404e-02 7.315908558666706085e-03 -5.003536492586135864e-02 -4.958900809288024902e-02 -5.573409423232078552e-02 1.288057956844568253e-02 -6.434390321373939514e-03 -7.539214193820953369e-02 -7.166837155818939209e-02 -5.563133582472801208e-02 -1.082955002784729004e-01 -1.009078994393348694e-01 -8.534689247608184814e-02 3.302831947803497314e-02 1.003522519022226334e-02 1.205857004970312119e-02 1.772261597216129303e-02 -3.772414289414882660e-03 2.813394553959369659e-02 4.407211765646934509e-02 4.134775698184967041e-02 -1.102702040225267410e-02 -2.269960939884185791e-02 1.586224138736724854e-02 -1.891953125596046448e-02 -3.314124047756195068e-02 -4.674983397126197815e-02 -4.405838251113891602e-02 -2.689198590815067291e-02 1.840128377079963684e-02 -2.888907911255955696e-03 4.976432770490646362e-02 -7.681121677160263062e-02 -1.918591000139713287e-02 -1.795407831668853760e-01 1.323776971548795700e-02 -3.273328393697738647e-02 -5.950240883976221085e-03 2.963751181960105896e-02 -2.455829875543713570e-03 -2.463129907846450806e-02 -2.730507217347621918e-02 -2.079855464398860931e-02 -1.063269302248954773e-01 -1.243319064378738403e-01 1.314803864806890488e-02 -3.989971242845058441e-03 3.176306188106536865e-02 -4.080088436603546143e-02 -6.719861179590225220e-02 6.352031487040221691e-04 1.048608794808387756e-01 -6.814052909612655640e-02 6.197118014097213745e-02 -5.299029126763343811e-02 1.413895376026630402e-02 -4.182894900441169739e-02 7.620412856340408325e-02 -4.149610176682472229e-02 -1.455838885158300400e-02 -7.493988424539566040e-02 -0.000000000000000000e+00 -0.000000000000000000e+00 -0.000000000000000000e+00 -0.000000000000000000e+00 -0.000000000000000000e+00 -0.000000000000000000e+00 -0.000000000000000000e+00 -0.000000000000000000e+00 -0.000000000000000000e+00 0.000000000000000000e+00 -0.000000000000000000e+00 -0.000000000000000000e+00 -0.000000000000000000e+00 -0.000000000000000000e+00 -0.000000000000000000e+00 -0.000000000000000000e+00 -0.000000000000000000e+00 0.000000000000000000e+00 -0.000000000000000000e+00 -0.000000000000000000e+00 0.000000000000000000e+00 0.000000000000000000e+00 0.000000000000000000e+00 0.000000000000000000e+00 0.000000000000000000e+00 -0.000000000000000000e+00 0.000000000000000000e+00 0.000000000000000000e+00 -0.000000000000000000e+00 -0.000000000000000000e+00 0.000000000000000000e+00 0.000000000000000000e+00 -2.533729933202266693e-02 -1.189965754747390747e-02 3.827993571758270264e-02 9.632368572056293488e-03 -2.635558843612670898e-01 -2.449989132583141327e-02 6.864120066165924072e-02 6.379352509975433350e-02 -6.075929850339889526e-02 -5.810692533850669861e-02 5.639204755425453186e-02 1.199478283524513245e-02 1.674149557948112488e-02 2.668310143053531647e-02 5.257426574826240540e-02 -4.226020071655511856e-03 -5.443177651613950729e-04 -1.767575442790985107e-01 -5.287368595600128174e-02 2.087104134261608124e-03 4.912903904914855957e-02 5.568889435380697250e-03 -9.262352436780929565e-02 7.523663807660341263e-04 2.104594372212886810e-02 2.130549168214201927e-03 1.860127784311771393e-02 3.526100888848304749e-02 3.564851358532905579e-02 -1.400754451751708984e-01 -7.626137137413024902e-02 -1.035009175539016724e-01 -0.000000000000000000e+00 0.000000000000000000e+00 0.000000000000000000e+00 0.000000000000000000e+00 0.000000000000000000e+00 0.000000000000000000e+00 -0.000000000000000000e+00 -0.000000000000000000e+00 0.000000000000000000e+00 0.000000000000000000e+00 -0.000000000000000000e+00 -0.000000000000000000e+00 -0.000000000000000000e+00 -0.000000000000000000e+00 -0.000000000000000000e+00 -0.000000000000000000e+00 -0.000000000000000000e+00 0.000000000000000000e+00 0.000000000000000000e+00 -0.000000000000000000e+00 0.000000000000000000e+00 0.000000000000000000e+00 -0.000000000000000000e+00 -0.000000000000000000e+00 0.000000000000000000e+00 0.000000000000000000e+00 0.000000000000000000e+00 -0.000000000000000000e+00 0.000000000000000000e+00 -0.000000000000000000e+00 -0.000000000000000000e+00 -0.000000000000000000e+00 0.000000000000000000e+00 0.000000000000000000e+00 0.000000000000000000e+00 -0.000000000000000000e+00 -0.000000000000000000e+00 -2.023443812504410744e-03 -1.404424756765365601e-02 -0.000000000000000000e+00 -0.000000000000000000e+00 0.000000000000000000e+00 0.000000000000000000e+00 0.000000000000000000e+00 0.000000000000000000e+00 -0.000000000000000000e+00 -0.000000000000000000e+00 0.000000000000000000e+00 -0.000000000000000000e+00 -0.000000000000000000e+00 0.000000000000000000e+00 0.000000000000000000e+00 0.000000000000000000e+00 0.000000000000000000e+00 -0.000000000000000000e+00 -0.000000000000000000e+00 -0.000000000000000000e+00 -0.000000000000000000e+00 -0.000000000000000000e+00 -0.000000000000000000e+00 -0.000000000000000000e+00 -0.000000000000000000e+00 0.000000000000000000e+00 0.000000000000000000e+00 3.658641502261161804e-02 9.181126207113265991e-02 -1.503354404121637344e-02 2.749804221093654633e-02 4.435730725526809692e-02 8.137437701225280762e-02 -6.619702279567718506e-02 2.333965338766574860e-02 4.277487099170684814e-02 2.521405927836894989e-02 -1.109211593866348267e-01 -8.562975563108921051e-03 2.248238399624824524e-02 -1.129408832639455795e-02 2.460276591591536999e-04 -1.642961287871003151e-03 -3.634416311979293823e-02 -3.765543550252914429e-02 -2.872384339570999146e-02 7.791373878717422485e-03 2.458840422332286835e-02 2.341265045106410980e-02 -3.893517190590500832e-03 -2.427638694643974304e-02 -1.536273863166570663e-02 -2.996377274394035339e-02 -1.639276556670665741e-02 3.718724846839904785e-02 5.443360656499862671e-02 6.975354254245758057e-02 8.861872553825378418e-02 4.717386141419410706e-02 -2.508542127907276154e-02 -2.627618610858917236e-02 -1.801802543923258781e-03 1.244408078491687775e-03 -2.708597294986248016e-02 1.618490641703829169e-04 -2.232010103762149811e-02 -3.037649951875209808e-02 -3.318569436669349670e-02 -8.039942942559719086e-03 -2.633540704846382141e-02 -1.550485193729400635e-02 -6.650106050074100494e-03 3.331373445689678192e-03 4.195865709334611893e-03 0.000000000000000000e+00 -0.000000000000000000e+00 -0.000000000000000000e+00 -0.000000000000000000e+00 -0.000000000000000000e+00 -0.000000000000000000e+00 -0.000000000000000000e+00 -0.000000000000000000e+00 -0.000000000000000000e+00 -0.000000000000000000e+00 -0.000000000000000000e+00 -0.000000000000000000e+00 -0.000000000000000000e+00 -0.000000000000000000e+00 -0.000000000000000000e+00 -0.000000000000000000e+00 -0.000000000000000000e+00 0.000000000000000000e+00 -0.000000000000000000e+00 -0.000000000000000000e+00 0.000000000000000000e+00 0.000000000000000000e+00 0.000000000000000000e+00 -0.000000000000000000e+00 0.000000000000000000e+00 0.000000000000000000e+00 0.000000000000000000e+00 0.000000000000000000e+00 0.000000000000000000e+00 0.000000000000000000e+00 0.000000000000000000e+00 -0.000000000000000000e+00 -0.000000000000000000e+00 0.000000000000000000e+00 -0.000000000000000000e+00 0.000000000000000000e+00 -0.000000000000000000e+00 0.000000000000000000e+00 0.000000000000000000e+00 -0.000000000000000000e+00 -0.000000000000000000e+00 0.000000000000000000e+00 0.000000000000000000e+00 0.000000000000000000e+00 -0.000000000000000000e+00 0.000000000000000000e+00 -0.000000000000000000e+00 0.000000000000000000e+00 0.000000000000000000e+00 0.000000000000000000e+00 -0.000000000000000000e+00 0.000000000000000000e+00 -0.000000000000000000e+00 0.000000000000000000e+00 0.000000000000000000e+00 0.000000000000000000e+00 0.000000000000000000e+00 -0.000000000000000000e+00 0.000000000000000000e+00 0.000000000000000000e+00 -0.000000000000000000e+00 0.000000000000000000e+00 0.000000000000000000e+00 0.000000000000000000e+00 -0.000000000000000000e+00 -0.000000000000000000e+00 0.000000000000000000e+00 0.000000000000000000e+00 0.000000000000000000e+00 0.000000000000000000e+00 -0.000000000000000000e+00 0.000000000000000000e+00 -0.000000000000000000e+00 0.000000000000000000e+00 -0.000000000000000000e+00 0.000000000000000000e+00 0.000000000000000000e+00 0.000000000000000000e+00 -0.000000000000000000e+00 0.000000000000000000e+00 0.000000000000000000e+00 -0.000000000000000000e+00 -0.000000000000000000e+00 -0.000000000000000000e+00 -0.000000000000000000e+00 0.000000000000000000e+00 -0.000000000000000000e+00 0.000000000000000000e+00 0.000000000000000000e+00 -0.000000000000000000e+00 -0.000000000000000000e+00 -0.000000000000000000e+00 -0.000000000000000000e+00 0.000000000000000000e+00 0.000000000000000000e+00 0.000000000000000000e+00 0.000000000000000000e+00 -4.702814668416976929e-02 -1.142770946025848389e-01 -1.138745322823524475e-01 -8.972054719924926758e-02 -5.445084720849990845e-02 -6.310691684484481812e-02 -9.285465814173221588e-03 -2.087191306054592133e-02 -3.841109806671738625e-03 -2.662606351077556610e-02 -1.720176823437213898e-02 -3.402448073029518127e-02 1.023699529469013214e-02 1.256838161498308182e-02 2.299804612994194031e-02 -2.656359970569610596e-02 5.354261491447687149e-03 8.294814825057983398e-02 4.434715956449508667e-02 -2.018503844738006592e-02 4.433765634894371033e-02 3.792073205113410950e-02 2.011945471167564392e-02 -1.714065372943878174e-01 3.635970875620841980e-02 1.000197082757949829e-01 6.011142581701278687e-02 -3.247158229351043701e-01 1.235710270702838898e-02 4.291364550590515137e-02 3.894874453544616699e-02 -5.800925940275192261e-02 -3.368157446384429932e-01 -2.912515401840209961e-02 -5.548517033457756042e-02 -3.485499694943428040e-02 1.411895826458930969e-02 5.053069442510604858e-02 4.254028573632240295e-02 1.259956359863281250e-01 3.352155163884162903e-02 3.528677858412265778e-03 3.281580284237861633e-02 4.304281994700431824e-02 4.955126345157623291e-02 5.266615375876426697e-02 -5.362726282328367233e-03 -5.215034261345863342e-02 0.000000000000000000e+00 0.000000000000000000e+00 0.000000000000000000e+00 -0.000000000000000000e+00 0.000000000000000000e+00 -0.000000000000000000e+00 -0.000000000000000000e+00 -0.000000000000000000e+00 -0.000000000000000000e+00 -0.000000000000000000e+00 0.000000000000000000e+00 -0.000000000000000000e+00 -0.000000000000000000e+00 0.000000000000000000e+00 -0.000000000000000000e+00 -0.000000000000000000e+00 -0.000000000000000000e+00 0.000000000000000000e+00 0.000000000000000000e+00 0.000000000000000000e+00 0.000000000000000000e+00 0.000000000000000000e+00 -0.000000000000000000e+00 0.000000000000000000e+00 0.000000000000000000e+00 0.000000000000000000e+00 -0.000000000000000000e+00 -0.000000000000000000e+00 0.000000000000000000e+00 0.000000000000000000e+00 -0.000000000000000000e+00 0.000000000000000000e+00 0.000000000000000000e+00 -0.000000000000000000e+00 -0.000000000000000000e+00 -0.000000000000000000e+00 0.000000000000000000e+00 0.000000000000000000e+00 0.000000000000000000e+00 0.000000000000000000e+00 0.000000000000000000e+00 0.000000000000000000e+00 0.000000000000000000e+00 -0.000000000000000000e+00 0.000000000000000000e+00 0.000000000000000000e+00 0.000000000000000000e+00 -0.000000000000000000e+00 -0.000000000000000000e+00 -0.000000000000000000e+00 0.000000000000000000e+00 -0.000000000000000000e+00 -0.000000000000000000e+00 0.000000000000000000e+00 -0.000000000000000000e+00 -0.000000000000000000e+00 0.000000000000000000e+00 -0.000000000000000000e+00 -0.000000000000000000e+00 -0.000000000000000000e+00 -0.000000000000000000e+00 -0.000000000000000000e+00 0.000000000000000000e+00 0.000000000000000000e+00 0.000000000000000000e+00 -0.000000000000000000e+00 0.000000000000000000e+00 0.000000000000000000e+00 0.000000000000000000e+00 -0.000000000000000000e+00 -0.000000000000000000e+00 -0.000000000000000000e+00 0.000000000000000000e+00 0.000000000000000000e+00 0.000000000000000000e+00 -0.000000000000000000e+00 0.000000000000000000e+00 0.000000000000000000e+00 0.000000000000000000e+00 -0.000000000000000000e+00 -0.000000000000000000e+00 -0.000000000000000000e+00 -0.000000000000000000e+00 -0.000000000000000000e+00 -0.000000000000000000e+00 -0.000000000000000000e+00 -0.000000000000000000e+00 -0.000000000000000000e+00 -0.000000000000000000e+00 -0.000000000000000000e+00 0.000000000000000000e+00 0.000000000000000000e+00 -0.000000000000000000e+00 -0.000000000000000000e+00 -0.000000000000000000e+00 0.000000000000000000e+00 -8.291938900947570801e-02 -1.320218443870544434e-01 -1.712637487798929214e-03 -5.266517028212547302e-02 1.196416188031435013e-02 -8.148867636919021606e-02 4.295983817428350449e-03 9.002594277262687683e-03 1.425571925938129425e-02 1.167333405464887619e-02 -3.718639491125941277e-03 3.464135900139808655e-02 8.955907076597213745e-03 7.230414450168609619e-02 6.722328811883926392e-02 1.429882459342479706e-02 -2.392702177166938782e-02 -1.943937875330448151e-02 1.412198226898908615e-02 -3.231465071439743042e-02 -9.870356321334838867e-02 3.034068644046783447e-02 -1.265729311853647232e-02 -8.109392225742340088e-02 -1.521841883659362793e-01 3.945169597864151001e-02 -7.244950626045465469e-03 -9.725231677293777466e-02 -5.191911384463310242e-02 -3.169730305671691895e-02 -2.892271615564823151e-02 -2.597309090197086334e-02 1.765390508808195591e-03 8.487723534926772118e-04 8.487723534926772118e-04 2.117170719429850578e-03 8.487723534926772118e-04 8.487723534926772118e-04 8.487723534926772118e-04 8.487723534926772118e-04 8.487723534926772118e-04 8.487723534926772118e-04 8.487723534926772118e-04 8.469965541735291481e-04 1.322865020483732224e-03 8.544732700102031231e-04 8.427348802797496319e-04 1.199130085296928883e-03 -0.000000000000000000e+00 -0.000000000000000000e+00 -0.000000000000000000e+00 -0.000000000000000000e+00 -0.000000000000000000e+00 -0.000000000000000000e+00 -0.000000000000000000e+00 -0.000000000000000000e+00 -0.000000000000000000e+00 -0.000000000000000000e+00 -0.000000000000000000e+00 -0.000000000000000000e+00 -0.000000000000000000e+00 -0.000000000000000000e+00 -0.000000000000000000e+00 -0.000000000000000000e+00 2.057801187038421631e-02 -2.661146409809589386e-02 -4.190427064895629883e-02 1.106785889714956284e-02 -1.369495037943124771e-02 -3.912732936441898346e-03 1.641401462256908417e-02 4.095653444528579712e-02 -3.160942345857620239e-02 -3.354385495185852051e-02 3.071273304522037506e-02 5.507854744791984558e-02 5.535293836146593094e-03 -3.684795647859573364e-02 -6.395340710878372192e-02 9.726786985993385315e-03 0.000000000000000000e+00 -0.000000000000000000e+00 0.000000000000000000e+00 0.000000000000000000e+00 0.000000000000000000e+00 -0.000000000000000000e+00 0.000000000000000000e+00 0.000000000000000000e+00 -0.000000000000000000e+00 0.000000000000000000e+00 0.000000000000000000e+00 0.000000000000000000e+00 0.000000000000000000e+00 0.000000000000000000e+00 -0.000000000000000000e+00 0.000000000000000000e+00 -0.000000000000000000e+00 -0.000000000000000000e+00 0.000000000000000000e+00 0.000000000000000000e+00 -0.000000000000000000e+00 -0.000000000000000000e+00 -0.000000000000000000e+00 -0.000000000000000000e+00 0.000000000000000000e+00 -0.000000000000000000e+00 -0.000000000000000000e+00 -0.000000000000000000e+00 -0.000000000000000000e+00 -0.000000000000000000e+00 -0.000000000000000000e+00 -0.000000000000000000e+00 0.000000000000000000e+00 -0.000000000000000000e+00 -0.000000000000000000e+00 0.000000000000000000e+00 -0.000000000000000000e+00 -0.000000000000000000e+00 0.000000000000000000e+00 0.000000000000000000e+00 0.000000000000000000e+00 -0.000000000000000000e+00 -0.000000000000000000e+00 -0.000000000000000000e+00 -0.000000000000000000e+00 0.000000000000000000e+00 -0.000000000000000000e+00 -0.000000000000000000e+00 -0.000000000000000000e+00 -0.000000000000000000e+00 -0.000000000000000000e+00 -0.000000000000000000e+00 -0.000000000000000000e+00 -0.000000000000000000e+00 -0.000000000000000000e+00 -0.000000000000000000e+00 -0.000000000000000000e+00 -0.000000000000000000e+00 -0.000000000000000000e+00 -0.000000000000000000e+00 -0.000000000000000000e+00 -0.000000000000000000e+00 -0.000000000000000000e+00 -0.000000000000000000e+00 1.441395934671163559e-02 -2.291898578405380249e-01 -5.536470189690589905e-02 -4.747835919260978699e-02 2.806809730827808380e-02 -1.577457971870899200e-02 -3.512223064899444580e-02 -2.634425647556781769e-02 -7.131947576999664307e-02 -3.994216397404670715e-02 -2.677896805107593536e-02 -8.153599500656127930e-02 -2.793577313423156738e-01 -1.350997090339660645e-01 -3.259414136409759521e-01 -1.835540384054183960e-01 5.849911272525787354e-02 1.022837217897176743e-02 1.271505001932382584e-02 1.444580685347318649e-02 5.044320970773696899e-02 2.607492264360189438e-03 -1.762628741562366486e-02 3.946844022721052170e-03 4.529724270105361938e-02 -1.670772768557071686e-02 -4.662778694182634354e-03 4.221119359135627747e-02 -3.826741501688957214e-02 -5.338338017463684082e-02 -4.059410095214843750e-02 1.142507325857877731e-02 -0.000000000000000000e+00 -0.000000000000000000e+00 -0.000000000000000000e+00 0.000000000000000000e+00 0.000000000000000000e+00 0.000000000000000000e+00 0.000000000000000000e+00 -0.000000000000000000e+00 -0.000000000000000000e+00 -0.000000000000000000e+00 0.000000000000000000e+00 0.000000000000000000e+00 0.000000000000000000e+00 -0.000000000000000000e+00 0.000000000000000000e+00 -0.000000000000000000e+00 -0.000000000000000000e+00 0.000000000000000000e+00 -0.000000000000000000e+00 -0.000000000000000000e+00 0.000000000000000000e+00 -0.000000000000000000e+00 0.000000000000000000e+00 -0.000000000000000000e+00 0.000000000000000000e+00 -0.000000000000000000e+00 -0.000000000000000000e+00 -0.000000000000000000e+00 -0.000000000000000000e+00 -0.000000000000000000e+00 -0.000000000000000000e+00 -0.000000000000000000e+00 -4.934135824441909790e-02 -1.673635840415954590e-02 -5.779799446463584900e-02 2.886474505066871643e-02 2.552766166627407074e-02 2.191285975277423859e-02 -1.746249198913574219e-02 -5.037976801395416260e-02 -3.593811392784118652e-02 -2.997905388474464417e-02 2.343721501529216766e-02 -7.288630306720733643e-02 6.245942786335945129e-02 5.516245216131210327e-02 1.961661875247955322e-02 -9.641081094741821289e-03 -0.000000000000000000e+00 -0.000000000000000000e+00 0.000000000000000000e+00 0.000000000000000000e+00 0.000000000000000000e+00 0.000000000000000000e+00 0.000000000000000000e+00 0.000000000000000000e+00 -0.000000000000000000e+00 -0.000000000000000000e+00 0.000000000000000000e+00 0.000000000000000000e+00 0.000000000000000000e+00 0.000000000000000000e+00 0.000000000000000000e+00 0.000000000000000000e+00 -0.000000000000000000e+00 0.000000000000000000e+00 0.000000000000000000e+00 -0.000000000000000000e+00 -0.000000000000000000e+00 -0.000000000000000000e+00 0.000000000000000000e+00 -0.000000000000000000e+00 0.000000000000000000e+00 -0.000000000000000000e+00 0.000000000000000000e+00 -0.000000000000000000e+00 0.000000000000000000e+00 -0.000000000000000000e+00 0.000000000000000000e+00 0.000000000000000000e+00 2.645182795822620392e-02 -1.398113071918487549e-01 -1.779437996447086334e-02 -6.893078982830047607e-02 1.455291919410228729e-02 4.373612627387046814e-02 1.539436168968677521e-02 8.424228057265281677e-03 -8.838748186826705933e-02 3.417191654443740845e-02 -4.270378034561872482e-03 -8.059752732515335083e-02 -6.500179320573806763e-02 -6.781648844480514526e-02 -1.170266196131706238e-01 -1.016457378864288330e-01 2.519213035702705383e-02 1.620258577167987823e-02 7.537437975406646729e-02 -9.535589255392551422e-03 1.361262239515781403e-02 8.610099554061889648e-03 3.986782580614089966e-02 5.107891932129859924e-02 -6.114002689719200134e-02 -2.106766775250434875e-02 -1.341685280203819275e-02 -2.522317320108413696e-02 -4.213573411107063293e-02 -2.957356907427310944e-02 -7.286010682582855225e-02 -4.287428408861160278e-02 -0.000000000000000000e+00 -0.000000000000000000e+00 0.000000000000000000e+00 0.000000000000000000e+00 0.000000000000000000e+00 0.000000000000000000e+00 0.000000000000000000e+00 0.000000000000000000e+00 0.000000000000000000e+00 0.000000000000000000e+00 0.000000000000000000e+00 -0.000000000000000000e+00 -0.000000000000000000e+00 -0.000000000000000000e+00 0.000000000000000000e+00 -0.000000000000000000e+00 1.390999928116798401e-02 1.809920184314250946e-02 1.810543984174728394e-02 1.809725351631641388e-02 1.312404219061136246e-02 1.809744723141193390e-02 -1.798063702881336212e-02 1.651766896247863770e-02 1.363394409418106079e-02 1.810620911419391632e-02 -0.000000000000000000e+00 1.799138076603412628e-02 0.000000000000000000e+00 0.000000000000000000e+00 -0.000000000000000000e+00 -0.000000000000000000e+00 -0.000000000000000000e+00 -0.000000000000000000e+00 -0.000000000000000000e+00 -0.000000000000000000e+00 -0.000000000000000000e+00 -0.000000000000000000e+00 -0.000000000000000000e+00 -0.000000000000000000e+00 -0.000000000000000000e+00 -0.000000000000000000e+00 -0.000000000000000000e+00 -0.000000000000000000e+00 -0.000000000000000000e+00 -0.000000000000000000e+00 -0.000000000000000000e+00 -0.000000000000000000e+00 -0.000000000000000000e+00 -0.000000000000000000e+00 0.000000000000000000e+00 0.000000000000000000e+00 0.000000000000000000e+00 0.000000000000000000e+00 -0.000000000000000000e+00 -0.000000000000000000e+00 -0.000000000000000000e+00 -0.000000000000000000e+00 0.000000000000000000e+00 -0.000000000000000000e+00 0.000000000000000000e+00 0.000000000000000000e+00 0.000000000000000000e+00 -0.000000000000000000e+00 0.000000000000000000e+00 0.000000000000000000e+00 0.000000000000000000e+00 0.000000000000000000e+00 0.000000000000000000e+00 0.000000000000000000e+00 -0.000000000000000000e+00 -0.000000000000000000e+00 0.000000000000000000e+00 -0.000000000000000000e+00 -0.000000000000000000e+00 0.000000000000000000e+00 0.000000000000000000e+00 0.000000000000000000e+00 0.000000000000000000e+00 0.000000000000000000e+00 -1.978547871112823486e-02 -8.962103165686130524e-03 2.077448554337024689e-02 -4.929818678647279739e-03 3.765100240707397461e-02 8.734237402677536011e-03 3.461883217096328735e-02 3.992366790771484375e-02 3.570378525182604790e-03 -6.492839753627777100e-02 -9.722963906824588776e-03 1.851635053753852844e-02 -4.394515231251716614e-02 -5.198985338211059570e-03 -2.023009024560451508e-02 -4.927023127675056458e-02 -0.000000000000000000e+00 0.000000000000000000e+00 0.000000000000000000e+00 -0.000000000000000000e+00 0.000000000000000000e+00 0.000000000000000000e+00 -0.000000000000000000e+00 0.000000000000000000e+00 0.000000000000000000e+00 0.000000000000000000e+00 0.000000000000000000e+00 -0.000000000000000000e+00 -0.000000000000000000e+00 0.000000000000000000e+00 0.000000000000000000e+00 -0.000000000000000000e+00 -0.000000000000000000e+00 -0.000000000000000000e+00 -0.000000000000000000e+00 -0.000000000000000000e+00 -0.000000000000000000e+00 -0.000000000000000000e+00 -0.000000000000000000e+00 0.000000000000000000e+00 -0.000000000000000000e+00 0.000000000000000000e+00 -0.000000000000000000e+00 -0.000000000000000000e+00 -0.000000000000000000e+00 -0.000000000000000000e+00 -0.000000000000000000e+00 -0.000000000000000000e+00 0.000000000000000000e+00 0.000000000000000000e+00 0.000000000000000000e+00 0.000000000000000000e+00 0.000000000000000000e+00 -0.000000000000000000e+00 -0.000000000000000000e+00 -0.000000000000000000e+00 -0.000000000000000000e+00 -0.000000000000000000e+00 -0.000000000000000000e+00 -0.000000000000000000e+00 -0.000000000000000000e+00 -0.000000000000000000e+00 -0.000000000000000000e+00 -0.000000000000000000e+00 -0.000000000000000000e+00 -0.000000000000000000e+00 -0.000000000000000000e+00 -0.000000000000000000e+00 -0.000000000000000000e+00 -0.000000000000000000e+00 -0.000000000000000000e+00 -0.000000000000000000e+00 -0.000000000000000000e+00 -0.000000000000000000e+00 -0.000000000000000000e+00 -0.000000000000000000e+00 -0.000000000000000000e+00 -0.000000000000000000e+00 -0.000000000000000000e+00 -0.000000000000000000e+00 -0.000000000000000000e+00 -0.000000000000000000e+00 -0.000000000000000000e+00 -0.000000000000000000e+00 -0.000000000000000000e+00 -0.000000000000000000e+00 -0.000000000000000000e+00 -0.000000000000000000e+00 -0.000000000000000000e+00 0.000000000000000000e+00 -0.000000000000000000e+00 -0.000000000000000000e+00 0.000000000000000000e+00 -0.000000000000000000e+00 0.000000000000000000e+00 0.000000000000000000e+00 0.000000000000000000e+00 0.000000000000000000e+00 0.000000000000000000e+00 -0.000000000000000000e+00 0.000000000000000000e+00 -0.000000000000000000e+00 0.000000000000000000e+00 0.000000000000000000e+00 0.000000000000000000e+00 0.000000000000000000e+00 -0.000000000000000000e+00 0.000000000000000000e+00 0.000000000000000000e+00 0.000000000000000000e+00 0.000000000000000000e+00 0.000000000000000000e+00 4.667708417400717735e-04 1.816570200026035309e-02 2.422028593719005585e-02 6.963122170418500900e-03 3.713257983326911926e-02 -2.097748219966888428e-02 -3.934326022863388062e-02 -6.055393256247043610e-03 2.034352719783782959e-02 -1.874503307044506073e-02 -3.551321569830179214e-03 -7.696163840591907501e-03 3.227990865707397461e-02 1.383566018193960190e-02 -1.134219951927661896e-02 -1.549639739096164703e-03 0.000000000000000000e+00 -0.000000000000000000e+00 0.000000000000000000e+00 -0.000000000000000000e+00 0.000000000000000000e+00 0.000000000000000000e+00 -0.000000000000000000e+00 0.000000000000000000e+00 0.000000000000000000e+00 -0.000000000000000000e+00 -0.000000000000000000e+00 0.000000000000000000e+00 0.000000000000000000e+00 -0.000000000000000000e+00 -0.000000000000000000e+00 0.000000000000000000e+00 3.573296591639518738e-02 1.463254820555448532e-02 -1.533292792737483978e-02 2.807997725903987885e-02 9.069208987057209015e-03 -4.178406298160552979e-02 -5.671446397900581360e-02 -2.568977361079305410e-04 2.044688910245895386e-02 -1.076506301760673523e-01 1.255076564848423004e-02 -8.746865391731262207e-02 2.200881391763687134e-02 -6.969007104635238647e-02 4.600805789232254028e-02 -2.355208620429039001e-02 0.000000000000000000e+00 0.000000000000000000e+00 0.000000000000000000e+00 0.000000000000000000e+00 -0.000000000000000000e+00 0.000000000000000000e+00 -0.000000000000000000e+00 0.000000000000000000e+00 -0.000000000000000000e+00 0.000000000000000000e+00 -0.000000000000000000e+00 0.000000000000000000e+00 -0.000000000000000000e+00 -0.000000000000000000e+00 -0.000000000000000000e+00 0.000000000000000000e+00 2.515269815921783447e-02 1.862685009837150574e-02 1.647148840129375458e-02 2.258801599964499474e-03 5.552530288696289062e-03 5.687735229730606079e-02 1.918547973036766052e-02 3.795254230499267578e-02 2.629690244793891907e-02 1.769416779279708862e-02 3.167302533984184265e-02 1.217688061296939850e-02 2.615078352391719818e-02 -3.349819453433156013e-03 -6.415731739252805710e-03 -8.749496191740036011e-03 1.483170036226511002e-02 -3.186766803264617920e-02 -1.013817824423313141e-02 -1.793867908418178558e-02 -6.216111592948436737e-03 -8.823257521726191044e-04 8.174398913979530334e-03 1.133444439619779587e-02 -4.322554171085357666e-02 1.308856997638940811e-03 6.413006689399480820e-03 1.405004691332578659e-02 9.132168255746364594e-03 -1.044187974184751511e-02 -2.941556833684444427e-02 2.023453079164028168e-02 -0.000000000000000000e+00 -0.000000000000000000e+00 -0.000000000000000000e+00 -0.000000000000000000e+00 0.000000000000000000e+00 -0.000000000000000000e+00 -0.000000000000000000e+00 0.000000000000000000e+00 -0.000000000000000000e+00 0.000000000000000000e+00 -0.000000000000000000e+00 0.000000000000000000e+00 0.000000000000000000e+00 -0.000000000000000000e+00 -0.000000000000000000e+00 0.000000000000000000e+00 0.000000000000000000e+00 0.000000000000000000e+00 -0.000000000000000000e+00 -0.000000000000000000e+00 -0.000000000000000000e+00 0.000000000000000000e+00 0.000000000000000000e+00 0.000000000000000000e+00 0.000000000000000000e+00 0.000000000000000000e+00 0.000000000000000000e+00 0.000000000000000000e+00 -0.000000000000000000e+00 0.000000000000000000e+00 0.000000000000000000e+00 -0.000000000000000000e+00 8.260499686002731323e-03 1.272852905094623566e-02 1.774664036929607391e-02 2.070293202996253967e-02 3.936952352523803711e-02 3.403111919760704041e-02 3.662779927253723145e-02 4.391974955797195435e-02 -2.613112516701221466e-02 2.985459868796169758e-04 -5.881060496903955936e-04 1.609124243259429932e-02 2.329626306891441345e-02 1.329754362814128399e-03 5.372165516018867493e-02 3.833312541246414185e-02 -4.039933532476425171e-02 -1.679709926247596741e-02 4.274052381515502930e-02 2.738489583134651184e-02 -7.563826441764831543e-02 -3.854070603847503662e-02 1.088828872889280319e-02 1.021898612380027771e-01 -2.288580872118473053e-02 -3.686036169528961182e-02 -2.907960414886474609e-01 7.614634931087493896e-02 5.917640030384063721e-02 -1.805527694523334503e-02 -3.187744691967964172e-02 7.566514890640974045e-03 0.000000000000000000e+00 -0.000000000000000000e+00 -0.000000000000000000e+00 0.000000000000000000e+00 -0.000000000000000000e+00 0.000000000000000000e+00 0.000000000000000000e+00 0.000000000000000000e+00 0.000000000000000000e+00 -0.000000000000000000e+00 -0.000000000000000000e+00 -0.000000000000000000e+00 -0.000000000000000000e+00 -0.000000000000000000e+00 -0.000000000000000000e+00 -0.000000000000000000e+00 -1.371174817904829979e-03 -1.265593746211379766e-04 -1.388150919228792191e-02 4.974199831485748291e-02 -1.665581576526165009e-02 1.221800595521926880e-02 1.756919361650943756e-02 3.758643567562103271e-02 4.186041187494993210e-03 -1.086393091827630997e-02 -1.794775761663913727e-02 2.717870473861694336e-02 7.604951970279216766e-03 2.164614386856555939e-02 4.216118156909942627e-02 6.129794567823410034e-02 -0.000000000000000000e+00 -0.000000000000000000e+00 -0.000000000000000000e+00 -0.000000000000000000e+00 0.000000000000000000e+00 0.000000000000000000e+00 -0.000000000000000000e+00 0.000000000000000000e+00 0.000000000000000000e+00 0.000000000000000000e+00 -0.000000000000000000e+00 -0.000000000000000000e+00 0.000000000000000000e+00 0.000000000000000000e+00 -0.000000000000000000e+00 0.000000000000000000e+00 0.000000000000000000e+00 0.000000000000000000e+00 0.000000000000000000e+00 0.000000000000000000e+00 0.000000000000000000e+00 0.000000000000000000e+00 0.000000000000000000e+00 0.000000000000000000e+00 0.000000000000000000e+00 0.000000000000000000e+00 -0.000000000000000000e+00 -0.000000000000000000e+00 -0.000000000000000000e+00 0.000000000000000000e+00 -0.000000000000000000e+00 -0.000000000000000000e+00 -0.000000000000000000e+00 0.000000000000000000e+00 0.000000000000000000e+00 -0.000000000000000000e+00 -0.000000000000000000e+00 0.000000000000000000e+00 -0.000000000000000000e+00 0.000000000000000000e+00 -1.755743473768234253e-02 0.000000000000000000e+00 0.000000000000000000e+00 0.000000000000000000e+00 -1.804701238870620728e-02 0.000000000000000000e+00 0.000000000000000000e+00 0.000000000000000000e+00 -0.000000000000000000e+00 0.000000000000000000e+00 0.000000000000000000e+00 0.000000000000000000e+00 0.000000000000000000e+00 0.000000000000000000e+00 -0.000000000000000000e+00 -0.000000000000000000e+00 0.000000000000000000e+00 0.000000000000000000e+00 -0.000000000000000000e+00 -0.000000000000000000e+00 -0.000000000000000000e+00 -4.974078852683305740e-03 -0.000000000000000000e+00 -1.069121062755584717e-02 0.000000000000000000e+00 -0.000000000000000000e+00 0.000000000000000000e+00 -0.000000000000000000e+00 0.000000000000000000e+00 0.000000000000000000e+00 0.000000000000000000e+00 0.000000000000000000e+00 0.000000000000000000e+00 0.000000000000000000e+00 0.000000000000000000e+00 0.000000000000000000e+00 0.000000000000000000e+00 -0.000000000000000000e+00 0.000000000000000000e+00 -0.000000000000000000e+00 -0.000000000000000000e+00 0.000000000000000000e+00 0.000000000000000000e+00 0.000000000000000000e+00 0.000000000000000000e+00 0.000000000000000000e+00 -0.000000000000000000e+00 -0.000000000000000000e+00 -0.000000000000000000e+00 0.000000000000000000e+00 -0.000000000000000000e+00 -0.000000000000000000e+00 -0.000000000000000000e+00 -0.000000000000000000e+00 -0.000000000000000000e+00 0.000000000000000000e+00 0.000000000000000000e+00 -0.000000000000000000e+00 0.000000000000000000e+00 0.000000000000000000e+00 -0.000000000000000000e+00 -0.000000000000000000e+00 -0.000000000000000000e+00 -0.000000000000000000e+00 -0.000000000000000000e+00 0.000000000000000000e+00 0.000000000000000000e+00 0.000000000000000000e+00 -0.000000000000000000e+00 -0.000000000000000000e+00 -0.000000000000000000e+00 -0.000000000000000000e+00 1.987150497734546661e-02 -5.260686948895454407e-02 -5.411766842007637024e-02 1.272825803607702255e-02 6.045569479465484619e-02 4.003570228815078735e-02 5.758488178253173828e-02 1.160473469644784927e-02 4.955454915761947632e-02 1.291612442582845688e-02 1.618784107267856598e-02 3.122585266828536987e-02 1.244798023253679276e-02 -2.578442357480525970e-02 -3.836736548691987991e-03 -8.977525867521762848e-03 -0.000000000000000000e+00 0.000000000000000000e+00 0.000000000000000000e+00 0.000000000000000000e+00 -0.000000000000000000e+00 -0.000000000000000000e+00 -0.000000000000000000e+00 -0.000000000000000000e+00 -0.000000000000000000e+00 -0.000000000000000000e+00 0.000000000000000000e+00 0.000000000000000000e+00 0.000000000000000000e+00 0.000000000000000000e+00 0.000000000000000000e+00 0.000000000000000000e+00 2.482612989842891693e-02 8.166965097188949585e-02 -1.281876023858785629e-02 -6.321927160024642944e-02 7.642108201980590820e-02 5.540386214852333069e-02 3.304263949394226074e-02 -4.812374338507652283e-02 -3.733292594552040100e-02 2.477501053363084793e-03 -4.167830571532249451e-02 -2.020130306482315063e-02 -7.980290055274963379e-02 -1.077651530504226685e-01 -1.109097450971603394e-01 1.112929210066795349e-01 -0.000000000000000000e+00 0.000000000000000000e+00 0.000000000000000000e+00 0.000000000000000000e+00 -0.000000000000000000e+00 0.000000000000000000e+00 0.000000000000000000e+00 -0.000000000000000000e+00 -0.000000000000000000e+00 -0.000000000000000000e+00 -0.000000000000000000e+00 0.000000000000000000e+00 0.000000000000000000e+00 0.000000000000000000e+00 0.000000000000000000e+00 0.000000000000000000e+00 -0.000000000000000000e+00 -0.000000000000000000e+00 -0.000000000000000000e+00 -0.000000000000000000e+00 0.000000000000000000e+00 0.000000000000000000e+00 -0.000000000000000000e+00 -0.000000000000000000e+00 -0.000000000000000000e+00 -0.000000000000000000e+00 -0.000000000000000000e+00 0.000000000000000000e+00 -0.000000000000000000e+00 -0.000000000000000000e+00 -0.000000000000000000e+00 0.000000000000000000e+00 -1.809883833630010486e-04 -8.629061048850417137e-04 -0.000000000000000000e+00 -0.000000000000000000e+00 -3.160001942887902260e-03 0.000000000000000000e+00 2.750888653099536896e-02 0.000000000000000000e+00 -1.775063946843147278e-02 -1.928106322884559631e-02 0.000000000000000000e+00 0.000000000000000000e+00 2.675591967999935150e-02 -9.781821630895137787e-03 0.000000000000000000e+00 -0.000000000000000000e+00 0.000000000000000000e+00 0.000000000000000000e+00 0.000000000000000000e+00 -0.000000000000000000e+00 -0.000000000000000000e+00 -0.000000000000000000e+00 -0.000000000000000000e+00 -0.000000000000000000e+00 -0.000000000000000000e+00 -0.000000000000000000e+00 -0.000000000000000000e+00 -0.000000000000000000e+00 0.000000000000000000e+00 0.000000000000000000e+00 -0.000000000000000000e+00 -0.000000000000000000e+00 -0.000000000000000000e+00 -0.000000000000000000e+00 0.000000000000000000e+00 0.000000000000000000e+00 -0.000000000000000000e+00 0.000000000000000000e+00 0.000000000000000000e+00 0.000000000000000000e+00 -0.000000000000000000e+00 0.000000000000000000e+00 -0.000000000000000000e+00 -0.000000000000000000e+00 -0.000000000000000000e+00 0.000000000000000000e+00 0.000000000000000000e+00 -0.000000000000000000e+00 -2.855215407907962799e-02 -2.560858614742755890e-02 -2.830222621560096741e-02 -2.105240896344184875e-02 -2.272058092057704926e-02 -2.034989371895790100e-02 -1.897136867046356201e-02 -1.107261609286069870e-02 -2.342404611408710480e-02 -2.133890986442565918e-02 -1.894527673721313477e-02 -1.607097871601581573e-02 -2.153780497610569000e-02 -1.800837367773056030e-02 -1.266490109264850616e-02 -1.185277197510004044e-02 0.000000000000000000e+00 -0.000000000000000000e+00 0.000000000000000000e+00 -0.000000000000000000e+00 -0.000000000000000000e+00 -0.000000000000000000e+00 0.000000000000000000e+00 -0.000000000000000000e+00 -0.000000000000000000e+00 0.000000000000000000e+00 -0.000000000000000000e+00 -0.000000000000000000e+00 -0.000000000000000000e+00 0.000000000000000000e+00 -0.000000000000000000e+00 0.000000000000000000e+00 -4.901723191142082214e-02 -1.735106669366359711e-02 2.450381591916084290e-02 -4.817965254187583923e-02 1.001981645822525024e-02 -6.714739650487899780e-02 -2.843435481190681458e-02 -6.230859458446502686e-02 -7.994458079338073730e-02 7.017461210489273071e-02 1.110098436474800110e-01 -2.257911674678325653e-02 -2.305181883275508881e-02 5.740622803568840027e-02 9.302945435047149658e-02 -2.813356183469295502e-02 0.000000000000000000e+00 0.000000000000000000e+00 -0.000000000000000000e+00 0.000000000000000000e+00 -0.000000000000000000e+00 -0.000000000000000000e+00 -0.000000000000000000e+00 -0.000000000000000000e+00 0.000000000000000000e+00 0.000000000000000000e+00 0.000000000000000000e+00 0.000000000000000000e+00 0.000000000000000000e+00 -0.000000000000000000e+00 0.000000000000000000e+00 -0.000000000000000000e+00 -2.702905237674713135e-02 -1.727115362882614136e-02 8.290816843509674072e-02 -7.734753936529159546e-02 -8.126455545425415039e-02 -8.733128756284713745e-02 8.630109578371047974e-02 -4.591474682092666626e-02 -7.657189667224884033e-02 -3.718789294362068176e-02 -2.514472696930170059e-03 1.392445527017116547e-02 -1.253990549594163895e-02 -7.027090340852737427e-02 -9.226952493190765381e-02 2.256217971444129944e-02 -1.383530162274837494e-02 -2.069698460400104523e-02 -2.385298023000359535e-03 1.473190169781446457e-02 -6.422130018472671509e-02 1.247392967343330383e-02 5.690226331353187561e-02 6.438745558261871338e-02 -5.867573246359825134e-02 9.382012486457824707e-02 3.231330588459968567e-02 4.802910983562469482e-02 1.708258874714374542e-02 5.529551580548286438e-02 -9.271628223359584808e-03 -5.388492718338966370e-02 9.160896390676498413e-02 6.212664023041725159e-02 6.671567447483539581e-03 -4.300409555435180664e-02 1.466502435505390167e-02 2.559124119579792023e-02 -5.309583619236946106e-02 -8.023887127637863159e-02 1.283059455454349518e-02 -2.253116481006145477e-02 5.822271108627319336e-03 2.417819108814001083e-03 5.397809669375419617e-03 -6.570738274604082108e-03 5.118132755160331726e-02 4.401807114481925964e-02 -4.115955904126167297e-02 -2.751357294619083405e-02 -5.224398523569107056e-02 -7.477261126041412354e-02 2.579400688409805298e-02 -3.514989465475082397e-02 1.158659346401691437e-02 -1.995371840894222260e-02 1.999210752546787262e-02 -7.590696681290864944e-03 1.389660872519016266e-02 -2.680725604295730591e-02 4.560012742877006531e-02 4.267299547791481018e-02 -7.175692007876932621e-04 -2.715855604037642479e-03 -0.000000000000000000e+00 -0.000000000000000000e+00 -0.000000000000000000e+00 -0.000000000000000000e+00 -0.000000000000000000e+00 -0.000000000000000000e+00 0.000000000000000000e+00 0.000000000000000000e+00 -0.000000000000000000e+00 0.000000000000000000e+00 -0.000000000000000000e+00 -0.000000000000000000e+00 0.000000000000000000e+00 0.000000000000000000e+00 0.000000000000000000e+00 -0.000000000000000000e+00 -0.000000000000000000e+00 0.000000000000000000e+00 0.000000000000000000e+00 -0.000000000000000000e+00 0.000000000000000000e+00 -0.000000000000000000e+00 0.000000000000000000e+00 0.000000000000000000e+00 0.000000000000000000e+00 -0.000000000000000000e+00 -0.000000000000000000e+00 0.000000000000000000e+00 -0.000000000000000000e+00 -0.000000000000000000e+00 -0.000000000000000000e+00 -0.000000000000000000e+00 -2.167523279786109924e-02 6.457197666168212891e-02 3.686606511473655701e-02 1.621250808238983154e-02 -2.048100829124450684e-01 3.104165010154247284e-02 5.246452614665031433e-02 3.044234029948711395e-02 -1.812924146652221680e-01 1.474407315254211426e-02 3.528949990868568420e-02 4.620739072561264038e-02 4.596059024333953857e-02 4.546982795000076294e-02 1.469804439693689346e-03 3.113853558897972107e-02 9.116266854107379913e-03 -5.556017532944679260e-02 -6.298080831766128540e-02 3.847324103116989136e-02 6.538954377174377441e-02 4.397052153944969177e-02 1.137401536107063293e-02 -1.081162039190530777e-02 2.377303317189216614e-02 4.720017313957214355e-02 2.169571071863174438e-02 2.887652069330215454e-02 -5.331707373261451721e-02 -6.045493483543395996e-02 -5.002661049365997314e-02 -1.122344005852937698e-02 0.000000000000000000e+00 -0.000000000000000000e+00 -0.000000000000000000e+00 -0.000000000000000000e+00 -0.000000000000000000e+00 -0.000000000000000000e+00 -0.000000000000000000e+00 -0.000000000000000000e+00 -0.000000000000000000e+00 -0.000000000000000000e+00 -0.000000000000000000e+00 