3.174786269664764404e-02
6.893147248774766922e-03
-4.918036237359046936e-02
-4.084198549389839172e-02
2.724725985899567604e-03
-3.633760148659348488e-03
7.688990980386734009e-02
7.690907269716262817e-02
-1.338004227727651596e-02
4.460696503520011902e-02
-5.539942532777786255e-02
-8.549433201551437378e-03
3.534714877605438232e-02
1.180656254291534424e-01
-4.965523723512887955e-03
2.546036057174205780e-02
4.077518731355667114e-02
-3.664011880755424500e-02
-9.388267062604427338e-03
-1.735512050800025463e-04
1.151352375745773315e-02
5.355648696422576904e-02
-4.729353263974189758e-02
-2.627336420118808746e-02
1.264485418796539307e-01
-1.852007955312728882e-02
4.729877784848213196e-02
-2.050455845892429352e-02
-1.228312868624925613e-02
7.478773593902587891e-02
-2.745463512837886810e-02
-2.808994799852371216e-02
1.660844534635543823e-01
9.679986163973808289e-03
1.831579580903053284e-02
5.428402498364448547e-02
1.143385022878646851e-01
2.237589508295059204e-01
-4.500325769186019897e-03
2.001441270112991333e-01
1.018894612789154053e-01
-2.290481701493263245e-02
-2.952654100954532623e-02
-4.875790793448686600e-03
-1.851306296885013580e-03
-2.659289352595806122e-02
9.930194169282913208e-02
1.852761022746562958e-02
1.639867201447486877e-02
-9.765513241291046143e-02
1.650273054838180542e-01
-3.164179995656013489e-02
9.302092716097831726e-03
-7.051635999232530594e-03
-4.462403431534767151e-02
-1.312173064798116684e-02
8.923424780368804932e-02
-2.198985777795314789e-02
-7.530237734317779541e-02
-4.749389365315437317e-02
6.295802444219589233e-02
-3.766079992055892944e-02
6.384751200675964355e-02
1.722635924816131592e-01
-5.125593394041061401e-03
-4.598509147763252258e-02
8.843778073787689209e-02
-2.053737826645374298e-02
-5.419651791453361511e-02
-1.354989875108003616e-02
-3.166293352842330933e-02
-5.529857054352760315e-02
-3.459206223487854004e-02
-2.193256281316280365e-02
-8.887542411684989929e-03
2.001797780394554138e-02
-2.380426228046417236e-02
1.156336143612861633e-01
3.039153292775154114e-02
5.222125723958015442e-02
3.098707459867000580e-02
6.742750853300094604e-02
1.892339624464511871e-02
-1.124374382197856903e-02
6.422542780637741089e-02
-1.173413544893264771e-01
1.927466988563537598e-01
-3.994464501738548279e-02
-2.543168701231479645e-02
-1.936131156980991364e-02
4.625895246863365173e-02
-2.127997390925884247e-02
-3.463855478912591934e-03
-2.707290463149547577e-02
1.973210647702217102e-02
-2.059292793273925781e-02
-2.758882753551006317e-02
-3.353451937437057495e-02
-2.891897223889827728e-02
1.267976164817810059e-01
1.494982093572616577e-01
-1.940093562006950378e-02
2.085941284894943237e-02
-1.101033296436071396e-02
2.749155461788177490e-02
7.401396334171295166e-02
6.511503458023071289e-02
-2.768810372799634933e-03
-5.053484812378883362e-02
-5.406270548701286316e-02
-3.874441608786582947e-02
-1.111025456339120865e-02
-6.428445875644683838e-02
3.032328002154827118e-02
-1.345483586192131042e-02
8.893177658319473267e-02
6.463168561458587646e-02
-2.064971439540386200e-02
-8.621374517679214478e-02
7.667847722768783569e-02
-2.214930392801761627e-02
-2.190704643726348877e-02
7.666475325822830200e-02
1.008417010307312012e-01
3.963425755500793457e-02
-1.918715657666325569e-03
-3.563301265239715576e-02
6.931105256080627441e-02
1.193621288985013962e-02
2.016563154757022858e-02
-8.803710341453552246e-02
-5.439350754022598267e-02
-1.235007494688034058e-02
-4.205537494271993637e-03
1.609403342008590698e-01
3.115365281701087952e-03
6.785026192665100098e-02
1.850216090679168701e-02
1.602891460061073303e-02
-3.187178447842597961e-02
1.968643814325332642e-01
-2.473662421107292175e-02
-4.808200057595968246e-03
-4.285107832401990891e-03
1.102319583296775818e-01
2.087066881358623505e-02
-2.430270053446292877e-02
6.160007417201995850e-02
8.062321692705154419e-02
-3.349315375089645386e-02
-1.405237708240747452e-03
2.192815206944942474e-02
2.330923080444335938e-01
-1.107728574424982071e-02
-3.316948562860488892e-02
-7.158726453781127930e-02
-1.054800301790237427e-02
8.575925976037979126e-02
-1.147096380591392517e-01
-8.287663757801055908e-02
-5.080181173980236053e-03
-1.453672721982002258e-02
-2.120603341609239578e-03
-1.570323109626770020e-02
-4.257656109984964132e-05
-2.660240046679973602e-02
1.979072242975234985e-01
1.206904575228691101e-01
1.055413708090782166e-01
-2.709775045514106750e-02
-1.177524682134389877e-02
-3.778596222400665283e-02
-2.518942393362522125e-02
-1.345108821988105774e-02
-3.624894842505455017e-02
9.589303284883499146e-02
-4.525501281023025513e-02
8.713196963071823120e-03
-4.040191881358623505e-03
4.348252713680267334e-02
-2.641695179045200348e-02
-2.963497489690780640e-02
-2.519492432475090027e-02
-3.468718007206916809e-02
5.522677674889564514e-04
1.938924752175807953e-02
-1.213417947292327881e-02
-3.763072192668914795e-02
3.407822921872138977e-03
-3.621646761894226074e-02
-2.997745014727115631e-02
1.538638770580291748e-01
5.314550921320915222e-02
-5.371048673987388611e-02
-2.138531953096389771e-02
-3.748723771423101425e-03
-1.866468600928783417e-02
-2.112192660570144653e-02
4.642365500330924988e-03
-3.869633749127388000e-02
-3.084360249340534210e-02
-4.883662611246109009e-02
-5.026869941502809525e-03
-4.341608285903930664e-02
-2.710667997598648071e-02
-4.641629010438919067e-02
-5.645556375384330750e-03
3.266983479261398315e-02
-3.704346343874931335e-02
1.354937404394149780e-01
3.176074475049972534e-02
-1.599895022809505463e-02
-5.108541809022426605e-03
2.246163412928581238e-02
7.635016739368438721e-02
-9.382667951285839081e-03
5.509119480848312378e-02
-3.630593791604042053e-02
-3.862504661083221436e-02
-5.933311209082603455e-02
-1.839888282120227814e-03
-3.611944615840911865e-02
-4.519972950220108032e-02
-2.368125692009925842e-02
1.815157756209373474e-02
-1.785645820200443268e-02
-4.890701174736022949e-02
-2.005829662084579468e-02
-7.693610340356826782e-02
-6.909973919391632080e-02
-7.215613499283790588e-03
-1.238589466083794832e-04
-3.654269129037857056e-02
-2.607385627925395966e-02
-5.560639500617980957e-02
-1.144344452768564224e-02
-2.590705640614032745e-02
1.185625325888395309e-02
3.135271370410919189e-02
1.597436517477035522e-01
-2.771267481148242950e-02
-1.988129504024982452e-02
8.014223724603652954e-02
9.668622165918350220e-02
-1.344657503068447113e-03
-6.158720236271619797e-03
-5.321789998561143875e-03
-3.063950501382350922e-02
3.683031722903251648e-02
1.073644161224365234e-01
-6.443023681640625000e-02
-2.714251913130283356e-02
8.046765625476837158e-02
-1.352822128683328629e-02
-3.207376599311828613e-02
-2.262580581009387970e-02
