-2.828735858201980591e-02
-2.848663739860057831e-02
-7.251940667629241943e-02
3.990877047181129456e-02
-2.414393797516822815e-02
-4.690540023148059845e-03
-4.690444562584161758e-03
-1.595655083656311035e-02
-1.239495724439620972e-02
-5.094186868518590927e-03
-2.534638904035091400e-02
-2.546934597194194794e-02
-1.887881197035312653e-02
-8.994082361459732056e-02
7.079321146011352539e-02
-2.337183104828000069e-03
-3.441104665398597717e-02
-5.401221662759780884e-02
-3.377271816134452820e-02
-2.188982814550399780e-02
-3.382165729999542236e-02
-3.332757204771041870e-02
-6.865834444761276245e-02
1.611142009496688843e-01
-3.314149752259254456e-02
-1.814090460538864136e-02
8.601225912570953369e-02
-1.419834792613983154e-02
-4.055081307888031006e-02
-5.073559936136007309e-03
-4.996318742632865906e-02
-2.422600053250789642e-02
-3.712891042232513428e-02
-8.878455264493823051e-04
-2.457817643880844116e-02
-4.879793152213096619e-02
1.808370947837829590e-01
-1.942110061645507812e-02
2.686569280922412872e-02
3.870501881465315819e-03
-3.359357267618179321e-02
-3.189414367079734802e-02
9.544412046670913696e-02
-1.182972360402345657e-02
4.297308251261711121e-02
6.753719598054885864e-02
-9.025168605148792267e-03
-7.025283761322498322e-03
-1.205900758504867554e-01
-3.111054189503192902e-02
-6.698734126985073090e-03
-4.219838231801986694e-02
-6.226374208927154541e-02
9.972425550222396851e-02
-3.874960169196128845e-02
-3.624576330184936523e-02
1.935102790594100952e-01
-3.565754368901252747e-02
1.125329285860061646e-01
-2.560692653059959412e-02
7.080399245023727417e-02
1.202924549579620361e-01
-1.406388822942972183e-02
6.481491029262542725e-02
-1.495313772466033697e-04
2.935723587870597839e-02
-6.677660346031188965e-02
-1.275837142020463943e-02
-1.741876266896724701e-02
-5.166308954358100891e-03
-1.689275354146957397e-02
-3.347261250019073486e-02
9.304557926952838898e-03
-3.787058964371681213e-02
5.058776214718818665e-02
5.083236098289489746e-02
4.433641582727432251e-02
6.450574845075607300e-02
-1.185041293501853943e-02
3.080352908000349998e-04
6.247427314519882202e-02
3.830971568822860718e-02
-2.987420931458473206e-02
-3.540433570742607117e-02
-2.871388010680675507e-02
-9.053903073072433472e-02
3.576287627220153809e-02
-3.644661605358123779e-02
9.240150451660156250e-02
-1.495475787669420242e-02
-2.366580441594123840e-02
4.607032239437103271e-02
-1.084662973880767822e-02
-1.109340414404869080e-01
-3.195276483893394470e-02
1.153586357831954956e-01
5.824241042137145996e-02
-2.573625929653644562e-02
1.231820285320281982e-01
2.923456765711307526e-02
-6.161149125546216965e-03
-7.790553849190473557e-03
5.559678375720977783e-02
-1.292022177949547768e-03
-3.350377827882766724e-02
-2.269709110260009766e-02
-6.016116216778755188e-02
-6.869890540838241577e-02
-6.644760817289352417e-02
1.706492006778717041e-01
-6.828229874372482300e-02
-4.861926659941673279e-03
-1.384683325886726379e-02
-7.023774087429046631e-02
1.150521561503410339e-01
-3.904922679066658020e-02
-7.953592389822006226e-02
2.778440527617931366e-02
-4.521022085100412369e-03
-4.848241433501243591e-02
-4.049490392208099365e-02
-8.491992950439453125e-03
-3.086462058126926422e-02
8.164090104401111603e-03
-1.172192115336656570e-02
8.240416646003723145e-02
1.015099212527275085e-01
-1.858425699174404144e-02
-1.884676702320575714e-02
-5.403390154242515564e-03
-1.825403608381748199e-02
-1.180413644760847092e-02
-2.788312360644340515e-02
5.688574537634849548e-02
-1.607314497232437134e-02
5.571573227643966675e-02
2.251324057579040527e-02
-5.640907958149909973e-02
-5.310157313942909241e-02
5.833782255649566650e-02
1.175343990325927734e-01
7.617159187793731689e-02
9.176910668611526489e-02
-3.003978356719017029e-02
-5.062430165708065033e-03
-7.008232921361923218e-02
5.150535143911838531e-03
-1.991443149745464325e-02
-6.977103650569915771e-03
-1.768672466278076172e-02
-1.929281745105981827e-03
-4.815375898033380508e-03
-8.929550647735595703e-03
-4.486186802387237549e-02
-3.169079869985580444e-02
-2.181964926421642303e-02
5.163291469216346741e-02
-2.598505280911922455e-02
-3.273924440145492554e-02
-3.492932766675949097e-02
-5.492978170514106750e-02
4.155265539884567261e-02
1.397765129804611206e-01
-3.480956330895423889e-02
-7.241808343678712845e-03
-2.589954063296318054e-02
1.463624387979507446e-01
-6.781955808401107788e-02
9.971977770328521729e-02
-5.250552785582840443e-04
-3.115233592689037323e-02
-4.891698807477951050e-02
5.835020542144775391e-02
-1.291002146899700165e-03
-2.440918050706386566e-02
-1.442392542958259583e-02
2.482431568205356598e-02
-4.696466401219367981e-02
-2.435473870718851686e-04
-1.615215279161930084e-02
-1.946312561631202698e-02
-7.203617691993713379e-02
-2.300914563238620758e-02
8.872686326503753662e-02
-8.416234701871871948e-02
-9.373122453689575195e-02
-4.004296660423278809e-02
-3.844796447083353996e-03
-5.441734101623296738e-03
-2.539943670853972435e-03
-3.463415801525115967e-02
-2.526190131902694702e-03
-2.114663459360599518e-02
-3.039638325572013855e-02
1.724898233078420162e-03
-2.335694152861833572e-03
-1.863275840878486633e-02
8.111599832773208618e-02
-8.388219401240348816e-03
5.866421014070510864e-02
-5.207999795675277710e-02
-2.253194153308868408e-02
-2.088168635964393616e-02
2.580123543739318848e-01
-2.648824360221624374e-03
-5.467101000249385834e-03
-9.346242062747478485e-03
7.122875750064849854e-02
1.334789395332336426e-01
-3.496004865155555308e-05
-9.474163874983787537e-03
-6.727130711078643799e-02
-1.415513921529054642e-02
-5.213275551795959473e-02
-9.506078809499740601e-02
2.645483799278736115e-02
-1.664797589182853699e-02
-1.209506019949913025e-02
1.693643927574157715e-01
-4.907457530498504639e-02
1.153172403573989868e-01
-5.974113941192626953e-03
4.906194284558296204e-03
-6.930535892024636269e-04
3.920237720012664795e-02
1.342654810287058353e-03
9.706423431634902954e-02
9.682419151067733765e-02
-6.722706835716962814e-03
-2.670110762119293213e-02
-5.269167944788932800e-02
-4.526768811047077179e-03
-7.005960680544376373e-03
-3.994502127170562744e-02
-2.343790046870708466e-02
-2.721594646573066711e-02
1.919539459049701691e-02
-4.824381321668624878e-02
-1.282792910933494568e-02
-8.178472518920898438e-02
-1.002013031393289566e-02
-3.818979114294052124e-02
-2.574866078794002533e-02
-9.837345033884048462e-02
-4.142577573657035828e-02
-7.722584996372461319e-03
-2.587860077619552612e-02
6.760398298501968384e-02
-9.908722713589668274e-03
6.615974009037017822e-02
-3.784563392400741577e-02
-2.464471012353897095e-02
-4.048047959804534912e-02
-1.938617043197154999e-02
4.028221964836120605e-02
9.282004833221435547e-02
