5.085171759128570557e-02
-8.266902528703212738e-03
-2.771658077836036682e-02
8.648547530174255371e-02
-2.418424934148788452e-02
-1.060081738978624344e-02
-4.516238812357187271e-03
1.482903510332107544e-01
4.334461316466331482e-02
1.670015305280685425e-01
-1.299258135259151459e-02
-1.728728041052818298e-02
1.770576089620590210e-01
-3.302505239844322205e-02
-9.661027230322360992e-03
-3.697788342833518982e-02
-1.556896255351603031e-03
-2.081956341862678528e-02
-1.056931763887405396e-01
-3.815418574959039688e-03
-6.450714170932769775e-02
-3.454756690189242363e-03
-2.702747471630573273e-02
-1.995142083615064621e-03
1.128024980425834656e-02
-3.365945816040039062e-02
-2.020471729338169098e-02
-4.624973516911268234e-03
-3.290588781237602234e-02
2.224466204643249512e-02
1.437798589468002319e-01
-3.893342986702919006e-02
-1.862234494183212519e-04
-2.336567267775535583e-02
5.243694037199020386e-02
-1.482107676565647125e-02
5.060214921832084656e-02
1.775173656642436981e-02
-1.050097215920686722e-02
-2.475727908313274384e-02
-2.671987190842628479e-02
-6.024503149092197418e-03
1.079862490296363831e-01
-1.169909071177244186e-02
-2.547348849475383759e-02
-3.759811818599700928e-02
-4.948994144797325134e-03
3.901346772909164429e-02
6.678536534309387207e-02
-1.200180780142545700e-02
-9.684889577329158783e-03
-7.489662617444992065e-03
-2.953808195888996124e-02
8.129411190748214722e-02
5.343840271234512329e-02
-5.150081589818000793e-03
-1.825422421097755432e-02
5.511197727173566818e-03
-5.853564012795686722e-03
9.809780865907669067e-02
-1.504976302385330200e-02
-2.080966159701347351e-02
1.269334256649017334e-01
-2.370035648345947266e-02
-1.505200564861297607e-02
-4.611215088516473770e-03
-4.743697121739387512e-02
-2.550359629094600677e-02
-3.873131051659584045e-02
-2.708176616579294205e-03
-1.237254776060581207e-02
-3.667446970939636230e-02
-7.211418449878692627e-02
-1.663633994758129120e-02
-5.476378835737705231e-03
-1.148379221558570862e-02
-1.887147431261837482e-03
1.088615730404853821e-01
-2.468599379062652588e-02
5.729535594582557678e-02
-6.270942091941833496e-02
-9.122904390096664429e-03
-1.191344950348138809e-02
-6.390792876482009888e-02
-5.877550691366195679e-03
-2.901736274361610413e-02
-5.711049214005470276e-02
-1.444630976766347885e-02
-2.661874145269393921e-02
1.219657529145479202e-02
-1.571210101246833801e-02
-7.647882215678691864e-03
-3.048981167376041412e-02
-1.855851383879780769e-03
-8.927001617848873138e-03
-2.821863442659378052e-02
1.066811755299568176e-02
2.960126148536801338e-03
5.331154540181159973e-02
-1.935163885354995728e-02
-1.193384453654289246e-02
-7.538547273725271225e-03
1.527185924351215363e-02
7.941761612892150879e-02
-3.080041892826557159e-02
-3.380234539508819580e-02
-3.867768682539463043e-03
-3.631921717897057533e-03
-3.905512858182191849e-03
1.281769722700119019e-01
-1.175913307815790176e-02
-5.843740329146385193e-02
-9.900629520416259766e-03
1.306828558444976807e-01
-2.042419649660587311e-02
9.788667410612106323e-02
9.962250292301177979e-02
-2.725982852280139923e-02
-3.653014451265335083e-02
1.260572969913482666e-01
-6.203681114129722118e-04
-1.418407633900642395e-02
-1.437067519873380661e-02
-2.165411226451396942e-02
-5.351781845092773438e-02
4.562996327877044678e-02
-2.143656648695468903e-02
3.990908619016408920e-03
-1.964794844388961792e-02
-4.497023671865463257e-02
-9.156315773725509644e-02
-3.933365270495414734e-02
-2.090113610029220581e-02
1.191830635070800781e-01
1.138474717736244202e-01
-3.451470518484711647e-03
1.191549450159072876e-01
-4.423568770289421082e-02
3.894986957311630249e-02
-2.037629485130310059e-02
2.062264829874038696e-01
-3.352709114551544189e-02
1.653006859123706818e-02
-5.793304368853569031e-02
-6.392989773303270340e-03
1.329721808433532715e-01
-9.033128619194030762e-03
-6.519880844280123711e-05
-1.898788660764694214e-02
-2.632037922739982605e-02
1.393650174140930176e-01
9.959585964679718018e-02
-1.404745038598775864e-02
-1.029720753431320190e-01
1.473346054553985596e-01
1.136127188801765442e-01
6.384225189685821533e-02
-3.288678452372550964e-02
2.064919471740722656e-02
-1.675031846389174461e-03
-2.006734721362590790e-02
-6.801080889999866486e-03
8.310837298631668091e-02
-3.914607223123311996e-03
-8.116338402032852173e-02
-2.842664904892444611e-02
6.881763041019439697e-02
-4.759372398257255554e-02
-4.402040690183639526e-02
1.375921219587326050e-01
-1.202435814775526524e-03
-5.561853200197219849e-02
1.091962680220603943e-01
-1.227777800522744656e-03
-4.289812222123146057e-02
-8.492307737469673157e-03
1.152803972363471985e-01
1.512896567583084106e-01
-2.119346987456083298e-03
-1.421237457543611526e-02
-2.005612291395664215e-02
-3.509107604622840881e-02
1.322281062602996826e-01
-3.063124045729637146e-02
-2.462790720164775848e-02
8.701989054679870605e-02
-3.419442474842071533e-02
-4.444131162017583847e-03
-3.202929347753524780e-02
-1.198532758280634880e-03
-3.949048370122909546e-02
-1.493997778743505478e-02
3.679367899894714355e-02
-2.732644416391849518e-02
-1.255537196993827820e-02
-7.317946851253509521e-02
-1.025778986513614655e-02
-2.610113658010959625e-02
-6.595525890588760376e-03
-4.014309868216514587e-02
-4.363232292234897614e-03
-1.093174447305500507e-03
3.650847077369689941e-02
-1.004406809806823730e-02
-1.102754753082990646e-02
-1.924008503556251526e-02
1.202401220798492432e-01
-4.682682920247316360e-03
-4.883413203060626984e-04
-3.661742433905601501e-02
-1.516305096447467804e-02
-2.495327219367027283e-02
1.527356635779142380e-02
-1.234929356724023819e-02
-2.618507482111454010e-02
-2.723233960568904877e-02
1.414637118577957153e-01
2.756658010184764862e-02
-6.935150828212499619e-03
-3.849168866872787476e-02
-1.021128147840499878e-02
-7.994240149855613708e-03
-1.888404600322246552e-02
-4.353622789494693279e-04
-2.389631606638431549e-02
-2.197059057652950287e-02
-5.717699881643056870e-03
-3.363152593374252319e-02
1.007846742868423462e-01
-1.060869172215461731e-01
-1.267521455883979797e-02
-3.904754761606454849e-03
-3.381266072392463684e-02
-6.439345888793468475e-03
-2.006722800433635712e-02
-2.794440835714340210e-02
-2.615008316934108734e-02
-2.156259678304195404e-02
-2.113974280655384064e-02
-9.900641627609729767e-03
-1.391517114825546741e-03
-2.434153109788894653e-02
7.803723216056823730e-02
4.586012288928031921e-02
-4.226479679346084595e-03
-2.911353483796119690e-03
-2.034984529018402100e-03
-1.178616937249898911e-02
6.025620177388191223e-02
-3.030601888895034790e-02
-5.990493670105934143e-02
3.125874325633049011e-02
-3.758834302425384521e-02
-2.285187505185604095e-02
-2.444186061620712280e-02
-4.516858980059623718e-02
-6.899231672286987305e-02
-6.660421378910541534e-03
5.002851411700248718e-02
-2.758573181927204132e-02
-2.634875290095806122e-02
-3.500508889555931091e-02
1.244211420416831970e-01
-6.653354316949844360e-02
-4.711548238992691040e-02
-1.179173123091459274e-03
-5.823206901550292969e-02
-5.387804657220840454e-02
3.920844197273254395e-02
-4.644066095352172852e-03
-6.231920421123504639e-02
-6.334010511636734009e-02
2.847378700971603394e-02
2.198356203734874725e-02
-5.287829786539077759e-02
-2.107097022235393524e-02
-9.794040583074092865e-03
-4.239627718925476074e-02
-5.679092835634946823e-03
1.770700514316558838e-02
-1.956052891910076141e-02
3.693963587284088135e-02
-7.160181179642677307e-03
-2.151208743453025818e-02
4.207911342382431030e-02
3.700055554509162903e-02
-1.827301271259784698e-02
-2.931139618158340454e-02
-8.981472346931695938e-04
-6.153472512960433960e-02
4.016890656203031540e-03
-2.221991494297981262e-02
-1.767630456015467644e-03
-2.157430164515972137e-02
-3.203888772986829281e-04
-1.123458445072174072e-01
-4.715584963560104370e-02
-4.781909286975860596e-03
-2.728069201111793518e-03
-6.303145084530115128e-03
-3.397048916667699814e-03
1.308217197656631470e-01
1.012185886502265930e-01
1.121167279779911041e-02
-8.147612959146499634e-02
7.070656865835189819e-02
-8.071000128984451294e-02
-5.404562130570411682e-02
1.620389372110366821e-01
6.701019406318664551e-02
-7.834494113922119141e-03
1.680733412504196167e-01
-3.160786256194114685e-02
5.740341916680335999e-02
-2.401455864310264587e-02
-5.575950071215629578e-02
-1.471028663218021393e-03
-3.134473040699958801e-02
-2.771123684942722321e-02
-5.550318583846092224e-02
-7.404280826449394226e-03
-4.084860906004905701e-03
-2.792669646441936493e-02
-2.775422297418117523e-02
6.205670908093452454e-02
-4.205231741070747375e-02
1.430619508028030396e-01
-3.664325922727584839e-02
1.653720997273921967e-02
-9.246080182492733002e-03
-1.298275124281644821e-02
-2.612049132585525513e-02
-2.515822183340787888e-03
6.862066686153411865e-02
-2.150569483637809753e-02
-3.966808319091796875e-02
-5.684340372681617737e-02
5.666242912411689758e-03
5.678495392203330994e-02
4.102132841944694519e-02
-1.097257900983095169e-02
-6.818715948611497879e-03
-4.553179722279310226e-03
-4.029055684804916382e-02
-3.767513483762741089e-02
-2.211430575698614120e-03
-3.858758881688117981e-02
-2.216915972530841827e-02
-5.513611435890197754e-02
-8.332505822181701660e-03
-2.543577365577220917e-02
-2.569514326751232147e-02
-3.416995331645011902e-02
-7.079942151904106140e-03
1.609327793121337891e-01
-4.302103072404861450e-02
-3.173356410115957260e-03
1.032824888825416565e-01
5.076885223388671875e-02
6.292179226875305176e-02
-9.146022796630859375e-02
3.315049037337303162e-02
-2.125214552506804466e-03
-3.396932408213615417e-02
-2.465099096298217773e-02
-1.209471840411424637e-03
-3.324398770928382874e-03
-1.991759799420833588e-02
-8.288650773465633392e-03
-6.836576759815216064e-02
-1.656860671937465668e-02
-1.699758879840373993e-02
-2.668448910117149353e-02
5.840382352471351624e-02
-5.093397572636604309e-02
-4.343233630061149597e-02
-2.382012270390987396e-02
-1.380516123026609421e-02
1.479641534388065338e-03
-2.576813660562038422e-02
-1.882772520184516907e-02
-2.995990775525569916e-02
-2.515971474349498749e-02
1.522391736507415771e-01
