-1.651325076818466187e-02
-7.109705824404954910e-03
-7.388339191675186157e-02
-4.747075960040092468e-02
-3.753682598471641541e-02
-4.621561616659164429e-02
-6.990589201450347900e-02
8.449807763099670410e-02
4.720588773488998413e-02
-1.919507049024105072e-02
-6.508368998765945435e-03
-1.624565571546554565e-02
2.202278265031054616e-04
-5.938098579645156860e-02
-4.465654119849205017e-02
-2.344039641320705414e-02
-2.252663951367139816e-03
1.718564927577972412e-01
5.127274990081787109e-02
-2.326910383999347687e-03
-3.843766078352928162e-02
6.757495552301406860e-02
-1.675478555262088776e-02
6.295953411608934402e-03
1.797383464872837067e-02
-4.588404297828674316e-02
-3.025589510798454285e-02
-2.662988565862178802e-02
1.147855222225189209e-01
-9.381504729390144348e-03
1.622002571821212769e-01
-3.813250362873077393e-02
1.752873510122299194e-02
-2.127683721482753754e-02
-3.806585446000099182e-02
-4.738420993089675903e-02
-3.796443343162536621e-02
-1.525946855545043945e-01
-1.035941299051046371e-02
5.426245555281639099e-02
-1.202809251844882965e-02
2.827590703964233398e-02
-1.584174484014511108e-02
-4.533131793141365051e-02
-2.256800606846809387e-02
-1.844994910061359406e-02
-4.939543828368186951e-02
-2.426291583105921745e-03
6.794679164886474609e-02
-2.882900834083557129e-02
-6.385806947946548462e-02
-2.157905325293540955e-02
6.690502166748046875e-02
-2.060752734541893005e-02
-1.958457008004188538e-02
-1.276018097996711731e-02
-3.111740387976169586e-02
-4.104409739375114441e-02
-4.007593542337417603e-02
-3.796306625008583069e-02
-6.299789994955062866e-02
8.320474624633789062e-02
-1.323329284787178040e-02
-3.712712600827217102e-02
1.878647133708000183e-02
-2.023328095674514771e-02
-1.363529413938522339e-01
-1.041206531226634979e-02
7.126671820878982544e-02
-4.794566892087459564e-03
-2.502815797924995422e-02
1.408663243055343628e-01
5.880782753229141235e-02
-2.594324387609958649e-02
-5.260657519102096558e-02
3.794708475470542908e-02
-5.980622023344039917e-03
1.278170645236968994e-01
5.085285753011703491e-02
2.284714765846729279e-02
-8.638322353363037109e-02
-4.855708684772253036e-03
-3.934197127819061279e-03
-7.955542765557765961e-03
-3.931104764342308044e-02
-1.878721266984939575e-02
-3.660620423033833504e-03
-2.715934999287128448e-02
1.445416212081909180e-01
-2.061973512172698975e-02
-2.589833922684192657e-02
-7.344050705432891846e-02
-2.544713579118251801e-02
1.056703925132751465e-01
-3.364227339625358582e-02
1.043162494897842407e-02
-9.412056766450405121e-03
7.042667362838983536e-03
3.640056401491165161e-02
5.888319388031959534e-02
-2.199650555849075317e-02
-1.053295806050300598e-01
-6.106182187795639038e-02
9.011504799127578735e-02
-1.239792723208665848e-02
-3.940101340413093567e-02
3.930212184786796570e-02
-3.428658470511436462e-02
-3.583177924156188965e-02
-1.852168887853622437e-02
-2.356415381655097008e-03
7.333731651306152344e-02
-1.061445847153663635e-02
8.877195417881011963e-02
-5.212636664509773254e-02
-4.560911282896995544e-02
-2.348092943429946899e-02
-5.148652568459510803e-02
1.281633377075195312e-01
-4.019676521420478821e-02
2.920445613563060760e-02
-4.663828760385513306e-02
-3.524266928434371948e-02
-5.416056606918573380e-03
-1.039424724876880646e-02
-3.971222415566444397e-02
2.136312983930110931e-02
-3.770645707845687866e-03
-2.903777919709682465e-02
-4.834337625652551651e-03
1.389369815587997437e-01
-8.489460684359073639e-03
-5.891434848308563232e-03
4.783885553479194641e-02
1.032247841358184814e-01
8.670418709516525269e-02
-1.379882451146841049e-02
-1.765491068363189697e-02
-4.581535980105400085e-02
-2.525878138840198517e-02
-6.265205889940261841e-02
-2.780277654528617859e-02
-5.830825492739677429e-02
-2.249137760372832417e-04
7.488252222537994385e-02
-4.034401383250951767e-03
-2.868290804326534271e-02
-4.657521471381187439e-02
-2.987492829561233521e-02
7.213205099105834961e-02
-2.487722411751747131e-02
3.306713327765464783e-02
-2.151843393221497536e-03
9.995245933532714844e-02
-5.928588658571243286e-02
-2.611297927796840668e-02
8.027596399188041687e-03
-8.727204985916614532e-03
-2.844156930223107338e-03
7.400467991828918457e-02
-2.634054049849510193e-02
7.695478200912475586e-02
4.195548221468925476e-02
-7.167731877416372299e-03
7.198995910584926605e-03
-3.389297425746917725e-02
2.376885619014501572e-03
5.833007022738456726e-02
-8.309632539749145508e-03
-5.691238492727279663e-02
-1.106553804129362106e-02
9.587774053215980530e-03
-6.273959577083587646e-02
-3.555987030267715454e-02
-3.437526896595954895e-02
-5.324668809771537781e-02
-3.564453870058059692e-02
-6.815249100327491760e-03
-8.237139321863651276e-03
-1.508104801177978516e-02
-4.421203956007957458e-02
-3.263765573501586914e-02
-9.449323639273643494e-03
8.212734758853912354e-02
-5.178495869040489197e-02
-6.652940995991230011e-03
-4.480221122503280640e-02
-5.393234267830848694e-02
-3.112690709531307220e-02
-2.535893395543098450e-02
3.548567369580268860e-02
-3.152350336313247681e-02
