2.206310816109180450e-02
-3.580209612846374512e-02
-2.502117119729518890e-02
-5.518365278840065002e-02
-2.857948280870914459e-02
-7.310466468334197998e-02
-9.413074702024459839e-03
3.035204671323299408e-02
3.038902953267097473e-02
-4.351330548524856567e-02
-4.513993114233016968e-02
-5.883828550577163696e-02
-1.117680147290229797e-01
-6.488199532032012939e-02
-1.446062698960304260e-02
2.637458033859729767e-03
-2.875681594014167786e-02
-3.274730639532208443e-03
9.118328988552093506e-02
1.939294673502445221e-02
6.476042419672012329e-02
-1.081739645451307297e-02
9.951143525540828705e-03
6.183310225605964661e-02
6.039427593350410461e-02
9.275129996240139008e-03
7.452855259180068970e-02
-1.228387877345085144e-01
-1.447489261627197266e-01
-1.217093020677566528e-01
-9.587454050779342651e-02
-1.744287759065628052e-01
-7.666063308715820312e-02
-9.790845215320587158e-02
-8.993063867092132568e-02
-6.643609702587127686e-02
8.757400326430797577e-03
-6.286386400461196899e-02
-4.371175542473793030e-02
-7.878343760967254639e-02
-3.997130692005157471e-02
-5.973986908793449402e-02
1.324714161455631256e-02
6.007578223943710327e-02
8.319481462240219116e-02
1.392326503992080688e-02
3.937659412622451782e-02
2.812569960951805115e-02
-4.233247134834527969e-03
-4.983003064990043640e-02
6.575893494300544262e-04
1.200076416134834290e-01
7.868008315563201904e-02
8.597406744956970215e-02
7.927766442298889160e-02
5.852967128157615662e-02
7.216952741146087646e-02
2.676954679191112518e-02
-4.283368960022926331e-02
-2.754322066903114319e-02
7.071911543607711792e-02
5.903931334614753723e-02
4.811071977019309998e-02
-5.788951739668846130e-02
-5.520743317902088165e-03
-3.342108428478240967e-02
7.342744618654251099e-02
4.469684138894081116e-02
1.346822082996368408e-02
1.814887393265962601e-03
-3.439686819911003113e-02
-1.858923397958278656e-02
-7.078188657760620117e-02
-7.533840835094451904e-02
-3.901563584804534912e-02
-2.175538241863250732e-02
-4.780438542366027832e-02
5.490257870405912399e-03
-4.816543310880661011e-02
-2.697632834315299988e-02
2.260571345686912537e-02
7.591522485017776489e-02
8.213919401168823242e-02
8.106931298971176147e-02
-1.925314310938119888e-03
-9.023596532642841339e-03
3.371902927756309509e-02
7.491937279701232910e-02
-4.551846068352460861e-04
1.641577342525124550e-03
2.357989549636840820e-02
1.006601471453905106e-02
1.647839695215225220e-02
-7.422860711812973022e-03
1.622803881764411926e-02
-2.349698729813098907e-02
-3.975013270974159241e-02
3.131422400474548340e-02
2.072733477689325809e-04
-2.259012684226036072e-02
-1.830019429326057434e-02
2.417854033410549164e-02
-1.865061186254024506e-02
-4.327881708741188049e-02
-4.714189842343330383e-02
-4.492856562137603760e-02
-1.040351949632167816e-02
1.353031210601329803e-02
4.156986996531486511e-02
2.190850861370563507e-02
6.092863157391548157e-02
6.870798021554946899e-02
7.999115437269210815e-02
4.221277683973312378e-02
1.708918134681880474e-03
-4.966051783412694931e-03
-3.541009500622749329e-02
-5.508923903107643127e-03
-4.371283948421478271e-02
-1.923514530062675476e-02
-1.011088564991950989e-01
-1.100485678762197495e-02
-2.374319825321435928e-03
4.650243371725082397e-02
4.713509231805801392e-02
-1.385413110256195068e-03
1.465616188943386078e-02
-3.286666423082351685e-02
-4.557432141155004501e-03
1.750178076326847076e-02
-2.130598947405815125e-02
6.803789176046848297e-03
2.505600079894065857e-02
5.466785281896591187e-03
-8.330380544066429138e-03
6.902580615133047104e-03
3.608592227101325989e-02
5.909315869212150574e-02
-6.212951615452766418e-02
-5.174697190523147583e-02
-2.160706091672182083e-03
-2.492051571607589722e-02
5.226710066199302673e-02
-1.412880793213844299e-02
-1.808591373264789581e-02
-1.781254890374839306e-03
3.204406797885894775e-02
-1.071681547909975052e-02
-3.217419609427452087e-02
5.893268622457981110e-03
9.029373526573181152e-03
2.579417545348405838e-03
4.710282012820243835e-02
2.564539574086666107e-02
-1.181542500853538513e-02
3.916798904538154602e-02
-6.133867427706718445e-02
-4.516172781586647034e-02
1.525456272065639496e-02
5.142231285572052002e-02
5.663657188415527344e-02
1.150993537157773972e-02
-4.461729899048805237e-02
-2.607002295553684235e-02
-2.535702101886272430e-02
-2.476859651505947113e-02
-8.384824544191360474e-02
-7.194843888282775879e-02
9.508674032986164093e-03
-1.144620496779680252e-02
4.175064340233802795e-02
2.002192288637161255e-02
-3.613623604178428650e-02
-2.275534160435199738e-02
2.686941437423229218e-02
9.000252000987529755e-03
-2.496748045086860657e-02
-2.035132609307765961e-02
-4.748534038662910461e-02
1.383921038359403610e-02
1.180002815090119839e-03
-4.559881612658500671e-02
-2.199155278503894806e-02
-1.937753148376941681e-02
-4.377187788486480713e-02
-1.697133108973503113e-02
8.069286122918128967e-03
9.160754270851612091e-03
1.067437883466482162e-02
-9.083630517125129700e-03
-1.891066879034042358e-02
5.597174167633056641e-02
-3.848465159535408020e-02
6.616026628762483597e-03
2.854204550385475159e-02
1.645434275269508362e-02
1.732992567121982574e-02
6.437982618808746338e-02
-3.260681033134460449e-02
-8.748637512326240540e-03
-4.244703799486160278e-02
-2.425996400415897369e-02
-6.795851886272430420e-02
-2.311955392360687256e-02
-2.771330997347831726e-02
-5.646847933530807495e-02
9.071370586752891541e-03
1.643639430403709412e-02
-1.964720711112022400e-02
3.860315307974815369e-02
-7.510324940085411072e-03
-9.961730800569057465e-03
-5.776548385620117188e-02
4.950917139649391174e-02
5.448495596647262573e-02
4.317297413945198059e-02
8.918390609323978424e-03
-2.511511370539665222e-02
-1.558446139097213745e-02
1.601047441363334656e-02
4.983087629079818726e-02
6.025713682174682617e-02
-1.822607405483722687e-02
5.552647262811660767e-02
4.900958389043807983e-02
-9.674293920397758484e-03
2.597035467624664307e-02
-4.826032090932130814e-03
-1.432659570127725601e-02
-4.882555454969406128e-02
-3.796136006712913513e-02
6.066199392080307007e-03
6.371602881699800491e-03
-2.528119087219238281e-02
2.533780876547098160e-03
1.845061220228672028e-02
1.294191274791955948e-02
5.862201005220413208e-02
9.385677985846996307e-03
6.415756046772003174e-02
-3.716474864631891251e-03
-3.394607454538345337e-02
5.083973705768585205e-02
-5.812791734933853149e-02
-2.596599794924259186e-02
-5.856361240148544312e-02
-2.892321534454822540e-02
-1.281995233148336411e-02
-2.178729325532913208e-02
4.199684038758277893e-02
-5.551994219422340393e-02
-1.055955886840820312e-02
-2.709592878818511963e-02
-6.807655841112136841e-02
-2.701236493885517120e-02
2.298169583082199097e-02
6.097539793699979782e-03
-4.744029603898525238e-03
4.558464884757995605e-02
3.160629421472549438e-02
6.877578049898147583e-02
1.086409552954137325e-03
2.482905052602291107e-03
4.365587979555130005e-02
-3.060639649629592896e-02
-1.523606106638908386e-02
7.846478372812271118e-03
2.029595151543617249e-02
6.226093322038650513e-02
4.045781120657920837e-02
3.943704813718795776e-02
-2.995402924716472626e-02
-4.638776183128356934e-03
1.620876719243824482e-03
-3.024989925324916840e-02
-1.922660693526268005e-02
-3.044214472174644470e-02
-3.555909264832735062e-03
-6.762700155377388000e-03
1.019145548343658447e-02
-1.854375749826431274e-02
-4.196536727249622345e-03
6.768143066437914968e-05
9.746047668159008026e-03
3.719207271933555603e-02
5.622697249054908752e-02
5.674359574913978577e-02
6.160312145948410034e-02
1.399907656013965607e-02
-5.490827374160289764e-03
4.718711599707603455e-02
-6.131052225828170776e-02
-8.848128467798233032e-02
-7.006800174713134766e-02
-2.325716800987720490e-02
5.241264589130878448e-03
7.169124204665422440e-03
-4.971519112586975098e-02
-1.999615319073200226e-02
1.263547036796808243e-02
-2.476445585489273071e-02
-5.737794935703277588e-02
4.231719300150871277e-02
1.113388780504465103e-02
4.787784069776535034e-02
3.943136706948280334e-02
-4.573375731706619263e-02
-1.507224440574645996e-01
-8.597756922245025635e-02
-6.358990073204040527e-02
-1.245284304022789001e-01
-6.101993843913078308e-02
-7.216461747884750366e-02
-1.008343845605850220e-01
-1.040880801156163216e-03
-1.767015457153320312e-02
-4.398318007588386536e-02
-2.670308202505111694e-02
-4.753277450799942017e-02
-2.778370305895805359e-02
8.349229581654071808e-03
-3.412199765443801880e-02
-8.015971630811691284e-02
2.275733649730682373e-02
1.177329290658235550e-02
-3.299322724342346191e-02
2.085368707776069641e-02
-7.324600219726562500e-02
-9.209794551134109497e-02
-5.954590067267417908e-02
-2.745949849486351013e-02
-1.404661498963832855e-02
-8.529472351074218750e-02
1.402505114674568176e-02
-8.281251415610313416e-03
-3.610325604677200317e-02
-3.035947680473327637e-02
-4.898474086076021194e-03
-5.113986134529113770e-02
-2.220425941050052643e-02
-6.114809587597846985e-02
-9.343301877379417419e-03
-2.482646517455577850e-02
2.747826278209686279e-03
9.876348078250885010e-03
-1.508579682558774948e-02
-5.124369636178016663e-02
-1.349271088838577271e-02
2.211427874863147736e-02
-2.333355881273746490e-02
1.282269600778818130e-02
-3.477507457137107849e-02
-6.355198472738265991e-02
-4.874002188444137573e-03
-1.092383451759815216e-02
2.257708460092544556e-02
2.555472403764724731e-02
1.172155700623989105e-02
-5.477396771311759949e-03
9.001570753753185272e-03
1.793035119771957397e-02
4.064840450882911682e-02
5.109281092882156372e-02
3.550880029797554016e-02
-1.612287946045398712e-02
4.604424536228179932e-02
3.583548590540885925e-02
1.369028538465499878e-02
-2.590708062052726746e-02
1.997744897380471230e-03
3.524717409163713455e-03
-2.790399827063083649e-02
-5.035997554659843445e-02
-6.979934871196746826e-02
-7.091750204563140869e-02
2.598764933645725250e-02
-4.506855737417936325e-03
-3.305017203092575073e-02
2.400614088401198387e-03
-3.711872175335884094e-02
4.435709118843078613e-02
-3.205552324652671814e-02
-9.758294560015201569e-03
-4.721876233816146851e-02
-3.616398898884654045e-03
-2.810081653296947479e-02
3.510143375024199486e-03
-7.480769604444503784e-02
-7.612350583076477051e-02
3.466608747839927673e-02
-2.974883839488029480e-02
-1.288814097642898560e-01
-3.694862127304077148e-02
-4.380602017045021057e-02
-1.377199031412601471e-02
-3.159930557012557983e-02
-2.375344000756740570e-02
-8.025083690881729126e-02
-1.020293030887842178e-02
2.776203211396932602e-03
2.139613404870033264e-02
1.822939515113830566e-02
-3.600553795695304871e-02
-5.951510369777679443e-02
-6.884588859975337982e-03
-4.295327141880989075e-02
-1.960077881813049316e-02
2.075191587209701538e-02
-1.603947207331657410e-02
-6.112292408943176270e-02
1.251545734703540802e-02
-1.892389915883541107e-02
1.404716912657022476e-02
3.044234588742256165e-02
-1.077371612191200256e-01
-1.409747898578643799e-01
-2.128531225025653839e-02
-1.083284765481948853e-01
-1.242793872952461243e-01
-1.179122179746627808e-01
-9.003644436597824097e-02
-7.874801009893417358e-02
1.589589379727840424e-02
-8.573846518993377686e-02
-1.037747710943222046e-01
-1.098832115530967712e-02
-1.255674064159393311e-01
-1.793527007102966309e-01
-6.101757287979125977e-02
-3.058690950274467468e-02
4.878668580204248428e-03
3.280146047472953796e-02
-2.319697476923465729e-02
-7.806900143623352051e-02
-2.470748126506805420e-02
-3.254374489188194275e-02
-3.678711503744125366e-02
-5.007766932249069214e-02
2.485018223524093628e-02
-2.206666022539138794e-02
2.455976791679859161e-03
-2.171747200191020966e-02
-2.052620425820350647e-02
-5.088812485337257385e-02
-5.064434558153152466e-02
-4.350910708308219910e-02
-3.519359976053237915e-02
-1.271118596196174622e-02
-1.584865339100360870e-02
1.840326935052871704e-02
-3.405758738517761230e-02
2.596506290137767792e-02
-1.008341554552316666e-03
-2.646768838167190552e-02
-9.066911414265632629e-03
3.570628585293889046e-03
-3.177869692444801331e-02
-2.204596064984798431e-02
-2.981713041663169861e-03
-4.044687747955322266e-02
-1.079423055052757263e-01
-8.436510711908340454e-02
6.954469718039035797e-04
-3.770101815462112427e-02
-6.586085259914398193e-02
-3.033784031867980957e-02
-7.059831172227859497e-02
1.438068691641092300e-02
-2.954146824777126312e-02
1.958933426067233086e-03
2.507225424051284790e-02
3.623862192034721375e-02
-1.382846618071198463e-03
7.566764950752258301e-03
-4.120073840022087097e-02
-2.380254864692687988e-02
4.125113412737846375e-02
3.442649496719241142e-03
2.312718890607357025e-02
-4.057335853576660156e-02
-2.552975341677665710e-02
-8.224259316921234131e-02
-7.776928693056106567e-02
-5.742029286921024323e-03
-2.093678899109363556e-02
-3.800138458609580994e-02
-1.494996994733810425e-02
2.915621735155582428e-03
-3.579367324709892273e-02
1.341049000620841980e-02
-1.962398551404476166e-02
-6.439320743083953857e-02
1.909130625426769257e-02
2.513910830020904541e-02
-3.446155041456222534e-02
2.335305511951446533e-02
-3.545379638671875000e-02
-6.646803021430969238e-02
-4.463635757565498352e-02
1.716770417988300323e-02
6.469608284533023834e-03
9.480445832014083862e-02
5.226773768663406372e-02
6.965200603008270264e-02
-4.558238387107849121e-02
-6.039698049426078796e-02
-2.415219694375991821e-02
-1.652124151587486267e-02
-1.205158457159996033e-01
-8.094444125890731812e-02
-5.392801761627197266e-02
-2.529030106961727142e-02
1.291905809193849564e-02
-4.311112686991691589e-02
-1.958557777106761932e-02
1.825891435146331787e-02
6.031974218785762787e-03
-1.657179556787014008e-02
-3.847632929682731628e-02
6.316250562667846680e-02
4.380548000335693359e-02
3.541652485728263855e-02
2.368354611098766327e-02
-2.282978780567646027e-02
-8.464842103421688080e-04
-2.638364769518375397e-02
-1.739289052784442902e-02
2.645733579993247986e-02
1.710106432437896729e-02
1.188325788825750351e-02
-6.014013197273015976e-03
-3.341880068182945251e-02
-8.271080255508422852e-02
-6.973955780267715454e-02
-5.403225868940353394e-02
-9.663224220275878906e-02
-1.529128104448318481e-01
-8.666488528251647949e-02
-7.480899244546890259e-02
-6.276977807283401489e-02
1.173385884612798691e-02
5.104565992951393127e-03
2.163998596370220184e-02
-9.177548810839653015e-03
-4.680171981453895569e-02
9.695721790194511414e-03
3.784938901662826538e-02
5.512886121869087219e-02
3.005400300025939941e-02
4.995049163699150085e-02
5.856180563569068909e-02
1.795040043361950666e-05
1.684758253395557404e-02
1.647644490003585815e-02
1.585299707949161530e-02
5.265927314758300781e-02
7.426802068948745728e-02
4.827125743031501770e-02
-6.562743335962295532e-02
-4.150699824094772339e-02
1.461588405072689056e-02
-3.857596963644027710e-02
-7.296834886074066162e-02
-2.174695208668708801e-02
-2.953528799116611481e-02
-5.864783376455307007e-02
-2.935761585831642151e-02
-7.146348804235458374e-02
-3.857263550162315369e-02
-3.852437064051628113e-02
2.070114575326442719e-02
-3.094621375203132629e-02
-5.845702253282070160e-03
1.288753654807806015e-02
1.660506241023540497e-02
-5.280547775328159332e-03
1.176707912236452103e-02
-7.929322309792041779e-03
-4.249799996614456177e-03
-3.805754333734512329e-02
2.808328717947006226e-02
-1.945946831256151199e-03
2.237345650792121887e-02
1.542935054749250412e-02
-2.807750925421714783e-02
-5.548778921365737915e-03
5.909997038543224335e-03
-2.456639893352985382e-02
2.788407169282436371e-02
-1.075583882629871368e-02
2.833486534655094147e-02
-4.068891704082489014e-02
-5.192749202251434326e-02
-4.906788095831871033e-02
1.750120148062705994e-02
2.961117587983608246e-02
-3.127898275852203369e-02
5.612029694020748138e-03
3.197730705142021179e-02
6.361660198308527470e-04
-3.022469114512205124e-03
-2.748307958245277405e-02
9.841133840382099152e-03
-4.984017834067344666e-02
-5.156753957271575928e-02
-6.750193238258361816e-02
9.890317916870117188e-03
-5.983683839440345764e-02
-4.620095714926719666e-02
-1.294911932200193405e-02
-3.681181697174906731e-03
2.658397657796740532e-03
-2.563133090734481812e-02
-1.607515662908554077e-02
-5.076409876346588135e-02
1.792716421186923981e-02
2.458094805479049683e-02
-1.655297353863716125e-02
-4.791707545518875122e-02
-7.112973835319280624e-03
-2.496543526649475098e-02
1.021834556013345718e-02
8.037815801799297333e-03
2.566238492727279663e-02
-3.522089123725891113e-02
-4.333947971463203430e-02
-2.541162259876728058e-02
1.395294908434152603e-02
-3.155579045414924622e-02
-1.336207520216703415e-02
-5.816887691617012024e-02
-2.931937202811241150e-02
-3.397599607706069946e-02
2.070534043014049530e-02
-1.388581655919551849e-02
-2.283849939703941345e-02
-5.730356555432081223e-03
-1.005728356540203094e-02
-2.962262742221355438e-02
-6.756824254989624023e-02
-2.296619676053524017e-02
-2.738323435187339783e-02
-6.051057949662208557e-03
-2.837211079895496368e-02
-3.617934137582778931e-02
-3.197372891008853912e-03
-3.789915144443511963e-02
-2.319704741239547729e-02
-1.583194360136985779e-02
-4.006581753492355347e-02
-4.492535069584846497e-02
-4.711797460913658142e-02
-3.150751069188117981e-02
-1.151831261813640594e-02
-2.082029730081558228e-02
-1.317197922617197037e-02
-5.005229637026786804e-02
1.319052837789058685e-02
-2.605273015797138214e-02
1.730253733694553375e-02
1.945644803345203400e-02
-5.275373905897140503e-02
-2.965883724391460419e-02
6.967854220420122147e-03
-2.575432322919368744e-02
2.997121587395668030e-02
2.853190712630748749e-02
3.748552408069372177e-03
-1.319438312202692032e-02
3.276820352766662836e-04
-1.556727942079305649e-02
3.728354349732398987e-02
-1.806662976741790771e-02
8.039098232984542847e-03
-4.766993690282106400e-03
-1.318581495434045792e-02
-9.878767654299736023e-03
-3.342904523015022278e-02
-2.887514792382717133e-02
-1.758227124810218811e-03
1.846909709274768829e-02
2.959067374467849731e-02
1.447744946926832199e-02
-4.500690475106239319e-02
-4.470637813210487366e-02
-2.010359661653637886e-03
-5.809211358428001404e-02
-8.216094225645065308e-02
-8.646341413259506226e-02
-5.145239457488059998e-02
-2.314907871186733246e-02
-5.167862027883529663e-02
-7.854303345084190369e-03
-4.280726239085197449e-02
8.524697273969650269e-03
-3.387273848056793213e-02
-1.550395786762237549e-02
-2.026220783591270447e-02
3.565029427409172058e-02
-3.797332942485809326e-02
-3.603705018758773804e-02
1.164163090288639069e-02
8.029373362660408020e-03
-2.860687673091888428e-04
-1.762286643497645855e-03
-2.829333208501338959e-02
3.232976049184799194e-02
2.070326730608940125e-02
-4.008398577570915222e-02
-1.482759974896907806e-02
2.031568996608257294e-02
-1.599155552685260773e-02
1.080762781202793121e-02
-3.291143476963043213e-02
-3.732335940003395081e-02
-4.896733537316322327e-02
-1.625307090580463409e-02
-4.357076063752174377e-02
-4.099985584616661072e-03
3.556753322482109070e-02
2.647172287106513977e-02
-1.381742395460605621e-02
-3.744944557547569275e-02
-4.155247285962104797e-02
2.429028041660785675e-02
-1.764247380197048187e-02
2.869654260575771332e-02
-1.599181070923805237e-02
2.132019586861133575e-02
-3.279646486043930054e-02
-1.040058303624391556e-02
1.731283776462078094e-02
-4.060116782784461975e-02
-2.445563115179538727e-02
2.524327673017978668e-02
2.693522162735462189e-02
1.521351933479309082e-02
1.770647242665290833e-02
-4.741515219211578369e-02
-4.546318948268890381e-02
5.248420406132936478e-03
-4.217838868498802185e-02
-2.741926163434982300e-02
-5.833684280514717102e-02
-1.170507166534662247e-02
-4.351567476987838745e-02
-3.864675760269165039e-02
-6.082890927791595459e-02
-5.673250928521156311e-02
-4.568891972303390503e-02
-2.347879298031330109e-02
-3.120541200041770935e-02
3.523321589455008507e-03
-1.707678078673779964e-03
2.684001228772103786e-04
2.340903319418430328e-02
-3.428720682859420776e-02
-1.131063513457775116e-02
-4.884713795036077499e-03
-4.079548269510269165e-02
-3.847319260239601135e-02
-4.903962463140487671e-02
1.549064088612794876e-02
2.696328796446323395e-03
4.387357272207736969e-03
-2.484516426920890808e-02
-6.327721476554870605e-02
-1.781685464084148407e-02
-2.875821851193904877e-02
6.291104946285486221e-03
-7.518731057643890381e-03
-1.356328558176755905e-02
1.552551519125699997e-02
-8.120014332234859467e-03
4.197973292320966721e-03
3.200634848326444626e-03
1.775447092950344086e-02
-4.951644316315650940e-02
-3.368930146098136902e-02
-3.658921644091606140e-02
2.826329879462718964e-02
-3.566829487681388855e-02
1.877569220960140228e-02
-3.793722763657569885e-02
-3.568312525749206543e-02
-4.512363672256469727e-02
-1.747454516589641571e-02
-2.570486627519130707e-02
-3.256735578179359436e-02
3.691567480564117432e-02
3.915578871965408325e-02
1.255584135651588440e-02
-1.110349781811237335e-02
-1.528721302747726440e-02
-1.255502458661794662e-02
-5.865084007382392883e-02
-4.008493199944496155e-02
-3.627521544694900513e-02
2.461705822497606277e-03
-5.666639655828475952e-02
1.304188463836908340e-02
-3.340377006679773331e-03
2.140686288475990295e-02
-6.440600380301475525e-03
-1.597464270889759064e-02
1.241980213671922684e-02
-1.614068821072578430e-02
-7.354253437370061874e-03
-3.812033310532569885e-02
-3.754755854606628418e-02
-3.479721397161483765e-02
-3.583981841802597046e-02
3.059266367927193642e-03
-5.386710911989212036e-02
-1.815743185579776764e-02
-5.838729813694953918e-02
-2.784407697618007660e-02
2.387314802035689354e-03
-5.098549183458089828e-03
3.329167142510414124e-02
1.894312351942062378e-02
-2.925458550453186035e-02
1.001621037721633911e-02
-9.202478453516960144e-03
-2.389127761125564575e-02
9.995033033192157745e-03
-1.754172891378402710e-02
-3.462985530495643616e-02
1.800521090626716614e-02
1.783349178731441498e-02
1.676692999899387360e-02
1.603421941399574280e-02
-5.011475086212158203e-02
-3.738206624984741211e-02
1.573587208986282349e-02
-4.607645049691200256e-02
-4.235551133751869202e-02
8.930764161050319672e-03
3.490504249930381775e-02
-1.588610559701919556e-02
1.544337719678878784e-02
-2.827816829085350037e-02
1.340033393353223801e-02
-9.906060062348842621e-03
-2.951011434197425842e-02
-3.664933890104293823e-02
-5.978077277541160583e-02
-5.187575146555900574e-02
-2.249023690819740295e-02
-1.022770535200834274e-02
-3.948365896940231323e-02
1.908244192600250244e-02
-5.405591218732297421e-04
-1.682764105498790741e-02
-8.031263016164302826e-03
3.757596015930175781e-02
-3.152649849653244019e-02
-2.235103212296962738e-02
-3.857531771063804626e-02
-5.076458211988210678e-03
-2.490019798278808594e-02
-3.040927834808826447e-02
2.113975770771503448e-02
-1.454322692006826401e-02
-4.856376349925994873e-02
1.261442154645919800e-02
-2.308934740722179413e-02
5.438599735498428345e-03
-3.876775875687599182e-02
-1.669122278690338135e-02
-5.419498775154352188e-03
-3.034267015755176544e-02
-1.984167471528053284e-02
-1.164577715098857880e-02
-2.275387756526470184e-02
1.584843173623085022e-02
1.875024661421775818e-02
5.237447563558816910e-03
-2.327695302665233612e-02
-1.202778425067663193e-02
-3.145711030811071396e-03
-4.143758118152618408e-02
-2.261584624648094177e-03
-3.112866543233394623e-02
-3.970816731452941895e-02
4.527295532170683146e-04
-3.516183793544769287e-02
-5.563509836792945862e-02
1.730100065469741821e-02
-2.954042702913284302e-02
-5.381475016474723816e-02
3.154859691858291626e-02
-1.449785009026527405e-02
2.948141098022460938e-02
2.135165967047214508e-02
-1.517561450600624084e-02
2.424683235585689545e-02
2.109993621706962585e-02
4.991251975297927856e-03
-3.812861628830432892e-03
9.464747272431850433e-03
-5.896763759665191174e-04
-4.394168034195899963e-02
-3.533067926764488220e-02
2.240275032818317413e-02
-1.612306945025920868e-02
-1.477061491459608078e-02
-2.935670688748359680e-02
-1.406113617122173309e-02
-3.411384299397468567e-02
-3.925019130110740662e-02
-7.694801315665245056e-04
-4.775862768292427063e-02
1.863329485058784485e-02
2.087524859234690666e-03
-2.378978766500949860e-02
-2.750078961253166199e-02
-3.151384368538856506e-02
-1.313524506986141205e-02
3.874334692955017090e-02
-1.992137171328067780e-02
4.223030991852283478e-03
3.163527324795722961e-02
8.774736779741942883e-04
-2.070738933980464935e-02
3.118451498448848724e-02
-3.248978778719902039e-02
-2.102729864418506622e-02
-1.045201998203992844e-02
-1.619517430663108826e-02
-4.530986770987510681e-02
2.165422029793262482e-02
1.402250840328633785e-03
-1.128185167908668518e-02
8.903325069695711136e-04
-4.478775337338447571e-02
-3.391558304429054260e-02
-3.189280629158020020e-02
-2.831405773758888245e-02
-1.045906799845397472e-03
-2.645773813128471375e-02
3.590863896533846855e-03
-3.951158002018928528e-02
1.062212698161602020e-02
-3.197614848613739014e-02
3.495789319276809692e-02
4.039749037474393845e-03
-6.491370499134063721e-03
2.789203450083732605e-02
-2.667254582047462463e-02
-3.388155996799468994e-02
-1.946387998759746552e-02
-8.619605796411633492e-04
5.104959476739168167e-03
9.394210763275623322e-03
-3.517594933509826660e-02
4.481368232518434525e-03
-5.894876085221767426e-03
-5.274207144975662231e-02
1.319399662315845490e-02
-1.430856529623270035e-03
-1.609253510832786560e-02
-5.074949562549591064e-02
-7.597028743475675583e-03
-7.008997350931167603e-02
-5.040962621569633484e-02
-5.302843172103166580e-03
2.647627145051956177e-02
9.499037638306617737e-03
-1.889646612107753754e-02
-1.950750127434730530e-02
-3.530502691864967346e-02
2.854728326201438904e-02
4.823897499591112137e-03
-4.245657473802566528e-02
1.504720654338598251e-02
-3.131992742419242859e-02
1.359336171299219131e-02
8.396585471928119659e-03
2.076825499534606934e-02
-1.677345111966133118e-02
-1.960290223360061646e-02
-1.250529661774635315e-02
2.266544103622436523e-02
2.617618814110755920e-02
3.484828770160675049e-02
-1.332854852080345154e-02
-1.259843818843364716e-02
9.771379642188549042e-03
1.216659601777791977e-02
-8.300707489252090454e-02
-5.291809141635894775e-02
-3.477311879396438599e-02
-5.613195896148681641e-02
-1.729710213840007782e-02
-3.930548578500747681e-02
-4.964161664247512817e-02
-6.197460368275642395e-02
9.794998914003372192e-03
-4.897882789373397827e-02
-4.283524304628372192e-02
-2.093063853681087494e-02
-2.081885002553462982e-02
1.189723145216703415e-02
7.889155298471450806e-03
-1.277919206768274307e-02
-3.521889448165893555e-02
-3.198580816388130188e-02
7.110239937901496887e-03
-2.340324968099594116e-02
1.810611039400100708e-02
-4.506824538111686707e-02
-2.339797653257846832e-02
-1.824248395860195160e-02
-1.609775610268115997e-02
-1.848485320806503296e-02
-3.267984837293624878e-02
-2.538595907390117645e-02
2.834652084857225418e-03
-1.468161866068840027e-02
2.263795956969261169e-02
-1.044597197324037552e-02
3.381133079528808594e-02
-1.750609721057116985e-03
-3.167233616113662720e-02
1.110025122761726379e-02
-5.055529996752738953e-02
-6.497463677078485489e-03
1.654234901070594788e-02
-3.173176571726799011e-02
-2.256245166063308716e-02
1.120147411711513996e-03
1.860132254660129547e-02
-3.597607836127281189e-02
3.646201919764280319e-03
1.283432915806770325e-02
2.930102683603763580e-02
3.492562100291252136e-02
2.457066671922802925e-03
-3.887452930212020874e-02
-5.456012208014726639e-03
7.121128146536648273e-04
-1.786276232451200485e-03
-3.143371269106864929e-02
9.903196478262543678e-04
-1.367751229554414749e-02
-3.531723469495773315e-02
-4.113502055406570435e-02
-3.755917027592658997e-02
-3.106912784278392792e-02
6.568432785570621490e-03
-3.761629387736320496e-02
-1.331690698862075806e-02
1.581188663840293884e-02
7.650568615645170212e-03
1.040849462151527405e-02
-1.616548560559749603e-02
4.616587422788143158e-03
1.084708236157894135e-02
2.489853091537952423e-02
-2.154581807553768158e-02
-2.028227224946022034e-02
2.114264108240604401e-02
-1.605634763836860657e-02
7.012479007244110107e-03
-3.127921745181083679e-02
1.104030292481184006e-02
-3.341785445809364319e-02
2.978621236979961395e-02
-2.870953641831874847e-02
8.017390035092830658e-03
-6.894485652446746826e-02
-1.304105576127767563e-02
-5.535249039530754089e-02
-1.231469120830297470e-02
-8.647551760077476501e-03
-2.542951703071594238e-02
-7.032167166471481323e-02
6.964328698813915253e-03
-1.784390211105346680e-02
1.592801138758659363e-02
3.188218548893928528e-02
-2.499146759510040283e-02
1.797033660113811493e-02
-2.190741896629333496e-02
-3.040947252884507179e-03
-4.260073602199554443e-02
-3.410629555583000183e-02
-1.615870371460914612e-02
-5.178304389119148254e-02
-8.428619056940078735e-02
-4.753702506422996521e-02
4.525090567767620087e-03
1.552360784262418747e-02
-5.080521851778030396e-02
-2.000555628910660744e-03
1.456022728234529495e-02
2.743297815322875977e-02
-4.950473085045814514e-02
-4.371850565075874329e-02
-5.280129984021186829e-02
-1.239263359457254410e-02
3.070925129577517509e-03
-4.811016842722892761e-02
2.788306586444377899e-02
-1.047221664339303970e-02
-8.504090830683708191e-03
-2.013179473578929901e-02
-7.681471179239451885e-04
-6.044656038284301758e-02
-1.856104470789432526e-02
-4.815954342484474182e-02
-1.005444396287202835e-02
7.356790825724601746e-03
-3.844200819730758667e-02
-2.886171452701091766e-03
1.350171025842428207e-02
5.391391459852457047e-03
-8.967257104814052582e-03
2.105342969298362732e-02
1.416629459708929062e-02
-4.106956999748945236e-03
-1.948615163564682007e-02
2.365316636860370636e-02
3.460052609443664551e-02
-4.220302775502204895e-02
1.937403343617916107e-02
-6.623913999646902084e-03
-3.747302573174238205e-03
-5.622532963752746582e-02
9.093236178159713745e-03
-1.974467374384403229e-02
-1.177614834159612656e-02
-4.163477942347526550e-02
-3.295794129371643066e-02
1.421150192618370056e-02
-4.604564234614372253e-02
-3.651725128293037415e-02
-2.656707726418972015e-02
-6.688287016004323959e-03
-2.967522852122783661e-02
-4.401437938213348389e-02
-5.341634154319763184e-02
1.984369382262229919e-02
-5.133872479200363159e-02
-4.690064117312431335e-03
-2.736008726060390472e-02
1.637516543269157410e-02
1.775876153260469437e-03
-2.524586953222751617e-02
-1.478063315153121948e-02
2.247675694525241852e-02
-2.437884174287319183e-02
-4.842630401253700256e-02
6.977306213229894638e-03
-1.305258367210626602e-02
-1.339214388281106949e-02
-5.922884214669466019e-03
-5.523855984210968018e-02
-4.626476764678955078e-02
-3.247929736971855164e-02
-2.727511711418628693e-02
1.145568117499351501e-02
-1.497893780469894409e-02
6.970382761210203171e-03
6.667417939752340317e-03
-2.778301946818828583e-02
2.427464909851551056e-02
-1.412876788526773453e-02
-3.362158685922622681e-02
-3.497308865189552307e-02
-2.900025248527526855e-02
-1.576220616698265076e-02
-2.332953363656997681e-02
-7.056836783885955811e-02
-6.853015627712011337e-03
-6.806645542383193970e-02
-5.935174878686666489e-03
-2.689651772379875183e-02
-4.603679478168487549e-02
-2.978710643947124481e-02
-3.034972213208675385e-02
-6.416558474302291870e-02
-1.791530102491378784e-02
2.458641538396477699e-03
-5.766672082245349884e-03
-6.033151969313621521e-02
-5.110586434602737427e-02
-6.268405821174383163e-03
-5.882144719362258911e-02
4.652125760912895203e-03
-4.664740338921546936e-02
-4.059623181819915771e-02
-2.335529215633869171e-02
-4.222325980663299561e-03
-2.816568128764629364e-02
1.472720410674810410e-03
-2.852608636021614075e-02
-5.595961585640907288e-02
-5.450667440891265869e-02
-5.901126936078071594e-02
6.940650753676891327e-03
-2.863177470862865448e-02
-3.873234987258911133e-02
-3.603315725922584534e-02
-3.420349583029747009e-02
4.594620782881975174e-03
-2.678928710520267487e-02
-6.253692507743835449e-02
-2.811870723962783813e-02
-8.136030286550521851e-03
-1.891480013728141785e-02
-4.244741518050432205e-03
-2.073368057608604431e-02
-1.414552982896566391e-02
-2.816777117550373077e-02
-6.453311443328857422e-02
-2.274874970316886902e-02
-4.426176473498344421e-02
-6.649652123451232910e-02
-3.694504499435424805e-02
2.394378557801246643e-02
-2.773313783109188080e-02
-3.615876194089651108e-03
-5.313118919730186462e-02
2.501328708603978157e-03
-5.515884235501289368e-02
-3.574665868654847145e-03
-2.784272469580173492e-02
-4.006554558873176575e-02
-3.938916325569152832e-02
-3.035150282084941864e-02
1.974920975044369698e-03
9.825081564486026764e-03
-9.915351867675781250e-03
-7.011950947344303131e-03
-3.568508476018905640e-02
-2.138247340917587280e-02
-5.635026097297668457e-02
-3.286245837807655334e-02
2.704709023237228394e-02
-1.205874886363744736e-02
-1.359187881462275982e-04
-1.870959252119064331e-02
-3.448481857776641846e-02
-5.623262748122215271e-02
-8.112803101539611816e-03
1.210934389382600784e-02
-4.244231060147285461e-02
-5.803517997264862061e-02
-3.180114924907684326e-02
-1.819207519292831421e-02
-4.832859709858894348e-02
-4.612413421273231506e-02
-6.423549354076385498e-02
-5.883662402629852295e-02
-1.927550695836544037e-02
-5.499836802482604980e-02
-7.138080894947052002e-02
-4.116973280906677246e-02
-7.483097165822982788e-02
-3.107166849076747894e-02
3.559755859896540642e-04
-8.919895440340042114e-02
-7.042337954044342041e-02
-1.546736061573028564e-02
-4.599590972065925598e-02
-3.285222873091697693e-02
-4.031186923384666443e-02
-2.464543469250202179e-02
1.162763964384794235e-02
-5.312987044453620911e-02
8.975671371445059776e-04
-1.843641512095928192e-02
4.155304748564958572e-03
-3.621257469058036804e-02
-6.279359757900238037e-02
-6.496102362871170044e-02
-3.844496607780456543e-02
-4.174799472093582153e-02
-4.946352541446685791e-02
-4.579969495534896851e-02
-5.848323926329612732e-02
-4.867193847894668579e-02
2.770306309685111046e-03
1.168390735983848572e-02
-2.909927815198898315e-02
-1.538873463869094849e-02
-5.645968019962310791e-03
-3.887605667114257812e-02
-3.369129821658134460e-02
-3.742750361561775208e-02
-2.737166360020637512e-02
-5.908753350377082825e-02
7.309329812414944172e-04
1.772045530378818512e-02
-3.799986466765403748e-02
4.636590834707021713e-03
1.826062798500061035e-02
-3.116793744266033173e-02
-4.284767899662256241e-03
-5.753263086080551147e-02
2.228754386305809021e-02
1.288621686398983002e-02
-2.595439553260803223e-03
-4.252159968018531799e-02
-6.843523681163787842e-02
-3.790767863392829895e-02
-4.146194458007812500e-02
-2.600426785647869110e-02
1.385430898517370224e-02
-1.733562722802162170e-02
-5.245063081383705139e-02
1.845592446625232697e-02
-3.682954236865043640e-03
-1.584246568381786346e-02
-4.512605071067810059e-02
-4.400297254323959351e-02
-2.360315807163715363e-02
-7.344497833400964737e-03
-3.561683371663093567e-02
2.392988419160246849e-03
-3.377853706479072571e-02
-4.571733996272087097e-02
-2.541953464969992638e-03
-1.042008493095636368e-02
-7.790749892592430115e-03
-1.076498068869113922e-03
-4.179704934358596802e-02
-4.657568037509918213e-02
-9.660165756940841675e-03
-1.981151849031448364e-02
-4.624800011515617371e-02
-5.578942131251096725e-03
-1.118265092372894287e-02
-5.141868442296981812e-02
-3.275941312313079834e-02
-5.831570550799369812e-02
1.243973709642887115e-02
-2.618307014927268028e-03
-2.602829597890377045e-02
-2.435745298862457275e-02
-3.948548063635826111e-02
-1.305188611149787903e-02
-4.231421276926994324e-03
-6.102814152836799622e-02
-2.586210332810878754e-02
-1.238789502531290054e-02
-2.049412578344345093e-02
-2.995707280933856964e-02
2.198757231235504150e-02
-3.841190785169601440e-02
4.841675050556659698e-03
1.979140564799308777e-02
-6.127388030290603638e-02
-5.266083870083093643e-03
-1.683156378567218781e-02
-3.269169852137565613e-02
-2.069927519187331200e-03
-2.975748479366302490e-02
-1.166889094747602940e-03
-4.389575496315956116e-02
-2.768563106656074524e-02
-1.318256929516792297e-02
1.527991145849227905e-02
-6.236176192760467529e-02
-6.034805625677108765e-02
-2.524168789386749268e-02
-1.619814895093441010e-02
-7.786776870489120483e-02
-4.897329211235046387e-02
-6.705860141664743423e-03
-4.756820946931838989e-02
-4.591188952326774597e-02
-5.201333761215209961e-02
-6.249412149190902710e-02
-5.820896476507186890e-02
-4.032663628458976746e-02
-2.854910679161548615e-03
-4.755737632513046265e-02
-5.695509910583496094e-02
-8.372160606086254120e-03
-2.117867022752761841e-02
-3.029225580394268036e-02
-3.512831404805183411e-03
7.162981200963258743e-03
1.716523803770542145e-02
-4.167641326785087585e-02
-6.453999876976013184e-02
-4.266265779733657837e-02
1.616734266281127930e-02
-5.241512507200241089e-02
4.471683409065008163e-03
1.268019434064626694e-02
-3.101390413939952850e-02
-9.703368879854679108e-03
-3.731064870953559875e-02
-5.108721181750297546e-02
-3.083644434809684753e-02
1.429415121674537659e-02
-1.062380708754062653e-02
1.368839573115110397e-02
-1.767026074230670929e-02
-2.468548342585563660e-02
-5.676400661468505859e-02
-6.324747204780578613e-02
-7.183957844972610474e-02
-5.329005420207977295e-02
-2.981388755142688751e-02
-3.499310463666915894e-02
-3.727016225457191467e-02
-9.105511009693145752e-02
-8.758110553026199341e-02
9.818110615015029907e-03
-1.166403014212846756e-02
-5.470816418528556824e-02
-3.369363769888877869e-02
-4.189667105674743652e-02
-6.305921822786331177e-02
-8.776615373790264130e-03
1.252346020191907883e-02
1.480505336076021194e-02
-4.061307385563850403e-02
-1.079987827688455582e-02
1.272239256650209427e-02
-2.123755775392055511e-02
-3.959504514932632446e-02
-1.116677559912204742e-02
-4.065271466970443726e-03
1.204149704426527023e-02
1.256357133388519287e-02
-3.859590366482734680e-02
1.391728408634662628e-02
-3.906368464231491089e-02
1.304657896980643272e-03
-1.495947036892175674e-02
-1.648285798728466034e-02
-7.085780799388885498e-02
2.754043554887175560e-03
-5.276904627680778503e-02
-3.461413457989692688e-02
-5.072376877069473267e-02
-2.547499164938926697e-02
-2.250563539564609528e-02
-2.490423060953617096e-02
1.765341684222221375e-02
-3.658923506736755371e-02
-2.863473631441593170e-02
2.228221669793128967e-02
-5.853747576475143433e-02
-6.778881698846817017e-02
-7.019813358783721924e-02
-3.924494236707687378e-02
-5.531701818108558655e-02
-5.605779215693473816e-02
-2.674842439591884613e-02
-6.866274029016494751e-02
-2.043862082064151764e-02
-1.991208083927631378e-02
-7.102506607770919800e-02
-3.416280820965766907e-02
-3.655326087027788162e-03
1.135355513542890549e-02
-2.298094186699017882e-04
2.405744232237339020e-02
7.641486445209011436e-05
2.292415313422679901e-02
-8.392585441470146179e-03
2.785268705338239670e-03
1.543180737644433975e-02
-6.906662601977586746e-03
-1.718752086162567139e-02
-5.382553674280643463e-03
-3.391009941697120667e-02
-1.681043021380901337e-02
1.308236457407474518e-02
-2.300167270004749298e-02
-1.826888474170118570e-04
-2.140789479017257690e-02
-1.573315449059009552e-02
-2.141916006803512573e-02
-5.033226916566491127e-04
-8.074451237916946411e-03
-5.306331813335418701e-02
-6.099147722125053406e-02
-3.538606315851211548e-02
-4.534303769469261169e-02
-1.377408858388662338e-02
-2.474617771804332733e-02
1.829346641898155212e-02
-1.972865499556064606e-02
9.959475137293338776e-03
-3.311036527156829834e-02
-1.278811506927013397e-02
-2.732155844569206238e-02
-3.459472954273223877e-02
-4.197181842755526304e-04
-4.647683724761009216e-02
-4.959953017532825470e-03
-4.697452858090400696e-02
2.219128608703613281e-02
1.613089255988597870e-02
-3.681258065626025200e-03
2.331286109983921051e-02
-2.530366554856300354e-02
-1.542771793901920319e-02
-9.463879279792308807e-03
-5.903892964124679565e-02
-4.158980026841163635e-02
1.094531966373324394e-03
-3.774673119187355042e-02
-4.213362932205200195e-02
-1.295587047934532166e-02
-8.621425367891788483e-03
-3.011194756254553795e-03
-9.779941290616989136e-03
-1.660894975066184998e-02
-3.099789656698703766e-02
-5.584253743290901184e-02
1.494031026959419250e-02
-4.719545319676399231e-02
-2.371299313381314278e-03
-1.427328679710626602e-02
-5.492337048053741455e-02
-1.245677191764116287e-02
-5.927465856075286865e-02
-3.896109759807586670e-02
1.604509912431240082e-02
-3.413708880543708801e-02
-1.041595451533794403e-02
-2.066687680780887604e-02
-6.335581094026565552e-02
-3.195843473076820374e-02
1.368853542953729630e-02
-4.442750290036201477e-02
-5.318960174918174744e-03
-1.085352897644042969e-02
-6.125229224562644958e-02
-5.750108510255813599e-03
6.855749059468507767e-03
-3.690917789936065674e-02
-4.632021114230155945e-02
-2.638448029756546021e-02
-5.157632008194923401e-02
-2.581575186923146248e-03
-5.070664337836205959e-04
-2.845708094537258148e-02
-1.451591961085796356e-02
-4.260580241680145264e-02
-2.835456468164920807e-02
-4.580119997262954712e-02
-6.081311404705047607e-02
-3.990466892719268799e-02
-4.179039224982261658e-02
-3.713655099272727966e-02
-1.206951588392257690e-02
1.017545163631439209e-02
-2.442157454788684845e-02
-2.428637072443962097e-02
1.420273678377270699e-03
1.541339512914419174e-02
-6.973028182983398438e-02
5.856635048985481262e-03
-1.249508373439311981e-02
-5.499010905623435974e-02
-9.400994516909122467e-03
-3.430549427866935730e-02
-7.816152647137641907e-03
-6.729918718338012695e-02
-3.567009791731834412e-02
-1.959649845957756042e-02
-6.618871539831161499e-02
-3.275594860315322876e-02
7.755158469080924988e-03
-1.847917586565017700e-02
1.364031899720430374e-02
-7.906241714954376221e-02
8.365409448742866516e-03
5.295721348375082016e-03
-4.269922152161598206e-03
-4.261624440550804138e-02
1.028969325125217438e-02
-3.654464334249496460e-02
-4.144480824470520020e-02
6.904770154505968094e-03
-3.520034998655319214e-02
-7.979689165949821472e-03
-2.128826081752777100e-02
1.351927057839930058e-03
-4.446927458047866821e-02
-1.062649581581354141e-02
-1.633755303919315338e-02
-3.058418259024620056e-02
-4.893856868147850037e-02
-2.429551072418689728e-02
-1.996911689639091492e-02
-1.738444902002811432e-02
1.716775353997945786e-03
-7.351832464337348938e-03
1.362254936248064041e-02
-5.540787056088447571e-02
-1.816425845026969910e-02
-6.920583546161651611e-02
9.859543293714523315e-03
-3.902886062860488892e-02
-1.808283035643398762e-03
1.259146910160779953e-02
-5.011129379272460938e-02
-6.998735666275024414e-02
-1.211272645741701126e-02
-4.947906732559204102e-02
-5.326377693563699722e-03
1.064393855631351471e-02
-1.594597846269607544e-02
-5.806293338537216187e-02
-4.607238620519638062e-02
1.265272032469511032e-02
-5.476993392221629620e-04
-3.925609588623046875e-02
-3.930061683058738708e-02
6.505590863525867462e-03
-6.054538488388061523e-02
-5.937059968709945679e-02
-2.779624890536069870e-03
1.372385956346988678e-02
-3.122976422309875488e-02
-9.883151389658451080e-03
-4.537172988057136536e-02
-3.086375258862972260e-02
-3.221582993865013123e-02
1.368669141083955765e-02
1.369582954794168472e-02
-9.945810772478580475e-03
-4.034242406487464905e-02
-4.858733713626861572e-02
-3.222147375345230103e-02
1.308464125031605363e-04
-6.602026987820863724e-03
2.348738780710846186e-04
-1.038909517228603363e-02
-2.014534734189510345e-02
-1.771051995456218719e-02
8.983219973742961884e-03
1.345251780003309250e-02
-8.069195784628391266e-03
-2.946124970912933350e-02
-5.569404363632202148e-02
-3.428720682859420776e-02
-2.209529047831892967e-03
-6.769926100969314575e-02
-4.019707441329956055e-02
-1.546338759362697601e-02
-1.206568442285060883e-02
-6.526333838701248169e-02
8.961276151239871979e-03
-2.764183096587657928e-02
-2.454219944775104523e-02
-5.490466207265853882e-02
-6.002477928996086121e-02
-5.463520437479019165e-02
-2.909475192427635193e-02
-3.966412506997585297e-03
-4.972143843770027161e-02
-3.454471752047538757e-02
-5.454235896468162537e-02
1.916597597301006317e-02
1.844799518585205078e-02
-1.032793987542390823e-02
-3.545278310775756836e-02
-4.597207158803939819e-02
-1.858480088412761688e-02
-3.601874411106109619e-02
1.956387795507907867e-02
1.759476214647293091e-02
2.046908624470233917e-02
-1.794079318642616272e-02
-2.265381813049316406e-02
2.658731304109096527e-02
-2.401829324662685394e-02
2.475363016128540039e-02
-5.214615538716316223e-02
-1.852805912494659424e-02
-2.437771297991275787e-02
-2.575456909835338593e-02
-2.487612701952457428e-02
-3.416189225390553474e-03
2.915638266131281853e-03
-1.748769544064998627e-02
-2.463492564857006073e-02
2.653067559003829956e-02
-4.844022169709205627e-02
-3.598108142614364624e-02
-4.989997483789920807e-03
-4.467155411839485168e-02
-6.583245471119880676e-03
-3.442919842200353742e-05
-5.590791255235671997e-02
-2.355967834591865540e-02
-1.938864402472972870e-02
-3.999383002519607544e-02
-4.124582558870315552e-02
-1.632470823824405670e-02
1.823908276855945587e-02
-1.629462279379367828e-02
1.004970539361238480e-02
-3.962969407439231873e-02
-3.156998381018638611e-02
-4.323087632656097412e-02
3.884790465235710144e-02
-2.097662910819053650e-02
-3.342385217547416687e-02
1.479867845773696899e-02
-4.610517248511314392e-02
1.124066300690174103e-02
1.792299374938011169e-02
2.272465825080871582e-02
-4.912459757179021835e-03
1.111941412091255188e-02
-1.595024205744266510e-02
-2.312895841896533966e-02
-6.782702356576919556e-02
-5.245155096054077148e-02
-7.976288907229900360e-03
-3.848685696721076965e-02
-5.693903937935829163e-02
-2.288286201655864716e-02
-1.380780595354735851e-03
-3.973339498043060303e-02
-5.563426762819290161e-02
1.931538060307502747e-02
-4.707128182053565979e-02
-2.240940928459167480e-02
-4.659009352326393127e-02
-3.993370383977890015e-02
-1.840156689286231995e-02
-3.845401806756854057e-03
-5.002222210168838501e-02
-3.370656631886959076e-03
-1.844727061688899994e-02
-1.931711100041866302e-02
-1.407823059707880020e-02
-2.135754562914371490e-02
-3.385171294212341309e-02
2.591245342046022415e-03
4.469755513127893209e-04
-2.828979631885886192e-03
-7.186511904001235962e-02
-4.941227287054061890e-02
-3.917827457189559937e-02
-8.780140429735183716e-02
1.913838437758386135e-03
-6.742411106824874878e-02
-5.924587324261665344e-02
-9.943223558366298676e-04
-7.464785128831863403e-02
-1.042357645928859711e-02
-6.277261767536401749e-03
-3.356470912694931030e-02
-2.078011445701122284e-02
-7.740756869316101074e-02
-2.150971814990043640e-02
-4.482075199484825134e-02
-2.009958494454622269e-03
-5.514757335186004639e-02
-4.889700189232826233e-02
-3.683348372578620911e-02
-5.387135222554206848e-02
-2.615470625460147858e-02
2.729714848101139069e-03
-3.648491576313972473e-02
6.737852003425359726e-03
6.910673342645168304e-03
-8.241434395313262939e-02
-7.941585779190063477e-02
-8.049960434436798096e-02
-2.828259207308292389e-02
-7.498222589492797852e-02
-3.478758037090301514e-02
-7.308567315340042114e-02
-9.690327569842338562e-03
-7.428826391696929932e-02
-4.365374892950057983e-02
-2.399057894945144653e-02
3.318516770377755165e-03
-6.619768589735031128e-02
-3.348866105079650879e-02
-5.646450445055961609e-02
-6.874781567603349686e-03
-5.990444123744964600e-02
-7.591139525175094604e-02
-7.664044201374053955e-02
-7.204265147447586060e-02
-1.204919721931219101e-02
9.099932387471199036e-03
-2.873286791145801544e-02
-3.725216165184974670e-02
-2.623513340950012207e-02
-4.616802185773849487e-02
-3.911568224430084229e-02
2.345410175621509552e-03
-1.785693690180778503e-02
-4.741400852799415588e-02
3.318073228001594543e-02
-1.083779986947774887e-02
-3.002649918198585510e-02
-1.645112037658691406e-02
-1.684235595166683197e-02
-3.588417917490005493e-02
-4.080833122134208679e-02
-7.017598301172256470e-02
-5.792542546987533569e-02
-2.099015563726425171e-02
-6.620573997497558594e-02
-7.270275801420211792e-02
-5.109931156039237976e-02
-2.079700678586959839e-02
-3.703715628944337368e-04
-1.733881980180740356e-02
-5.414575338363647461e-02
-5.446008592844009399e-02
3.999649081379175186e-03
-2.123369462788105011e-02
-3.160529537126421928e-03
-3.142133355140686035e-02
-6.047970429062843323e-02
-3.616217896342277527e-02
-2.186380699276924133e-02
2.354805124923586845e-03
-3.637181594967842102e-02
-3.994730114936828613e-02
1.802309229969978333e-02
7.481064647436141968e-03
2.625472843647003174e-02
3.322777105495333672e-03
9.738412685692310333e-03
-2.516978606581687927e-02
-4.137238115072250366e-02
9.807806927710771561e-04
-4.637708142399787903e-02
-7.761186361312866211e-02
2.694499213248491287e-03
-4.653596505522727966e-02
-6.192497443407773972e-03
-1.282026153057813644e-02
-6.834001094102859497e-02
-3.794276341795921326e-02
-7.967310398817062378e-02
-3.813118115067481995e-02
-4.056398943066596985e-02
-4.892502725124359131e-02
-6.976007670164108276e-02
-1.218221615999937057e-02
-1.184135209769010544e-02
-7.507331669330596924e-02
-1.197519339621067047e-02
-2.703005075454711914e-02
-4.942132160067558289e-02
-2.291179634630680084e-02
-5.415100604295730591e-02
-4.064095392823219299e-02
-6.505575031042098999e-02
-8.554233610630035400e-02
-2.557208947837352753e-02
-1.755270548164844513e-02
-5.942119285464286804e-02
4.165048711001873016e-03
-6.224979646503925323e-03
-1.109616365283727646e-03
1.274699904024600983e-02
-4.098276549484580755e-04
-4.420444741845130920e-02
-1.620812341570854187e-02
-8.779591321945190430e-02
-8.987367898225784302e-02
-1.246358733624219894e-02
-4.523322731256484985e-02
-2.505928464233875275e-02
-4.640793055295944214e-02
-3.042434528470039368e-02
-8.194130659103393555e-02
-3.131828457117080688e-02
-7.480085641145706177e-02
-1.151018775999546051e-02
-4.899782687425613403e-02
-7.985061407089233398e-02
-6.712605804204940796e-02
-7.109989225864410400e-02
-5.204879492521286011e-02
-4.056746512651443481e-02
-1.686031557619571686e-02
-2.806992083787918091e-02
-1.541773695498704910e-02
-3.944341465830802917e-02
-6.444119382649660110e-03
-6.699036061763763428e-02
-3.406930342316627502e-02
-4.138934239745140076e-02
-1.849252730607986450e-02
-8.153053000569343567e-03
-3.027861937880516052e-03
-3.297330439090728760e-02
3.010279126465320587e-02
-2.889738604426383972e-02
-4.441930726170539856e-02
-4.974132031202316284e-02
1.307356357574462891e-02
2.649341896176338196e-02
-4.073638096451759338e-02
-3.379254415631294250e-02
1.542994566261768341e-02
3.578681126236915588e-02
-1.190425083041191101e-02
2.936597215011715889e-03
6.667296867817640305e-03
-3.685972467064857483e-02
-6.637033540755510330e-03
1.089410204440355301e-02
-3.309750184416770935e-02
-3.665681928396224976e-02
-8.674395270645618439e-03
-2.681444399058818817e-02
-1.482263859361410141e-02
-3.275601193308830261e-02
-1.861617900431156158e-02
-1.363974343985319138e-02
3.019294328987598419e-02
-3.118227235972881317e-02
-1.780109480023384094e-02
-7.374396175146102905e-02
-7.520565390586853027e-02
-4.583760723471641541e-02
-6.540118157863616943e-02
-6.923295557498931885e-02
-5.953310802578926086e-02
-3.601655736565589905e-02
-3.156380355358123779e-02
-1.002930402755737305e-01
-2.387690916657447815e-02
-7.869312912225723267e-02
-5.064737424254417419e-02
-5.683779343962669373e-02
-4.617127776145935059e-02
-4.836716130375862122e-02
-3.667135536670684814e-02
-1.145583856850862503e-02
-7.625907659530639648e-03
-9.094820171594619751e-02
-6.346500664949417114e-02
-9.601914323866367340e-03
-6.502211093902587891e-02
-4.941773414611816406e-02
-7.995416224002838135e-02
-5.544798448681831360e-03
-5.547100678086280823e-02
-3.861907497048377991e-02
-1.712472550570964813e-02
-4.461676627397537231e-02
-9.249940514564514160e-03
1.336748129688203335e-03
-2.892044372856616974e-03
-3.646279871463775635e-02
-4.924659430980682373e-02
-4.502104222774505615e-02
-4.213273525238037109e-02
-4.225725680589675903e-02
-6.801527738571166992e-02
-1.808781363070011139e-02
-6.679858081042766571e-03
1.103819464333355427e-03
-7.180100679397583008e-02
-4.589913412928581238e-02
-4.350784048438072205e-02
2.692204713821411133e-02
-7.310431916266679764e-03
-4.961489140987396240e-02
7.216183003038167953e-03
-4.382959380745887756e-02
-3.048393130302429199e-02
4.490276332944631577e-03
-4.535583779215812683e-02
2.149937115609645844e-02
5.978422611951828003e-02
5.985360965132713318e-02
6.433193106204271317e-03
4.587719589471817017e-02
4.700325429439544678e-02
8.804218843579292297e-03
-9.864759631454944611e-03
4.082945734262466431e-02
-3.816726803779602051e-02
-5.206090211868286133e-02
-2.406360767781734467e-02
-7.759173959493637085e-02
-2.591910213232040405e-02
-1.772698201239109039e-02
-4.130921512842178345e-02
-2.573863044381141663e-02
-6.065083667635917664e-02
-6.718820333480834961e-02
-5.613188445568084717e-02
-1.480852719396352768e-02
2.693830616772174835e-02
1.225151307880878448e-02
9.254721924662590027e-03
-4.757012648042291403e-04
2.334987930953502655e-02
2.361669903621077538e-03
4.949006251990795135e-03
-5.429711937904357910e-02
7.721232832409441471e-04
-2.490403503179550171e-02
-4.790849611163139343e-02
-9.880841709673404694e-03
-1.483924407511949539e-02
-1.974941790103912354e-02
-4.301650822162628174e-02
-6.276880949735641479e-02
-9.406315162777900696e-03
-1.719707436859607697e-02
-4.353822022676467896e-02
-5.493907257914543152e-03
-1.516480464488267899e-02
-3.774963691830635071e-02
8.863461203873157501e-03
-5.310703441500663757e-02
-1.606676541268825531e-02
-4.294949769973754883e-02
-4.838876798748970032e-02
-1.972928643226623535e-02
-2.075658552348613739e-02
-2.783595398068428040e-02
-3.477271273732185364e-02
-2.463330887258052826e-02
-3.715118626132607460e-03
-1.960001187399029732e-03
-7.833600044250488281e-03
-5.641739815473556519e-02
-2.984852716326713562e-02
-7.143193483352661133e-02
6.355681922286748886e-03
6.724400911480188370e-03
-2.585376799106597900e-02
-1.162512227892875671e-02
-5.088931322097778320e-02
-7.409524172544479370e-02
-2.855177223682403564e-02
-5.103308707475662231e-02
-5.688666924834251404e-02
-4.502870514988899231e-02
-8.783185854554176331e-03
-1.285044359974563122e-03
-1.465526875108480453e-02
-9.159084409475326538e-02
-7.661870913580060005e-04
-6.402477156370878220e-03
-9.234372526407241821e-02
-6.555691361427307129e-02
1.153577771037817001e-02
-1.395808812230825424e-02
-2.664677798748016357e-02
-7.921959459781646729e-02
-3.309612721204757690e-02
-2.758894674479961395e-02
-1.859096810221672058e-02
8.529420942068099976e-03
-1.219394244253635406e-02
-2.078931406140327454e-02
-5.438380409032106400e-03
7.282056380063295364e-03
-3.348969668149948120e-02
-5.918587744235992432e-02
1.330159883946180344e-02
1.982757262885570526e-02
1.239044871181249619e-02
2.923542633652687073e-03
1.666673086583614349e-02
-3.396175056695938110e-02
5.876045208424329758e-03
-4.460887610912322998e-02
-5.296593531966209412e-02
-5.994129180908203125e-02
-5.203574150800704956e-02
-5.567237734794616699e-02
-3.327351994812488556e-03
-4.991865903139114380e-02
-1.011471543461084366e-02
-4.364141076803207397e-02
-3.119924664497375488e-02
-2.201916277408599854e-02
-1.731924898922443390e-02
8.990381844341754913e-03
1.324247196316719055e-02
1.462804153561592102e-02
-2.770721353590488434e-02
2.767739817500114441e-03
-2.403066027909517288e-03
7.942230440676212311e-03
-8.641797304153442383e-02
-4.590192437171936035e-02
-3.881877660751342773e-02
-6.188213825225830078e-03
-1.153017487376928329e-02
-4.832649976015090942e-02
-2.771899662911891937e-02
-6.938359886407852173e-02
-2.115873247385025024e-02
6.388315465301275253e-03
-1.273573841899633408e-02
1.666884310543537140e-02
-1.783757656812667847e-02
-4.233468789607286453e-03
1.174370385706424713e-02
-6.690637208521366119e-03
-3.576397523283958435e-02
-4.221212584525346756e-03
-6.505325436592102051e-02
-2.910457924008369446e-02
-6.593522429466247559e-02
-2.148463763296604156e-02
-3.842686861753463745e-02
-2.425543591380119324e-02
-1.058268360793590546e-02
-3.901264071464538574e-02
-5.974373593926429749e-02
-1.014888472855091095e-02
-5.303871817886829376e-03
2.346885763108730316e-02
-4.104616120457649231e-02
1.284206286072731018e-02
-3.743735607713460922e-03
-8.733434602618217468e-03
2.284007705748081207e-02
-6.034987978637218475e-03
-5.179331172257661819e-03
-6.165970116853713989e-02
-6.804246921092271805e-03
-2.399608679115772247e-02
7.384090684354305267e-03
-5.556376650929450989e-02
-5.504606757313013077e-03
-3.149566426873207092e-02
5.700552370399236679e-03
1.657632063142955303e-03
-5.320513248443603516e-02
2.624615654349327087e-02
-2.760383114218711853e-02
-2.154413796961307526e-02
2.735152142122387886e-03
4.894907120615243912e-03
1.568186283111572266e-02
-4.041463881731033325e-02
-6.726539134979248047e-02
-7.567103952169418335e-02
-3.657510271295905113e-03
-7.457003742456436157e-02
-4.448517039418220520e-02
-2.815372683107852936e-02
-5.775119736790657043e-02
-1.336129941046237946e-02
3.693928010761737823e-03
-8.613692969083786011e-02
-3.332449868321418762e-02
-9.795418940484523773e-03
-8.861473947763442993e-02
-7.728376239538192749e-02
-7.067462056875228882e-02
-8.522334694862365723e-02
-2.492933720350265503e-02
-8.875382691621780396e-02
-5.930063501000404358e-02
-4.767296090722084045e-02
-5.787729099392890930e-02
-4.057483747601509094e-02
8.180036093108355999e-04
-5.999922752380371094e-02
-3.342116624116897583e-02
-4.581324011087417603e-02
-6.662189960479736328e-02
-2.840034663677215576e-02
-4.011591151356697083e-02
-6.501457095146179199e-02
-4.596672952175140381e-02
-5.547824501991271973e-02
-1.835438050329685211e-02
-5.618285015225410461e-02
-2.297583222389221191e-02
-6.792052835226058960e-02
-2.212649997090920806e-04
-5.591520294547080994e-02
-5.256807431578636169e-03
1.637391746044158936e-02
-1.443189103156328201e-02
-1.105619245208799839e-03
6.088597234338521957e-03
-6.822931580245494843e-03
-3.914435207843780518e-02
-1.693321764469146729e-02
-2.937031351029872894e-02
-1.803305745124816895e-02
-1.789459586143493652e-02
-4.412068054080009460e-02
-5.288205668330192566e-02
-4.576268419623374939e-02
-5.467386916279792786e-02
-1.613824628293514252e-02
-7.528514415025711060e-02
-6.236382946372032166e-02
-2.103278413414955139e-02
-3.597015282139182091e-03
-8.098501712083816528e-02
-1.781124062836170197e-02
-8.173855394124984741e-02
-3.112540207803249359e-02
-4.121061787009239197e-02
6.758622359484434128e-03
-2.255348861217498779e-02
2.303763106465339661e-02
-2.970795379951596260e-03
-9.018243290483951569e-03
2.494246698915958405e-03
-1.756551675498485565e-02
-4.861773550510406494e-02
-1.689411886036396027e-02
-8.571154321543872356e-04
-7.433028891682624817e-03
5.654324218630790710e-02
-5.048724636435508728e-02
-3.745351731777191162e-02
1.108351629227399826e-02
2.442996576428413391e-02
1.581965386867523193e-02
1.544963847845792770e-02
-5.603253468871116638e-02
-3.939309343695640564e-02
-6.870079785585403442e-02
1.600681990385055542e-02
7.502231746912002563e-03
1.510504074394702911e-02
-9.595125913619995117e-03
-3.459297865629196167e-02
1.806990709155797958e-03
-1.205253507941961288e-02
-1.259016525000333786e-02
-5.834766477346420288e-02
-1.321759913116693497e-02
-3.692755103111267090e-02
-1.373055670410394669e-02
-3.732500597834587097e-02
-5.785973742604255676e-02
-5.224193446338176727e-03
-4.895551875233650208e-02
2.233284991234540939e-03
-1.207524817436933517e-02
-6.523533165454864502e-02
-3.894148766994476318e-02
-2.135543525218963623e-02
-7.866722345352172852e-02
-6.769398599863052368e-02
-5.701158568263053894e-02
-5.715737119317054749e-02
-7.854058407247066498e-03
-3.619018569588661194e-02
-5.037553980946540833e-02
-1.011479366570711136e-02
-1.291059795767068863e-02
-5.337922647595405579e-02
-5.235245823860168457e-02
-2.215305715799331665e-02
-5.750807002186775208e-03
-2.503892779350280762e-02
-7.566913217306137085e-02
-3.410939499735832214e-02
-1.437489036470651627e-02
-5.587216466665267944e-02
-6.576660275459289551e-02
-6.143353879451751709e-02
-2.319236285984516144e-02
-1.519486214965581894e-02
-5.495769903063774109e-02
1.476462557911872864e-02
-4.825051873922348022e-02
-6.164585240185260773e-03
-2.006775885820388794e-02
-6.594538688659667969e-02
-1.706869900226593018e-02
-2.722893469035625458e-02
-4.040700569748878479e-02
-2.395398216322064400e-03
2.242719195783138275e-02
-4.379259422421455383e-02
-5.566327646374702454e-02
-4.638579115271568298e-02
-1.117059495300054550e-02
1.167840976268053055e-02
2.027279138565063477e-02
2.203548885881900787e-02
-3.534972295165061951e-02
-2.364050596952438354e-02
-7.811242248862981796e-03
-5.435042083263397217e-02
-6.456440687179565430e-02
7.114288397133350372e-03
-4.124908521771430969e-02
-1.002809125930070877e-02
1.092992648482322693e-01
-6.923034787178039551e-02
-1.392880529165267944e-01
3.237586840987205505e-02
-4.784103855490684509e-02
-8.180103451013565063e-02
2.009998634457588196e-02
1.438592281192541122e-02
-1.939310580492019653e-01
-3.967041149735450745e-02
-1.173602417111396790e-01
-5.781029164791107178e-02
4.287679865956306458e-02
-2.181051485240459442e-02
-9.378710389137268066e-02
-3.610531985759735107e-02
-5.745450779795646667e-02
-9.162651002407073975e-02
3.046771883964538574e-02
-4.230952635407447815e-02
-1.350458059459924698e-02
1.347482018172740936e-02
2.241303585469722748e-02
-2.080206014215946198e-02
9.211553633213043213e-02
1.868911087512969971e-02
-9.764955937862396240e-02
1.843873783946037292e-02
1.442012749612331390e-02
-9.968596696853637695e-02
1.899018138647079468e-02
1.377635449171066284e-02
-4.157067090272903442e-02
4.375530406832695007e-02
-1.674035564064979553e-02
1.602582982741296291e-03
7.978285849094390869e-02
-4.275269806385040283e-02
-1.025045588612556458e-01
3.905745921656489372e-03
-1.419169083237648010e-02
-1.191107854247093201e-01
3.874802216887474060e-02
6.499203387647867203e-03
-5.652517080307006836e-02
1.228589490056037903e-01
3.696770407259464264e-03
8.081442117691040039e-02
1.343980878591537476e-01
1.727533899247646332e-02
1.791131217032670975e-03
1.601340025663375854e-01
-5.554020404815673828e-02
-5.214240867644548416e-03
1.717985607683658600e-02
-1.070256605744361877e-01
-1.714205741882324219e-01
4.816411435604095459e-02
2.394891576841473579e-03
-1.578054130077362061e-01
1.968743279576301575e-02
-8.759615570306777954e-02
-1.477495133876800537e-01
8.399356156587600708e-02
3.853667527437210083e-02
-5.152330175042152405e-02
1.148475185036659241e-01
1.308799721300601959e-02
-2.333725336939096451e-03
-5.744345020502805710e-03
1.089673396199941635e-02
-9.416801854968070984e-03
-1.719835586845874786e-02
-2.173543535172939301e-02
-3.318559378385543823e-02
7.795260101556777954e-02
1.948752999305725098e-02
6.168513372540473938e-02
-3.515343181788921356e-03
-5.496579408645629883e-02
5.185376480221748352e-02
3.610875830054283142e-02
-1.477591600269079208e-02
-2.783723734319210052e-02
6.986679881811141968e-02
-1.088466960936784744e-02
-3.775725199375301600e-04
9.283387102186679840e-03
5.457114893943071365e-03
-4.154599085450172424e-02
7.431793212890625000e-02
-4.051157832145690918e-02
-4.462946578860282898e-02
9.243609756231307983e-02
4.185029491782188416e-02
9.662191383540630341e-03
-2.702430263161659241e-02
-5.189763754606246948e-02
-8.187187463045120239e-02
-3.895263001322746277e-02
-1.057945843786001205e-02
-8.006259053945541382e-02
-6.458477582782506943e-03
-3.184047341346740723e-02
-4.226226359605789185e-02
-2.104399167001247406e-02
-6.138504296541213989e-02
1.198889128863811493e-02
-2.573418617248535156e-02
-6.234027817845344543e-02
-6.803891062736511230e-02
-1.521987561136484146e-02
-5.396008864045143127e-02
1.436915015801787376e-03
-4.001610353589057922e-02
-1.144818738102912903e-01
-3.883235901594161987e-02
1.921632327139377594e-02
-5.202008038759231567e-02
-6.638010591268539429e-02
1.831393502652645111e-02
-1.922586746513843536e-02
-3.545151278376579285e-02
-5.530586931854486465e-03
-1.152118481695652008e-02
-7.173604518175125122e-02
-4.037125036120414734e-02
-1.069146692752838135e-01
-6.655112653970718384e-02
1.857085525989532471e-02
-2.936304360628128052e-02
-5.211888626217842102e-02
1.038617547601461411e-02
-2.339649945497512817e-02
-2.747777104377746582e-02
9.714273735880851746e-03
-7.023520767688751221e-02
-1.117098629474639893e-01
6.339423358440399170e-02
-2.189947664737701416e-02
-6.060810014605522156e-02
1.688635721802711487e-02
-5.621101241558790207e-03
-1.759574748575687408e-02
6.487508118152618408e-02
-8.073888719081878662e-03
-4.529146105051040649e-02
1.129071786999702454e-01
8.474757522344589233e-02
5.388523638248443604e-02
1.385220512747764587e-02
-4.405092447996139526e-02
1.644276268780231476e-02
3.554117307066917419e-02
-6.741583812981843948e-03
-1.032284274697303772e-01
1.041965335607528687e-01
5.337692424654960632e-02
4.354143887758255005e-02
2.660070545971393585e-02
-2.321047522127628326e-02
-5.045732110738754272e-02
2.304095076397061348e-03
-7.627813518047332764e-02
-8.516236394643783569e-02
5.161535739898681641e-02
-1.760585233569145203e-02
-2.908180281519889832e-02
-3.029767610132694244e-02
-5.345597863197326660e-02
-7.264595478773117065e-02
-4.775904119014739990e-02
-1.139188855886459351e-01
-1.709084510803222656e-01
-3.547958657145500183e-02
-3.508836776018142700e-02
-1.195599734783172607e-01
1.905176974833011627e-02
-3.478009626269340515e-02
1.635552756488323212e-02
5.728941410779953003e-02
1.876129955053329468e-02
-2.045643143355846405e-02
2.671364881098270416e-02
-1.703857816755771637e-02
-8.333560079336166382e-02
3.985209763050079346e-02
-9.076084941625595093e-02
-1.009059324860572815e-01
-2.823976613581180573e-02
-4.071175679564476013e-02
-2.191188931465148926e-02
1.162950545549392700e-01
2.244879491627216339e-02
3.887792304158210754e-02
3.367258608341217041e-02
-5.047533661127090454e-02
-4.559550061821937561e-02
7.865416258573532104e-02
7.165701687335968018e-02
-7.781120948493480682e-03
7.547611743211746216e-02
3.304344415664672852e-02
4.063529148697853088e-02
-5.524154752492904663e-02
-1.417450699955224991e-02
-1.649544388055801392e-02
4.143112897872924805e-02
-2.272185496985912323e-02
-1.541829667985439301e-02
7.634060829877853394e-02
6.241281703114509583e-02
-5.525054782629013062e-02
-5.575053021311759949e-02
-6.876733899116516113e-02
-7.393194735050201416e-02
-8.792862296104431152e-03
-4.017503187060356140e-02
-1.183582395315170288e-01
-2.615432441234588623e-02
2.165738679468631744e-02
-7.519746571779251099e-02
-1.272097136825323105e-02
-2.783700451254844666e-02
-1.322045624256134033e-01
1.883990131318569183e-02
-5.519957095384597778e-02
-8.578560501337051392e-02
1.064671501517295837e-01
6.174632906913757324e-02
1.135248504579067230e-02
5.908555537462234497e-02
-7.756031583994626999e-03
-3.419265523552894592e-02
-1.959161832928657532e-02
-4.060956463217735291e-02
-7.643279433250427246e-02
1.477169897407293320e-02
-3.071096260100603104e-03
-3.917171806097030640e-02
3.585422411561012268e-02
-3.906910493969917297e-02
-4.864752665162086487e-02
1.647345349192619324e-02
1.417875010520219803e-02
-1.143547054380178452e-02
-1.960034482181072235e-02
-4.289587959647178650e-02
-5.261664278805255890e-03
-8.437123149633407593e-03
-7.453543692827224731e-02
-7.029684633016586304e-02
-1.596926711499691010e-02
6.697102636098861694e-02
1.138086542487144470e-01
2.410442754626274109e-02
1.262026559561491013e-02
8.452350646257400513e-02
8.925491571426391602e-02
-2.166085317730903625e-02
5.730076134204864502e-02
2.400373108685016632e-02
6.434895563870668411e-03
-9.120865166187286377e-02
5.995621532201766968e-02
-1.717546768486499786e-02
5.128927994519472122e-03
-3.985471650958061218e-02
-6.285666674375534058e-02
-5.847767740488052368e-02
-7.038178853690624237e-03
1.012371387332677841e-02
6.281848996877670288e-03
3.492939844727516174e-02
1.726877293549478054e-03
1.978178136050701141e-02
-6.004260852932929993e-02
-3.175779059529304504e-02
-5.928351357579231262e-02
-1.422232389450073242e-02
6.251160055398941040e-03
-1.220860034227371216e-01
3.522751107811927795e-02
-2.647191286087036133e-02
-5.955611914396286011e-02
-1.933928765356540680e-02
-5.855561234056949615e-03
-8.866414427757263184e-02
8.154839277267456055e-02
1.544478069990873337e-02
-1.668970733880996704e-01
5.031811073422431946e-02
-6.248780339956283569e-02
-3.389463201165199280e-02
1.121822074055671692e-01
3.254023939371109009e-02
-5.886917933821678162e-02
3.010814636945724487e-02
-4.835735261440277100e-02
-4.426241386681795120e-03
2.846171706914901733e-02
-7.126861251890659332e-03
3.689955919981002808e-02
1.625330885872244835e-03
-2.587404847145080566e-02
-1.223264914005994797e-02
5.787688866257667542e-02
6.978692859411239624e-02
-1.740490831434726715e-02
3.647863492369651794e-02
2.391844056546688080e-03
-1.134062651544809341e-02
3.776924312114715576e-02
1.242687646299600601e-02
-7.304489612579345703e-02
1.336004864424467087e-02
-7.843712717294692993e-02
-4.190135747194290161e-02
4.496316611766815186e-02
-1.019347906112670898e-01
8.490064647048711777e-04
6.173171103000640869e-03
-9.762158989906311035e-02
-6.760991364717483521e-02
1.081508863717317581e-02
7.429268676787614822e-03
-2.608571387827396393e-02
9.541498124599456787e-02
9.750889986753463745e-02
6.969832628965377808e-02
2.771177329123020172e-02
1.080444082617759705e-01
-3.396064415574073792e-02
8.142671734094619751e-02
-5.808223783969879150e-02
-8.723182231187820435e-02
9.304200857877731323e-02
-9.785872697830200195e-02
-1.097607091069221497e-01
6.232131272554397583e-02
-7.623627036809921265e-02
-4.533839225769042969e-02
4.558439552783966064e-02
-5.088336393237113953e-02
-1.462662070989608765e-01
8.396142721176147461e-02
1.731015369296073914e-02
-5.574768036603927612e-02
-1.420210581272840500e-02
-5.711868032813072205e-02
-1.474992334842681885e-01
-5.910265725106000900e-03
6.057470571249723434e-03
-2.587701007723808289e-02
2.589486911892890930e-02
5.760930012911558151e-03
8.615281432867050171e-03
-2.971866726875305176e-02
-3.833302110433578491e-02
-5.168367549777030945e-02
-5.938676744699478149e-02
-3.312227502465248108e-02
-4.932123795151710510e-02
1.784856081940233707e-03
-1.079501397907733917e-02
-2.126524969935417175e-02
-1.015342697501182556e-01
-3.788021206855773926e-02
-5.762809514999389648e-02
7.586369663476943970e-02
7.554803043603897095e-02
-4.972415044903755188e-03
7.108235359191894531e-02
4.399066045880317688e-02
2.400842681527137756e-02
-3.931111097335815430e-02
-2.981129474937915802e-02
-9.402382187545299530e-03
1.610192507505416870e-01
2.379621565341949463e-02
-1.471974998712539673e-01
8.891598880290985107e-02
4.810400772839784622e-03
-7.795847952365875244e-02
6.251948326826095581e-02
-4.761807620525360107e-02
-1.254162639379501343e-01
8.434178680181503296e-02
8.383455872535705566e-02
-3.242024034261703491e-02
6.608339399099349976e-02
5.124684423208236694e-02
-1.670207083225250244e-02
1.022579334676265717e-02
1.267340406775474548e-02
-1.835145615041255951e-02
-3.168298676609992981e-02
-6.105436384677886963e-02
-1.566250324249267578e-01
7.405064534395933151e-03
-1.501760911196470261e-02
1.208423404023051262e-03
5.973656475543975830e-02
-1.564130187034606934e-02
-7.235833257436752319e-02
5.648991838097572327e-02
3.991927579045295715e-02
-2.792739681899547577e-02
3.367630764842033386e-02
4.414029046893119812e-02
-4.503493756055831909e-02
1.927645690739154816e-02
-3.091538557782769203e-03
-1.368647441267967224e-02
-9.316472709178924561e-02
-4.063023254275321960e-02
-6.385812908411026001e-02
2.576276287436485291e-02
1.538064051419496536e-02
-1.479420624673366547e-02
-5.903489887714385986e-02
-7.089374214410781860e-02
-8.098543435335159302e-02
8.037383109331130981e-02
7.083009183406829834e-02
3.967951238155364990e-02
4.479332268238067627e-02
4.793738480657339096e-03
-1.927825622260570526e-02
4.904962331056594849e-02
5.310602020472288132e-03
3.217266872525215149e-02
2.123074233531951904e-02
-3.892379347234964371e-03
1.347517408430576324e-02
4.132358357310295105e-02
6.850709766149520874e-02
2.386949770152568817e-02
-5.772093310952186584e-02
9.998303838074207306e-03
-6.030838191509246826e-02
1.400506822392344475e-03
-4.864998627454042435e-03
-1.205039918422698975e-01
4.168356209993362427e-02
-3.000074252486228943e-02
-7.349555194377899170e-02
6.013170257210731506e-02
3.797242790460586548e-02
-1.001562699675559998e-01
-3.041617013514041901e-02
-1.455364748835563660e-02
-2.684781886637210846e-02
7.691289763897657394e-03
1.843569613993167877e-02
1.495304238051176071e-02
-4.481622204184532166e-02
-6.556145846843719482e-02
-4.024265334010124207e-03
1.278150081634521484e-01
4.380981251597404480e-02
-2.956212125718593597e-02
2.656868845224380493e-02
-4.052553325891494751e-02
-3.982707858085632324e-02
-9.992391802370548248e-03
-7.673989981412887573e-02
-5.548394098877906799e-02
3.896062821149826050e-02
3.172357007861137390e-02
-5.423172190785408020e-02
5.951273441314697266e-02
-4.472335800528526306e-02
-1.047241315245628357e-01
-5.267306230962276459e-03
-7.311904430389404297e-02
-9.040693938732147217e-02
9.725845605134963989e-02
5.570806935429573059e-02
-2.400069124996662140e-02
3.449017181992530823e-02
4.187596589326858521e-02
3.156408667564392090e-02
-2.398249320685863495e-02
-4.966862127184867859e-02
-5.588692612946033478e-03
9.436697699129581451e-03
-3.916131332516670227e-02
-5.942805111408233643e-02
-9.550184942781925201e-03
-4.882028698921203613e-02
-9.821192920207977295e-02
2.750232443213462830e-02
-6.785545498132705688e-02
-7.981393486261367798e-02
9.365581208840012550e-04
4.287080839276313782e-02
1.813479512929916382e-01
-9.896401315927505493e-03
7.393258623778820038e-03
7.219886779785156250e-02
5.612795427441596985e-02
2.121466211974620819e-02
1.417927909642457962e-03
3.624751046299934387e-02
-1.332612708210945129e-02
-6.915130466222763062e-02
6.425746530294418335e-02
7.447478175163269043e-02
3.199237585067749023e-02
-4.547499492764472961e-02
3.764745220541954041e-02
3.444436937570571899e-02
4.225223138928413391e-02
-5.617649108171463013e-02
-1.257028281688690186e-01
1.067269966006278992e-01
-2.370212040841579437e-02
-7.558361440896987915e-02
2.956112660467624664e-02
-2.092126943171024323e-02
-6.457836180925369263e-02
-1.180137228220701218e-02
-2.174911461770534515e-02
-8.019955456256866455e-02
6.536573171615600586e-02
-2.745781093835830688e-02
-4.926135390996932983e-02
-3.899523522704839706e-03
-2.841527014970779419e-02
-1.799013279378414154e-02
9.426916949450969696e-03
8.699169009923934937e-02
4.989362135529518127e-02
3.681720048189163208e-02
5.718932300806045532e-02
4.408459737896919250e-02
-5.051362514495849609e-02
-8.896716870367527008e-03
-1.987368240952491760e-02
6.885015964508056641e-02
1.129416748881340027e-02
-1.157413870096206665e-01
7.919165492057800293e-02
2.847482264041900635e-02
1.904253289103507996e-02
1.205889787524938583e-02
-6.540988385677337646e-02
-1.165782213211059570e-01
2.647134289145469666e-02
-9.456097148358821869e-03
-9.373375028371810913e-02
6.782397627830505371e-02
6.038546189665794373e-02
-4.551698639988899231e-02
-2.072348818182945251e-02
-4.890260472893714905e-02
-1.514386385679244995e-02
2.759821480140089989e-03
-1.273584514856338501e-01
-1.447222977876663208e-01
7.051292806863784790e-02
-7.831095159053802490e-02
-1.019370257854461670e-01
2.647885680198669434e-02
3.424921538680791855e-03
1.129458379000425339e-02
3.404060751199722290e-02
3.171210363507270813e-02
1.660232245922088623e-02
9.938177466392517090e-02
1.149694696068763733e-01
9.270173311233520508e-02
1.491075288504362106e-02
-4.013708606362342834e-02
1.102256029844284058e-02
6.646335590630769730e-03
-6.235166639089584351e-02
2.064537722617387772e-03
-2.969667874276638031e-02
-1.469770353287458420e-02
2.136329887434840202e-03
3.586867079138755798e-02
6.475505884736776352e-03
1.508359145373106003e-02
-4.705472663044929504e-02
-2.465494535863399506e-02
-9.463652037084102631e-03
-4.165852814912796021e-02
2.571397833526134491e-02
4.108552262187004089e-02
-4.796061664819717407e-02
-1.784882694482803345e-02
6.237489357590675354e-02
-1.003530547022819519e-01
-3.140776604413986206e-02
1.667769700288772583e-01
-4.949068650603294373e-02
1.410705130547285080e-02
1.394608467817306519e-01
-4.389617964625358582e-02
3.946883231401443481e-02
1.710248291492462158e-01
-1.635863818228244781e-02
-7.024088501930236816e-02
-1.360005438327789307e-01
-5.755732953548431396e-02
-1.085579097270965576e-01
-1.349955648183822632e-01
-4.008922725915908813e-02
-1.421274840831756592e-01
-8.452058583498001099e-02
-3.167640045285224915e-02
-1.063537597656250000e-01
-5.015281215310096741e-02
-4.734996333718299866e-02
-1.024827659130096436e-01
-1.350180208683013916e-01
-6.026620045304298401e-02
-6.139874458312988281e-02
-7.232253253459930420e-02
-7.680932758376002312e-04
1.289670616388320923e-01
1.286815553903579712e-01
7.794200628995895386e-02
1.203017979860305786e-01
1.509587317705154419e-01
1.327704936265945435e-01
5.007794499397277832e-02
1.044602245092391968e-01
7.943330705165863037e-02
3.206507861614227295e-02
-3.346760943531990051e-02
1.391092874109745026e-02
6.276355683803558350e-02
-2.899241517297923565e-04
1.809261925518512726e-02
7.280507683753967285e-02
3.749843314290046692e-02
9.137702733278274536e-02
3.124274499714374542e-02
-3.297913819551467896e-02
9.868952445685863495e-03
-6.455996632575988770e-02
-3.569022193551063538e-02
-1.673506759107112885e-02
-4.367209970951080322e-02
9.191366843879222870e-03
5.172632634639739990e-02
-2.692946605384349823e-02
-4.668734967708587646e-02
4.941602423787117004e-02
4.140574485063552856e-03
-8.595653623342514038e-02
2.561355754733085632e-02
-5.956814438104629517e-02
-5.451507493853569031e-02
2.345366962254047394e-02
-5.017947405576705933e-02
7.277404516935348511e-02
2.867012843489646912e-02
8.103999309241771698e-03
8.493459224700927734e-02
1.663848198950290680e-02
2.730047330260276794e-02
7.427476346492767334e-02
-1.191487088799476624e-01
-4.141059517860412598e-02
9.970064461231231689e-02
-9.862002730369567871e-02
-3.839218616485595703e-02
4.449537768959999084e-02
-4.652455449104309082e-02
-3.416898474097251892e-02
5.089989304542541504e-02
4.267083853483200073e-02
-8.933820761740207672e-03
1.509367488324642181e-02
5.125026404857635498e-02
-1.734742894768714905e-03
-6.492128595709800720e-03
6.847468018531799316e-02
-1.668790541589260101e-02
-4.772857949137687683e-02
3.779025748372077942e-02
4.387003928422927856e-02
1.721117645502090454e-02
1.066575869917869568e-01
3.973516821861267090e-02
-1.333339959383010864e-01
4.011516645550727844e-02
-2.044421155005693436e-03
-2.469983138144016266e-02
4.352731630206108093e-02
-2.100978232920169830e-02
5.019252002239227295e-02
-1.799496589228510857e-03
-1.664649508893489838e-02
4.413181170821189880e-02
5.572674795985221863e-02
6.285242736339569092e-03
3.586762025952339172e-02
1.099311001598834991e-02
5.647529289126396179e-02
9.580087661743164062e-02
2.089634537696838379e-02
6.370144337415695190e-02
7.311083376407623291e-02
2.981068752706050873e-02
6.154547259211540222e-02
4.615786951035261154e-03
-3.437414020299911499e-02
-7.392312586307525635e-02
-6.551973521709442139e-02
3.056462481617927551e-02
-3.476477414369583130e-02
-3.317375108599662781e-02
-4.735225229524075985e-04
-3.542596008628606796e-03
-4.282281734049320221e-03
-6.731285154819488525e-02
-4.802118986845016479e-03
3.676952421665191650e-02
-1.169827803969383240e-01
-3.611336648464202881e-02
1.318757236003875732e-01
-8.780632168054580688e-02
-2.857626974582672119e-02
9.701421111822128296e-02
-3.813228011131286621e-02
-1.018490046262741089e-01
2.538359165191650391e-02
-1.138563081622123718e-01
-1.045931056141853333e-01
2.585164457559585571e-02
-2.988026291131973267e-02
5.225022137165069580e-02
2.029069699347019196e-02
4.929587710648775101e-03
-3.112734667956829071e-02
-7.936311303637921810e-04
2.274334244430065155e-02
-7.223342359066009521e-02
-8.588115125894546509e-02
-4.501954186707735062e-03
-1.857017725706100464e-02
-1.075629983097314835e-02
-1.259268634021282196e-02
-7.199906557798385620e-02
-9.737659990787506104e-02
-3.164884983561933041e-04
-7.333663851022720337e-02
-1.044131740927696228e-01
5.934225022792816162e-02
-2.062263339757919312e-02
-8.398170769214630127e-02
-3.821652010083198547e-02
-3.643388301134109497e-02
-2.251122705638408661e-02
-1.503065414726734161e-02
-4.328340291976928711e-02
-3.167968615889549255e-02
3.694265382364392281e-03
-1.907918974757194519e-02
-3.743893932551145554e-03
7.706511020660400391e-02
5.017875507473945618e-02
1.420910656452178955e-02
5.773125588893890381e-02
6.497889757156372070e-02
-1.270483899861574173e-02
5.684011429548263550e-02
2.754613198339939117e-02
5.296515673398971558e-02
2.281705662608146667e-02
-4.817243292927742004e-02
1.753447763621807098e-02
-9.903209283947944641e-03
-3.554915636777877808e-02
7.085700053721666336e-03
4.138123616576194763e-02
-1.665627397596836090e-02
1.882539317011833191e-02
6.841936707496643066e-02
1.974015310406684875e-02
-9.130447171628475189e-03
-1.735873147845268250e-02
4.076675698161125183e-02
5.406291782855987549e-02
-2.830389700829982758e-02
3.756577521562576294e-02
3.264305368065834045e-02
-5.236311629414558411e-02
-6.951539963483810425e-02
8.358505554497241974e-03
4.277242813259363174e-03
-5.587202310562133789e-02
-6.237602978944778442e-02
-2.708467841148376465e-02
-6.481907516717910767e-02
8.123293519020080566e-03
-1.347986012697219849e-01
-6.652002036571502686e-02
4.990958794951438904e-02
-2.509348094463348389e-01
-2.223465591669082642e-03
7.093353569507598877e-02
-1.722745001316070557e-01
-8.612281642854213715e-03
5.112002044916152954e-02
-3.583015501499176025e-02
-4.254237189888954163e-02
-5.311753973364830017e-02
8.432067930698394775e-03
-6.503332406282424927e-02
-2.520156465470790863e-02
-3.740966320037841797e-02
3.160063177347183228e-03
-2.496179565787315369e-02
-2.035030350089073181e-02
6.042805500328540802e-03
4.551782459020614624e-02
3.992353007197380066e-02
-2.387091331183910370e-02
2.560157328844070435e-02
5.543745681643486023e-02
1.685969345271587372e-02
-5.583396553993225098e-02
-1.582511886954307556e-02
-2.843027003109455109e-02
-2.917636930942535400e-02
2.203595824539661407e-03
-1.189097613096237183e-01
-1.052058935165405273e-01
-3.419133368879556656e-03
-1.891932636499404907e-02
-9.989244490861892700e-02
-8.942944929003715515e-03
2.590295672416687012e-02
-4.164091497659683228e-02
-1.447185035794973373e-02
2.969040349125862122e-02
4.657446220517158508e-02
-4.157621040940284729e-02
-5.174388177692890167e-03
5.981634021736681461e-04
1.814768277108669281e-02
-2.716258168220520020e-02
-9.010319411754608154e-02
7.765536755323410034e-02
-4.153348878026008606e-02
-1.037395149469375610e-01
1.177895255386829376e-02
2.206744998693466187e-02
-7.674898952245712280e-02
-6.348451226949691772e-02
1.347133331000804901e-02
4.800961539149284363e-02
-5.694311112165451050e-02
4.581419925671070814e-04
5.862320959568023682e-02
-6.892015039920806885e-02
2.453429996967315674e-02
8.727242797613143921e-02
-5.684654414653778076e-02
-8.447004109621047974e-02
-1.591992937028408051e-02
-1.284369379281997681e-01
-6.514498591423034668e-02
-1.361711882054805756e-02
4.723850637674331665e-02
-3.583031147718429565e-02
-3.310951218008995056e-02
2.358593977987766266e-02
9.171986952424049377e-03
4.771043732762336731e-02
4.429671913385391235e-02
6.506320089101791382e-02
6.505624391138553619e-03
3.270721808075904846e-02
5.661702156066894531e-02
4.475989565253257751e-02
4.728866741061210632e-03
7.162281870841979980e-02
3.178055211901664734e-02
4.115780070424079895e-02
1.145793870091438293e-01
1.640267856419086456e-02
6.399476900696754456e-03
7.501580566167831421e-02
8.832003921270370483e-03
2.941712737083435059e-02
-4.098648950457572937e-02
-5.360883101820945740e-02
1.078217700123786926e-01
-7.225750014185905457e-03
-8.209405839443206787e-02
5.183462798595428467e-02
-2.996101789176464081e-02
-9.080550819635391235e-02
-1.779894903302192688e-02
-1.185592357069253922e-02
3.595609590411186218e-02
-9.329455904662609100e-03
9.787627309560775757e-02
8.376032859086990356e-02
2.374673262238502502e-02
5.891508981585502625e-02
2.104563079774379730e-02
9.600092470645904541e-02
-3.284001350402832031e-02
-3.020014986395835876e-02
1.438297983258962631e-02
1.206814683973789215e-02
-3.866713121533393860e-02
-8.969265036284923553e-03
-3.456487506628036499e-02
-2.638680487871170044e-02
-1.636619865894317627e-02
-2.294860407710075378e-02
5.561501532793045044e-02
-1.193814538419246674e-02
-3.297302499413490295e-02
5.408061668276786804e-02
-4.113857820630073547e-02
3.650460764765739441e-02
1.886120252311229706e-02
-5.576410889625549316e-02
-3.715826943516731262e-02
2.869568392634391785e-02
-3.638774156570434570e-02
-9.976578503847122192e-02
-4.779070243239402771e-02
-8.909676223993301392e-02
-7.450658828020095825e-02
-9.474514983594417572e-03
7.227617502212524414e-02
2.939356304705142975e-02
-6.264439783990383148e-03
1.579375937581062317e-02
-1.471658470109105110e-03
-4.029378667473793030e-02
2.535316720604896545e-02
5.102979391813278198e-02
-1.961880363523960114e-02
-4.378391057252883911e-02
-5.596185848116874695e-02
1.581027358770370483e-02
-4.944257810711860657e-02
-9.051566570997238159e-02
3.113763034343719482e-02
-2.917971834540367126e-02
-4.154466837644577026e-02
-2.063284255564212799e-02
6.350988149642944336e-02
4.523827508091926575e-02
2.682295162230730057e-03
-8.127240091562271118e-02
-5.097426474094390869e-03
-4.813873022794723511e-02
-2.591866999864578247e-02
1.938948780298233032e-02
3.358124569058418274e-02
2.010919153690338135e-02
-1.482251379638910294e-02
-4.009544104337692261e-02
2.948004566133022308e-02
-5.899637192487716675e-02
-1.839819923043251038e-02
1.261956524103879929e-02
6.730212480761110783e-04
-4.022786021232604980e-02
-1.007509529590606689e-01
-5.286854505538940430e-02
1.813922449946403503e-02
-1.403539031744003296e-01
-4.681484401226043701e-02
2.564171701669692993e-02
-1.390899419784545898e-01
-9.970314800739288330e-03
-7.846611551940441132e-04
-2.013039588928222656e-02
8.165701292455196381e-03
3.738588094711303711e-02
-5.410338938236236572e-02
-3.623742237687110901e-02
8.864170871675014496e-03
1.041831076145172119e-02
1.535220351070165634e-02
3.762102127075195312e-02
5.395649001002311707e-02
4.637086391448974609e-02
-2.440485730767250061e-02
-1.527386368252336979e-03
6.069737300276756287e-02
-2.190387109294533730e-03
4.408114776015281677e-02
1.326067466288805008e-02
-3.622801601886749268e-02
-3.449714928865432739e-02
-3.185561671853065491e-02
-2.316424995660781860e-02
-8.500786125659942627e-02
-4.992961138486862183e-02
-4.249999299645423889e-02
-1.452356390655040741e-02
-3.370947763323783875e-02
-1.326109282672405243e-02
-5.679990351200103760e-02
8.923031389713287354e-03
6.235732231289148331e-03
-6.739160418510437012e-02
4.447141196578741074e-03
5.670865625143051147e-02
-3.989643231034278870e-02
-3.573651239275932312e-02
4.244164377450942993e-02
-8.033263683319091797e-02
-5.430426076054573059e-02
4.243700578808784485e-02
-7.070940732955932617e-02
4.050917178392410278e-02
7.268176972866058350e-02
-3.064512088894844055e-02
4.206832498311996460e-02
6.597242504358291626e-02
-3.165962698403745890e-04
1.300523988902568817e-02
5.331224203109741211e-02
-5.673864390701055527e-03
2.525540813803672791e-02
4.344983026385307312e-02
1.874884963035583496e-02
3.540330380201339722e-02
-1.735340338200330734e-03
-1.125207990407943726e-01
-3.754588589072227478e-02
-1.961203664541244507e-02
-7.629083096981048584e-02
-4.512944817543029785e-02
1.975904405117034912e-02
-8.323355764150619507e-02
-4.359156265854835510e-02
-2.493368089199066162e-02
-3.103918768465518951e-02
-1.685100607573986053e-02
-5.699409171938896179e-02
1.270453538745641708e-02
-3.713613376021385193e-02
-4.003736004233360291e-02
6.424158811569213867e-03
-1.862958888523280621e-04
-2.900050207972526550e-02
2.406771294772624969e-02
-7.660502940416336060e-02
-2.860018238425254822e-02
-4.522714391350746155e-02
-6.902653723955154419e-02
4.733887035399675369e-03
1.670081540942192078e-02
-5.734197050333023071e-02
-2.067894209176301956e-03
6.335234642028808594e-02
-4.808172583580017090e-03
5.810495465993881226e-03
-1.154569722712039948e-02
2.553253993391990662e-02
4.175838828086853027e-02
-3.090649284422397614e-02
-9.981213370338082314e-04
1.759497076272964478e-02
-7.499284297227859497e-02
-1.199405267834663391e-01
3.594962880015373230e-02
-1.199375241994857788e-01
-1.399154812097549438e-01
-7.013659924268722534e-02
-4.311790689826011658e-02
-1.186502650380134583e-01
-4.292500019073486328e-02
-2.536029322072863579e-03
1.441233139485120773e-02
-7.588231563568115234e-02
-6.395419687032699585e-02
-1.007333490997552872e-02
-8.261187002062797546e-03
-6.249710172414779663e-02
-3.408364253118634224e-03
-4.733550176024436951e-02
8.095194399356842041e-02
-6.338296830654144287e-02
-2.407539077103137970e-02
1.012332830578088760e-02
-5.172163248062133789e-02
-7.363524287939071655e-02
5.998398642987012863e-03
-5.169469490647315979e-02
-5.760643258690834045e-02
3.599850088357925415e-02
-4.894902464002370834e-03
-1.009101420640945435e-01
2.239109389483928680e-02
-6.173179019242525101e-03
-6.112432107329368591e-02
-7.179508102126419544e-04
3.432945534586906433e-02
9.369942359626293182e-03
2.894714102149009705e-02
-3.550554160028696060e-03
4.025254026055335999e-02
2.981688641011714935e-02
-2.839815244078636169e-02
-2.210138551890850067e-02
6.551382597535848618e-03
-7.770433276891708374e-02
3.291715681552886963e-02
1.531868614256381989e-02
-5.725286155939102173e-02
-5.152578465640544891e-03
-9.386230260133743286e-02
-9.671160951256752014e-03
-2.639799611642956734e-03
-6.686475127935409546e-02
7.625342812389135361e-03
4.931642115116119385e-02
2.847388014197349548e-02
-4.644008353352546692e-03
3.611678257584571838e-02
3.137360094115138054e-03
-2.906324807554483414e-03
5.794587731361389160e-02
3.010559640824794769e-02
-4.097195714712142944e-02
1.466596722602844238e-01
-6.546857208013534546e-02
-2.315920218825340271e-02
2.048753201961517334e-02
-1.260329186916351318e-01
-1.565285399556159973e-02
2.143409289419651031e-02
-1.027535647153854370e-01
2.862513996660709381e-02
3.638538718223571777e-02
-3.346064314246177673e-02
-9.482012689113616943e-02
-6.864514201879501343e-02
-6.980073451995849609e-02
-1.445017755031585693e-01
-6.210215017199516296e-02
-3.016594238579273224e-02
-3.789599984884262085e-02
-1.447875518351793289e-02
-6.840553251095116138e-04
-3.366883099079132080e-02
9.905975311994552612e-03
-7.640125602483749390e-02
-4.739683121442794800e-02
1.376298489049077034e-03
-5.569851398468017578e-02
-5.750133842229843140e-02
-1.355913374572992325e-02
-2.706855349242687225e-02
-6.160046905279159546e-02
-4.442835599184036255e-02
-4.419366642832756042e-02
-4.090493172407150269e-02
4.362955223768949509e-03
3.058592416346073151e-02
1.332576572895050049e-02
-6.288513541221618652e-02
8.612737059593200684e-02
4.843514412641525269e-02
7.298504561185836792e-02
6.243647634983062744e-02
1.124165579676628113e-01
1.029777303338050842e-01
-9.047994017601013184e-02
-1.254946142435073853e-01
-3.474873676896095276e-02
-8.140323311090469360e-02
-5.685580521821975708e-02
-8.644109964370727539e-02
-1.493427786044776440e-03
-1.064641866832971573e-02
-1.806374453008174896e-02
-8.663925342261791229e-03
-1.393804606050252914e-02
-3.322336822748184204e-02
-1.171938609331846237e-03
-8.596657216548919678e-02
-2.517519518733024597e-02
-3.462553024291992188e-02
-7.282038778066635132e-02
-1.206547860056161880e-02
7.424062583595514297e-03
2.996288798749446869e-02
-3.984171152114868164e-02
2.312465198338031769e-02
5.502544343471527100e-02
6.698886305093765259e-02
4.626546427607536316e-02
6.123671680688858032e-02
1.315051410347223282e-02
-9.160312265157699585e-02
-6.169360503554344177e-02
-4.747148975729942322e-02
-6.959692388772964478e-02
-1.009843349456787109e-01
-1.139123067259788513e-01
-4.242439195513725281e-02
-2.392853982746601105e-02
-3.033841028809547424e-02
-1.016494929790496826e-01
-8.453027904033660889e-02
-9.510622173547744751e-02
-2.183931134641170502e-02
-3.013916080817580223e-03
-4.969980195164680481e-02
2.096743136644363403e-02
-2.021357975900173187e-02
7.505837827920913696e-02
-3.451088815927505493e-02
-3.278765827417373657e-02
5.420669168233871460e-02
-4.551308602094650269e-02
-3.133096918463706970e-02
3.383078426122665405e-02
3.145502880215644836e-02
-2.618259564042091370e-02
8.173028379678726196e-02
7.311424612998962402e-02
5.974447727203369141e-02
-7.524987310171127319e-02
-2.545568533241748810e-02
-1.351336669176816940e-02
-5.137644708156585693e-03
8.327146619558334351e-02
1.426038052886724472e-02
9.662108123302459717e-02
-4.270800948143005371e-02
-6.461841613054275513e-02
-9.023123979568481445e-02
1.041758805513381958e-02
5.248476564884185791e-02
-2.019825950264930725e-02
2.996868267655372620e-02
5.506751686334609985e-02
5.269286036491394043e-02
-7.451586425304412842e-02
-7.185513526201248169e-02
-4.144214466214179993e-02
-1.294100843369960785e-02
-8.023088425397872925e-02
-7.161257416009902954e-02
8.433789014816284180e-03
-4.390952363610267639e-02
-6.788105703890323639e-03
4.348649829626083374e-02
7.976794615387916565e-03
3.610760206356644630e-03
-3.358347713947296143e-02
-2.912726067006587982e-02
-9.422474354505538940e-02
-2.470547333359718323e-03
-6.811047345399856567e-02
-5.476228892803192139e-02
6.296560913324356079e-02
7.430919259786605835e-02
7.359817624092102051e-02
1.310997176915407181e-02
-3.043228387832641602e-02
2.254012785851955414e-02
-1.714841835200786591e-02
-2.270588278770446777e-02
2.589521929621696472e-02
-7.792606949806213379e-02
-1.034576073288917542e-02
-2.173916727770119905e-04
-2.501418069005012512e-02
-3.304198756814002991e-02
-1.732301712036132812e-02
-2.746798656880855560e-02
2.860339358448982239e-02
1.759169809520244598e-02
-3.892656415700912476e-02
-2.705059945583343506e-02
-9.923329204320907593e-02
2.718280069530010223e-02
3.119712695479393005e-02
2.062277123332023621e-02
4.816522821784019470e-03
2.544894069433212280e-02
5.065582320094108582e-02
-7.675234228372573853e-02
-8.621917665004730225e-02
-1.606188416481018066e-01
-3.196480125188827515e-02
4.900651425123214722e-02
4.500572010874748230e-02
1.426794473081827164e-02
5.852430593222379684e-03
1.942818798124790192e-02
-1.227729320526123047e-01
-1.184934079647064209e-01
-9.815993160009384155e-02
-1.588244549930095673e-02
1.370258908718824387e-02
3.956611454486846924e-02
1.896886527538299561e-02
-2.420779550448060036e-03
-8.811819367110729218e-03
-5.723990499973297119e-02
-1.240732967853546143e-01
-9.369145333766937256e-02
-6.918030232191085815e-02
-5.689061433076858521e-02
-8.432131260633468628e-02
-6.395871937274932861e-02
-4.598966985940933228e-02
-2.757936343550682068e-02
-8.799383789300918579e-02
-1.209489256143569946e-01
-8.176977932453155518e-02
-4.219290614128112793e-02
-5.640969797968864441e-02
-3.871841728687286377e-02
-6.973748560994863510e-03
-1.784149743616580963e-02
-2.327426336705684662e-02
-4.809887334704399109e-02
-3.968138713389635086e-03
-1.071543172001838684e-01
-8.314740657806396484e-02
-4.928205162286758423e-02
-3.440942242741584778e-02
-5.877290386706590652e-03
-6.601830571889877319e-02
-2.040407247841358185e-02
4.407579079270362854e-03
3.468145057559013367e-02
-2.906169928610324860e-02
3.602191805839538574e-02
-2.925876295194029808e-03
4.714180529117584229e-02
9.319878369569778442e-02
8.182336390018463135e-02
3.730231523513793945e-02
3.702239831909537315e-03
-3.092299029231071472e-02
-1.011399924755096436e-01
-4.747280478477478027e-02
6.054195691831409931e-04
-3.420671075582504272e-02
-6.380917876958847046e-02
-2.454185858368873596e-02
-8.300120942294597626e-03
-7.748264819383621216e-02
-8.170528709888458252e-02
4.037646285723894835e-04
1.532423216849565506e-02
-5.567257106304168701e-02
-1.547795813530683517e-02
-5.314356833696365356e-02
-4.641384258866310120e-02
-2.091008611023426056e-02
-8.181698620319366455e-02
-1.136184930801391602e-01
-4.929784685373306274e-02
-6.104337517172098160e-03
-6.211003637872636318e-04
-3.960391879081726074e-02
2.040274441242218018e-02
-1.749999821186065674e-02
-4.845144692808389664e-03
-7.243134826421737671e-02
-8.606079965829849243e-02
-6.279184669256210327e-02
6.405270844697952271e-02
6.918333470821380615e-02
8.487673848867416382e-02
6.721806526184082031e-02
3.355615958571434021e-02
8.415327221155166626e-02
-7.148400694131851196e-02
-8.811695128679275513e-02
-6.451038271188735962e-02
2.317997440695762634e-02
3.982144594192504883e-02
1.953083463013172150e-02
5.376547947525978088e-02
4.195413552224636078e-03
7.162392884492874146e-02
-3.224756941199302673e-02
-4.973645880818367004e-02
-9.882880747318267822e-02
9.114659391343593597e-03
-2.765730023384094238e-02
-3.578834934160113335e-03
-3.033091127872467041e-02
-5.328086391091346741e-02
-6.743234395980834961e-02
-6.349657475948333740e-02
1.873213797807693481e-02
-4.068639245815575123e-04
6.997776031494140625e-02
-1.792525500059127808e-02
1.461340859532356262e-02
9.497705847024917603e-02
1.097852736711502075e-01
5.355666577816009521e-02
-1.815919391810894012e-02
-9.003750979900360107e-03
2.882633358240127563e-02
6.979670841246843338e-03
-2.166171558201313019e-02
2.032866235822439194e-03
1.477962546050548553e-02
6.616236642003059387e-03
7.253007497638463974e-03
-7.855772972106933594e-02
-1.081418842077255249e-01
-1.265264153480529785e-01
-6.699156947433948517e-03
1.271054334938526154e-02
2.486881241202354431e-02
-2.495096996426582336e-02
1.097122789360582829e-03
2.835777774453163147e-02
6.098435726016759872e-03
-6.177137419581413269e-02
-2.893694117665290833e-02
3.217712789773941040e-02
5.719508975744247437e-02
1.336869876831769943e-02
-4.069341812282800674e-03
2.228136733174324036e-02
4.639816656708717346e-02
-2.025377191603183746e-02
-6.184453144669532776e-02
-8.877204358577728271e-02
-4.132043104618787766e-03
5.039566662162542343e-03
5.474075675010681152e-03
-1.749512739479541779e-02
-3.791337832808494568e-02
2.475685067474842072e-02
2.073985897004604340e-02
-5.252238735556602478e-02
-4.304159432649612427e-02
-6.575160194188356400e-03
-6.932105123996734619e-02
-4.382495582103729248e-02
4.288819432258605957e-02
5.228532478213310242e-02
9.321089833974838257e-02
2.796234935522079468e-02
-2.748015522956848145e-02
-2.846604026854038239e-02
3.545443760231137276e-03
1.517589204013347626e-02
-5.738539621233940125e-02
-5.531731247901916504e-02
3.188448399305343628e-02
2.636554092168807983e-02
9.478312917053699493e-03
-2.289908938109874725e-03
1.236291453242301941e-01
2.831880748271942139e-02
-7.951240986585617065e-02
-6.054618954658508301e-02
-7.068037241697311401e-02
-7.627197541296482086e-03
-1.826986111700534821e-02
-6.993345171213150024e-02
-1.949315890669822693e-02
-3.894007951021194458e-02
4.626301303505897522e-02
1.443191803991794586e-02
2.923028729856014252e-02
4.481050651520490646e-03
1.919208280742168427e-02
2.362777292728424072e-02
-2.767292410135269165e-02
-7.688973098993301392e-02
3.349216282367706299e-02
-8.925805799663066864e-03
-5.130216106772422791e-02
-3.189836814999580383e-02
-3.873594105243682861e-02
7.929371669888496399e-03
-2.204537391662597656e-02
-1.795034296810626984e-02
-1.427021250128746033e-02
1.603776589035987854e-02
1.391395274549722672e-02
3.556744754314422607e-02
-1.035322062671184540e-02
7.304114103317260742e-02
7.968091219663619995e-02
4.205426946282386780e-02
9.248168207705020905e-03
-1.516174990683794022e-02
1.931948587298393250e-02
2.748674154281616211e-02
-2.225879020988941193e-02
-8.251741528511047363e-04
-1.401745807379484177e-02
4.143365193158388138e-03
5.087715387344360352e-02
-3.026252053678035736e-02
-5.880423262715339661e-02
-2.997913770377635956e-02
-1.248386129736900330e-02
-3.296981751918792725e-02
-3.428530693054199219e-02
-6.528073456138372421e-03
9.007152169942855835e-03
4.686354473233222961e-02
-5.382713675498962402e-02
-9.399113804101943970e-02
-4.797558858990669250e-02
-2.853487059473991394e-02
-8.927362412214279175e-02
-5.496648699045181274e-02
-2.914433553814888000e-02
-8.081191778182983398e-02
-5.761633813381195068e-02
-2.561151050031185150e-02
-3.899674862623214722e-02
3.598330169916152954e-02
3.600456193089485168e-02
-4.607538506388664246e-02
-6.472047418355941772e-02
-4.366843029856681824e-02
-5.499205365777015686e-02
-2.018013224005699158e-02
3.138956055045127869e-02
-5.133398622274398804e-02
2.591364458203315735e-02
-1.563941873610019684e-02
-9.233389049768447876e-02
-9.155629575252532959e-02
-5.301256850361824036e-02
1.404443848878145218e-02
-2.867824863642454147e-03
1.398226711899042130e-02
-2.517897449433803558e-02
4.458881914615631104e-02
3.151468187570571899e-02
5.989166721701622009e-02
5.469306930899620056e-02
1.298744138330221176e-02
5.425265803933143616e-02
1.449622772634029388e-02
-3.149794787168502808e-02
-7.733835838735103607e-03
-3.785064443945884705e-02
1.112131122499704361e-02
-2.923331409692764282e-02
-1.073432806879281998e-02
4.815597087144851685e-02
4.861391708254814148e-02
-5.531070288270711899e-03
-3.647327423095703125e-02
-4.100144281983375549e-02
1.362828817218542099e-02
-5.482611060142517090e-02
-5.390700697898864746e-02
-3.938948735594749451e-02
-2.766754850745201111e-02
3.783791325986385345e-03
6.616982165724039078e-03
-9.815647266805171967e-03
-8.684647828340530396e-02
-1.037889569997787476e-01
1.140515971928834915e-02
-1.245201751589775085e-02
3.015430876985192299e-03
-5.048165470361709595e-02
-1.560617820359766483e-03
-3.958839178085327148e-02
-2.321362681686878204e-02
-3.438861295580863953e-02
4.536263644695281982e-02
-1.612876541912555695e-02
-4.255395010113716125e-02
1.503870473243296146e-03
-6.686076987534761429e-03
-2.443230012431740761e-03
1.008467655628919601e-02
-3.634065389633178711e-02
-9.560071676969528198e-02
-3.063659556210041046e-02
